{"gru.weight_ih_l0": [[-0.1737375110387802, 0.2652977406978607, -0.09909911453723907, -0.09310971200466156, -0.18958137929439545], [0.31353700160980225, 0.22310970723628998, 0.14575955271720886, -0.25561413168907166, -0.3692314624786377], [0.049197811633348465, 0.13476504385471344, -0.2100137323141098, -0.127268448472023, 0.3071969747543335], [0.036233920603990555, 0.020522471517324448, -0.11194100975990295, -0.41191548109054565, -0.42768439650535583], [-0.21742938458919525, -0.2312144786119461, 0.14171290397644043, -0.1324142962694168, -0.17795084416866302], [0.43367597460746765, 0.15843772888183594, 0.3242699205875397, -0.2202029526233673, -0.18579474091529846], [0.16717903316020966, -0.3030611276626587, -0.29734307527542114, -0.02196953259408474, -0.1663694828748703], [-0.3409885764122009, 0.26980358362197876, 0.3657805919647217, 0.07378871738910675, -0.07919695973396301], [-0.4213234484195709, -0.16567720472812653, 0.11580052226781845, 0.21447999775409698, -0.05750212445855141], [-0.17982973158359528, 0.2534591853618622, -0.3622494637966156, 0.2874789535999298, -0.17646467685699463], [0.006961796432733536, -0.08988732099533081, 0.055146608501672745, -0.13745762407779694, 0.3307401239871979], [-0.01182503905147314, 0.3550625741481781, 0.4373379051685333, -0.22160311043262482, -0.3318236768245697], [0.36493414640426636, 0.3564337193965912, -0.3473062515258789, -0.03516208380460739, -0.44854825735092163], [-0.37234702706336975, 0.0878525897860527, 0.12100818753242493, 0.09642145782709122, -0.12379652261734009], [0.4196426272392273, 0.06503478437662125, -0.2684052884578705, -0.02575128898024559, 0.10923217236995697], [0.159288227558136, -0.32162198424339294, 0.17047636210918427, -0.2323790341615677, -0.37796056270599365], [-0.24844728410243988, 0.4386701285839081, 0.38883963227272034, 0.40731900930404663, 0.2670072317123413], [0.3436228930950165, -0.06088273599743843, -0.25027602910995483, 0.22727319598197937, -0.23570001125335693], [-0.30696868896484375, -0.14525189995765686, 0.09545633941888809, 0.23415979743003845, -0.17667128145694733], [-0.26771458983421326, 0.061357300728559494, -0.26810890436172485, -0.29614102840423584, 0.23709604144096375], [-0.07640928030014038, 0.41564318537712097, 0.4424787759780884, 0.13605079054832458, 0.15654316544532776], [0.10474659502506256, 0.007123490795493126, -0.0330829955637455, 0.006251632701605558, 0.16985554993152618], [0.4229144752025604, -0.11788079887628555, -0.1922760158777237, -0.11015082150697708, -0.21975333988666534], [0.07734360545873642, 0.3395286500453949, 0.3556893467903137, 0.20883730053901672, -0.33474496006965637]], "gru.weight_hh_l0": [[0.12854468822479248, 0.19891701638698578, 0.26406705379486084, 0.26121124625205994, -0.1431056261062622, -0.24245938658714294, -0.16700272262096405, -0.16300493478775024], [0.0752694383263588, -0.08789867907762527, -0.0017835868056863546, -0.1922638863325119, 0.020605115219950676, 0.11708445101976395, -0.024660618975758553, 0.014432174153625965], [-0.022356979548931122, -0.4031521677970886, -0.0035809415858238935, 0.17909139394760132, -0.08274596929550171, -0.026194140315055847, -0.14265447854995728, 0.09131260961294174], [0.37542828917503357, 0.1635148823261261, -0.08365007489919662, -0.24279704689979553, -0.00040396658005192876, 0.22471994161605835, -0.09583090245723724, 0.27390056848526], [0.3408691883087158, 0.11264107376337051, -0.20200063288211823, -0.12711700797080994, 0.01576157845556736, -0.25584638118743896, -0.09965928643941879, -0.24714243412017822], [-0.2888745963573456, -0.07681208103895187, 0.31200480461120605, 0.11931203305721283, -0.3307582139968872, 0.37674078345298767, -0.1989288032054901, 0.13376744091510773], [0.1099979504942894, 0.20113496482372284, 0.13972364366054535, 0.3889993131160736, -0.03596377372741699, 0.3582853674888611, 0.3718247413635254, 0.10032765567302704], [0.051671408116817474, 0.276172399520874, 0.3578934073448181, 0.18048478662967682, 0.5100194811820984, 0.1205759197473526, -0.11968355625867844, 0.18870073556900024], [-0.002085587475448847, 0.05159556865692139, 0.36500945687294006, -0.46069738268852234, -0.009759396314620972, 0.03460017964243889, -0.19361267983913422, -0.043097034096717834], [0.02437659166753292, -0.1354980319738388, 0.10922080278396606, -0.1856205016374588, -0.06625184416770935, -0.10607053339481354, -0.19396452605724335, 0.10836395621299744], [0.18949007987976074, -0.26565301418304443, 0.20172752439975739, 0.26491212844848633, -0.3148834705352783, -0.21574193239212036, 0.020385850220918655, 0.10569915175437927], [0.14597177505493164, 0.0640970766544342, 0.1012224555015564, -0.2587842345237732, -0.23606818914413452, 0.26201629638671875, -0.2255137860774994, -0.026321304962038994], [0.05274973809719086, 0.1031455546617508, 0.10122541338205338, -0.046984411776065826, -0.2715412974357605, -0.26776817440986633, 0.45972153544425964, -0.11894368380308151], [0.16748100519180298, 0.1945217400789261, -0.03879638761281967, -0.10282578319311142, -0.077348493039608, -0.01277080923318863, 0.28023502230644226, 0.43508967757225037], [-0.16681021451950073, 0.2175404280424118, -0.06504208594560623, 0.011551075614988804, -0.093119315803051, 0.06711336970329285, 0.07083390653133392, -0.09834589809179306], [-0.5543425679206848, 0.026594622060656548, -0.058047402650117874, -0.028097793459892273, 0.06840801984071732, -0.17658524215221405, 0.008590798825025558, 0.22572676837444305], [0.06680607050657272, 0.06750993430614471, -0.015735501423478127, -0.0315077118575573, -0.17500536143779755, -0.18666309118270874, -0.03401878848671913, 0.45673203468322754], [-0.15791858732700348, 0.007957763969898224, 0.23377582430839539, -0.08497848361730576, 0.023187734186649323, 0.1311405897140503, 0.07798552513122559, -0.34579896926879883], [0.12005666643381119, 0.3346115052700043, -0.18398723006248474, 0.33254528045654297, 0.014532512985169888, -0.00768179539591074, -0.3759746253490448, -0.019109729677438736], [-0.08101087063550949, 0.35634684562683105, -0.08802464604377747, -0.0030981344170868397, -0.5430288314819336, 0.10743410885334015, -0.08431044965982437, -0.1548881083726883], [0.18091565370559692, -0.2958567142486572, -0.21909110248088837, 0.25572991371154785, -0.04747496545314789, 0.15979209542274475, -0.26012131571769714, -0.02702174335718155], [-0.16041317582130432, 0.24965354800224304, 0.1825394183397293, 0.055565379559993744, -0.0036046223249286413, -0.4323368966579437, -0.2919141352176666, 0.11994080245494843], [0.2968516945838928, -0.17999979853630066, 0.491288959980011, 0.02655644342303276, 0.03369995579123497, -0.11503923684358597, 0.09948216378688812, -0.05218103155493736], [-0.03502631187438965, -0.10042360424995422, -0.05344104394316673, -0.06277801096439362, -0.1381853073835373, -0.03875509649515152, -0.007800519000738859, 0.3244985044002533]], "gru.bias_ih_l0": [0.0, 0.0, 0.0, 0.0, 0.0, 0.0, 0.0, 0.0, 0.0, 0.0, 0.0, 0.0, 0.0, 0.0, 0.0, 0.0, 0.0, 0.0, 0.0, 0.0, 0.0, 0.0, 0.0, 0.0], "gru.bias_hh_l0": [0.0, 0.0, 0.0, 0.0, 0.0, 0.0, 0.0, 0.0, 0.0, 0.0, 0.0, 0.0, 0.0, 0.0, 0.0, 0.0, 0.0, 0.0, 0.0, 0.0, 0.0, 0.0, 0.0, 0.0], "fc.weight": [[0.6790145039558411, 0.4473874270915985, -0.34532997012138367, -0.3524380326271057, -0.619455099105835, 0.185477152466774, -0.5986303091049194, 0.31198129057884216], [0.2332320511341095, -0.6416529417037964, 0.20125523209571838, -0.0600665807723999, 0.3373822569847107, 0.4237717092037201, -0.7342247366905212, 0.6773223876953125], [0.6193781495094299, 0.29385656118392944, -0.6750049591064453, -0.26382502913475037, -0.21403802931308746, -0.1898055523633957, 0.4164848327636719, 0.2685146629810333]], "fc.bias": [-5.0, -5.0, -5.0]}