{"effector": "ReluPointMass24", "input_dim": 12, "hidden_dim": 32, "output_dim": 4, "weights": {"gru.weight_ih_l0": [[0.26132047176361084, -0.0854078084230423, 0.0355621837079525, 0.08452828228473663, 0.2830532491207123, -0.15842127799987793, -0.13320401310920715, -0.15430936217308044, -0.054948072880506516, -0.26751211285591125, 0.2863512337207794, -0.023731255903840065], [-0.41174420714378357, 0.08474387973546982, 0.25472167134284973, -0.1901749223470688, 0.20489956438541412, -0.014503488317131996, 0.19231687486171722, -0.14692670106887817, -0.13990968465805054, 0.06096692383289337, -0.1266038566827774, 0.1193181574344635], [0.10069620609283447, 0.09079668670892715, -0.13086991012096405, -0.19771958887577057, 0.019352804869413376, 0.24392032623291016, 0.042630281299352646, 0.20698842406272888, -0.2041275054216385, -0.02914842963218689, -0.09700346738100052, 0.023083487525582314], [-0.09429455548524857, 0.22926312685012817, -0.02371637150645256, -0.17890526354312897, 0.11950288712978363, -0.1634298712015152, -0.17799533903598785, 0.009725181385874748, 0.18433256447315216, 0.06941696256399155, 0.18222716450691223, 0.10257380455732346], [-0.40826258063316345, -0.1734011471271515, 0.011469198390841484, -0.029022201895713806, -0.13518066704273224, 0.08509456366300583, 0.12435565143823624, 0.10674788802862167, -0.19181855022907257, 0.13822674751281738, -0.21399560570716858, -0.010457652620971203], [-0.025124922394752502, -0.41189998388290405, 0.023654673248529434, 0.2432757318019867, -0.06156187504529953, -0.07916202396154404, 0.21050408482551575, -0.13228444755077362, -0.141250342130661, 0.3027506172657013, 0.17511583864688873, -0.16562394797801971], [0.17787058651447296, 0.031900715082883835, -0.24867908656597137, 0.121295265853405, 0.2369033545255661, 0.2044486403465271, -0.07696592062711716, 0.09475845098495483, 0.16018721461296082, -0.05989057198166847, -0.1998622715473175, -0.1323544681072235], [0.26084059476852417, 0.1963341236114502, -0.04629223421216011, -0.2741045653820038, 0.2520177364349365, -0.1232779324054718, 0.21342787146568298, 0.10904078930616379, 0.15578004717826843, 0.1311642825603485, 0.02864476665854454, -0.1020459234714508], [0.0841103121638298, 0.006324123591184616, -0.23805172741413116, -0.19018234312534332, 0.32185158133506775, -0.03840447589755058, 0.2895854115486145, 0.2511095404624939, 0.17561617493629456, 0.11563992500305176, 0.08568533509969711, 0.2333676666021347], [0.02012885920703411, -0.104451984167099, 0.10018789768218994, 0.11161406338214874, -0.11367988586425781, 0.1900329738855362, 0.0677332952618599, 0.15945763885974884, 0.003639942267909646, -0.13227102160453796, 0.056034065783023834, -0.020839838311076164], [-0.028179621323943138, -0.20064005255699158, -0.12372860312461853, 0.20239166915416718, -0.06289137154817581, 0.22481612861156464, 0.22421808540821075, -0.05250727757811546, 0.008631853386759758, -0.2876884341239929, -0.029391737654805183, -0.2270704209804535], [-0.09804429113864899, 0.06172683462500572, -0.022866548970341682, -0.021275706589221954, 0.03330671042203903, 0.07332105189561844, -0.003723312169313431, 0.11714258044958115, -0.02184792421758175, 0.09365961700677872, -0.1948355734348297, 0.09524627029895782], [-0.3505067527294159, 0.2375347912311554, -0.0017827730625867844, 0.12904854118824005, 0.04389437288045883, -0.14276519417762756, -0.12641365826129913, 0.09720129519701004, 0.009193369187414646, 0.03266168758273125, 0.0952034667134285, 0.15025772154331207], [0.012895670719444752, 0.06947004050016403, 0.24786090850830078, -0.26977619528770447, -0.03191448375582695, 0.09093284606933594, 0.1819458305835724, 0.10108315199613571, -0.14341917634010315, -0.16720551252365112, 0.07286682724952698, 0.06834834069013596], [-0.06293044239282608, -0.037920255213975906, -0.04230870306491852, -0.09064047038555145, -0.058804288506507874, -0.07252933830022812, -0.21413643658161163, 0.011052862741053104, 0.2314368337392807, -0.11530061811208725, -0.27222341299057007, -0.07846925407648087], [-0.19157391786575317, -0.22307327389717102, -0.024823181331157684, -0.2592794597148895, -0.046976134181022644, -0.16703319549560547, 0.28282225131988525, 0.09978523850440979, 0.14568564295768738, -0.11273813992738724, -0.07239942997694016, 0.15416237711906433], [0.39722776412963867, 0.12281779944896698, 0.18297001719474792, -0.23794952034950256, 0.04410514235496521, 0.1557212620973587, 0.3104313015937805, -0.019051190465688705, 0.08744026720523834, -0.09798002988100052, 0.08770717680454254, 0.0912933498620987], [-0.12990722060203552, 0.14835888147354126, -0.016036992892622948, 0.01908343844115734, 0.1461813896894455, -0.07632225006818771, 0.08318009227514267, 0.3216339349746704, 0.14562956988811493, 0.01916487328708172, -0.09409987181425095, 0.23394933342933655], [0.1874048262834549, -0.3154461085796356, -0.03165639191865921, 0.2205919474363327, 0.06408911943435669, 0.10821191221475601, 0.2321249544620514, -0.00850189384073019, 0.038729067891836166, 0.03642534464597702, -0.17129471898078918, 0.019970837980508804], [-0.04808713495731354, 0.053508926182985306, -0.07260537147521973, 0.09111088514328003, -0.04907797649502754, 0.31544116139411926, 0.17628589272499084, 0.04625002667307854, 0.019435588270425797, 0.07114997506141663, 0.011391057632863522, 0.00869758240878582], [0.08534254133701324, 0.06887195259332657, -0.2937219738960266, -0.02955188974738121, 0.0754057914018631, -0.05456613376736641, 0.07020454108715057, 0.10139167308807373, -0.1051548644900322, 0.01933915540575981, -0.1639946848154068, -0.13622772693634033], [0.2687728703022003, -0.10805866122245789, 0.10692515224218369, 0.07001662999391556, -0.18958206474781036, -0.12006106972694397, -0.08612363040447235, -0.07512932270765305, -0.20594902336597443, -0.09588578343391418, 0.041591744869947433, -0.07023682445287704], [0.20692871510982513, 0.22588543593883514, -0.016423994675278664, -0.04407518357038498, 0.21632356941699982, -0.12607814371585846, -0.07030460238456726, 0.17517495155334473, 0.02793789841234684, -0.1776007115840912, -0.055890846997499466, 0.024090370163321495], [0.041048742830753326, -0.08729688078165054, -0.11322148889303207, 0.2048293650150299, -0.06055330112576485, 0.11301916837692261, -0.1494782269001007, 0.18515318632125854, 0.1638128161430359, 0.18904846906661987, -0.06357140094041824, 0.13934451341629028], [-0.047990698367357254, -0.01680869795382023, -0.02071339264512062, 0.23385772109031677, 0.027460189536213875, 0.0748729482293129, 0.12839388847351074, 0.06432198733091354, -0.12725336849689484, 0.0024081903975456953, -0.1930609792470932, -0.1748429834842682], [-0.12758605182170868, -0.07200075685977936, 0.21735969185829163, -0.11458592116832733, 0.04397302120923996, 0.11721882224082947, -0.09822997450828552, -0.12464845180511475, -0.30533674359321594, -0.1364656239748001, 0.04163610190153122, -0.022147944197058678], [0.08535395562648773, -0.16882836818695068, -0.1612556427717209, -0.0659259557723999, -0.02453448250889778, 0.02231070026755333, -0.10563252121210098, 0.19742897152900696, -0.24536515772342682, -0.2639836072921753, 0.21799637377262115, 0.036689985543489456], [0.3207627832889557, -0.12181118875741959, -0.34803447127342224, -0.21384799480438232, -0.10292032361030579, 0.01127393264323473, 0.08761094510555267, 0.15455037355422974, -0.18480488657951355, 0.26432642340660095, -0.10457854717969894, -0.08448740094900131], [0.29361414909362793, -0.03036375902593136, -0.04512931779026985, 0.2115703672170639, 0.24260522425174713, -0.06050179898738861, 0.23781748116016388, 0.16173096001148224, 0.2548713684082031, -0.23982885479927063, -0.09741386026144028, 0.13984128832817078], [-0.25202465057373047, 0.03432070463895798, -0.12172152101993561, 0.19442296028137207, -0.09467094391584396, 0.0245429165661335, 0.1505667269229889, -0.10680035501718521, 0.04286101087927818, 0.23426871001720428, -0.23121356964111328, -0.12812085449695587], [0.24414554238319397, 0.08979242295026779, 0.018350552767515182, 0.15645335614681244, -0.19006411731243134, -0.052167754620313644, 0.10818522423505783, 0.07146995514631271, -0.007412553299218416, -0.2929394841194153, 0.10603360086679459, -0.12277598679065704], [-0.005921581294387579, -0.10619273036718369, -0.061257585883140564, -0.13894735276699066, -0.1354760378599167, -0.028821272775530815, -0.08106949180364609, 0.1708846539258957, 0.08404681831598282, -0.11443709582090378, 0.04872188717126846, -0.3566833734512329], [0.14000558853149414, 0.014227806590497494, 0.03886651247739792, 0.0741211473941803, 0.04148801788687706, 0.03516814112663269, -0.0901033952832222, -0.27135366201400757, 0.12924830615520477, 0.16471168398857117, -0.2746564745903015, 0.21832703053951263], [0.11844295263290405, 0.02970116212964058, 0.03747789189219475, -0.06628720462322235, 0.11009019613265991, -0.26122045516967773, -0.0616341233253479, -0.12836523354053497, -0.16462849080562592, 0.03425256907939911, -0.05477195605635643, -0.24173784255981445], [-0.1046421155333519, -0.027900775894522667, -0.11031285673379898, -0.07650518417358398, -0.18828053772449493, -0.028828751295804977, 0.20492956042289734, -0.19396762549877167, 0.10709554702043533, 0.04513736069202423, -0.021380072459578514, -0.08054253458976746], [-0.02258286438882351, 0.08345590531826019, 0.11406673491001129, -0.04932857304811478, 0.03732772916555405, -0.2949258089065552, -0.21733000874519348, -0.32495954632759094, -0.35078027844429016, 0.41959482431411743, -0.19631721079349518, 0.03661690279841423], [0.07450471073389053, 0.08263061195611954, -0.06276973336935043, 0.24147531390190125, -0.04295213147997856, 0.005757028236985207, -0.02323479764163494, -0.29000940918922424, -0.06118926778435707, -0.029476052150130272, -0.021434033289551735, -0.06757929176092148], [-0.07726597785949707, -0.16933488845825195, -0.15285061299800873, -0.03309609368443489, -0.20911352336406708, -0.23242363333702087, -0.1259882152080536, -0.04410253092646599, 0.13672927021980286, 0.11434491723775864, 0.14759758114814758, 0.2156333029270172], [0.054307784885168076, -0.02499355934560299, -0.08029382675886154, 0.23479850590229034, -0.21481198072433472, -0.06289380043745041, -0.1621180921792984, -0.18137426674365997, -0.1907213181257248, -0.13699115812778473, 0.04652624577283859, -0.14620499312877655], [0.003209260292351246, -0.039384305477142334, 0.24332115054130554, 0.35208746790885925, -0.14973320066928864, -0.17263935506343842, -0.2677837312221527, 0.19173768162727356, 0.20084218680858612, 0.10579126328229904, -0.24688342213630676, -0.2549780607223511], [-0.008980922400951385, 0.06682974845170975, 0.20186471939086914, -0.027708526700735092, -0.09972476214170456, -0.020223241299390793, -0.2057817429304123, 0.0353003591299057, 0.2227967083454132, -0.3315112292766571, -0.11139189451932907, -0.0590403787791729], [0.009112524800002575, 0.3550744652748108, -0.06247970834374428, 0.08636745065450668, 0.0687103122472763, 0.02011246420443058, -0.01290872786194086, 0.1004718616604805, 0.015948060899972916, -0.21899130940437317, 0.2554475665092468, 0.0015447482001036406], [-0.0929834246635437, 0.06683540344238281, -0.12227503210306168, 0.1414824277162552, 0.10182983428239822, -0.041657838970422745, -0.1774190068244934, -0.07800927013158798, -0.1051599308848381, 0.12552252411842346, -0.06142060086131096, -0.0958254262804985], [0.04671425744891167, 0.06806554645299911, 0.23833763599395752, -0.17451156675815582, -0.15617051720619202, 0.04888193681836128, -0.15962859988212585, 0.17792470753192902, 0.17913933098316193, 0.4170227646827698, -0.15113016963005066, 0.04538073390722275], [-0.2342529147863388, -0.1623728722333908, 0.06688880920410156, -0.051648858934640884, -0.04190180450677872, -0.07564190030097961, -0.07558196783065796, -0.07347755879163742, -0.12353955954313278, -0.05613134428858757, -0.0445227175951004, -0.12761147320270538], [-0.09036444872617722, -0.026066359132528305, 0.07905706018209457, 0.01740948110818863, 0.04853422939777374, 0.04382292926311493, -0.3023242950439453, -0.10678249597549438, -0.1347958892583847, -0.036652594804763794, 0.15056201815605164, 0.12635371088981628], [0.1792728304862976, -0.21418796479701996, 0.07967851310968399, 0.2032085508108139, 0.172380730509758, -0.10114651918411255, 0.05355946719646454, 0.28075069189071655, 0.16797618567943573, 0.04072129726409912, -0.09465566277503967, 0.04676125571131706], [0.1647496074438095, -0.04763869196176529, 0.1854977160692215, -0.15713483095169067, -0.23415285348892212, 0.01438983902335167, -0.16055303812026978, -0.26729100942611694, 0.0675864964723587, 0.02629353478550911, 0.0545651875436306, -0.028847109526395798], [0.08515865355730057, 0.10013758391141891, 0.01677604205906391, -0.056464917957782745, -0.04822104424238205, 0.012833892367780209, -0.12266319245100021, -0.30378371477127075, 0.041360482573509216, -0.2638454735279083, -0.10011513531208038, 0.13106633722782135], [-0.07114867866039276, 0.026275634765625, 0.13907082378864288, -0.14966486394405365, -0.03716100752353668, -0.17764702439308167, -0.06649001687765121, -0.05655566230416298, -0.06262852996587753, -0.024903036653995514, -0.10630256682634354, -0.2314896136522293], [0.26651960611343384, 0.12366964668035507, 0.033683955669403076, -0.06802583485841751, -0.3201731741428375, -0.10727500915527344, -0.04262512922286987, -0.3454126715660095, -0.1439441293478012, -0.1571529507637024, 0.1053127571940422, -0.05032002925872803], [0.0858575627207756, -0.1408551186323166, -0.2649344503879547, 0.16416065394878387, 0.11817391216754913, -0.032904252409935, -0.14244726300239563, -0.1849900335073471, 0.2163173407316208, 0.15962253510951996, -0.2173636108636856, -0.20794399082660675], [0.06300139427185059, 0.05160018056631088, -0.1372101604938507, -0.22798007726669312, -0.2692549228668213, 0.0582127571105957, -0.2473287284374237, 0.11798141151666641, -0.1402508020401001, -0.13774943351745605, -0.16696545481681824, -0.26342469453811646], [0.2467559278011322, -0.1051546111702919, 0.2387995421886444, 0.05933009460568428, -0.28668737411499023, -0.2259368747472763, -0.004312560427933931, -0.11927187442779541, -0.047025859355926514, 0.06902268528938293, -0.10264865309000015, -0.25676581263542175], [0.01894555427134037, -0.07335910946130753, -0.14300799369812012, 0.18947888910770416, 0.0972684845328331, -0.12772130966186523, -0.22617371380329132, -0.2592063546180725, -0.14491817355155945, -0.05725910887122154, 0.16975215077400208, -0.05129409208893776], [0.07354193925857544, 0.10552771389484406, -0.07083460688591003, 0.05708787962794304, -0.12362757325172424, -0.2301129847764969, 0.007510537281632423, -0.10126355290412903, 0.079645536839962, 0.10255371034145355, -0.017138337716460228, -0.08004941791296005], [0.09315390139818192, -0.04250852391123772, -0.08989445865154266, 0.06998471915721893, -0.21064116060733795, 0.1295175403356552, -0.014704355038702488, 0.13098371028900146, -0.02666843682527542, 0.09134885668754578, 0.28305351734161377, -0.0970042422413826], [0.3924248516559601, -0.048294808715581894, -0.274177610874176, -0.16653946042060852, -0.23953264951705933, -0.03732868656516075, -0.014624831266701221, -0.18661777675151825, 0.044784534722566605, 0.14092481136322021, -0.14083696901798248, 0.04345741495490074], [-0.13250510394573212, -0.20898108184337616, -0.1322913020849228, 0.24958276748657227, 0.11387301981449127, -0.2575925588607788, -0.0321219302713871, -0.13243024051189423, -0.14169172942638397, 0.19601783156394958, 0.0709722638130188, -0.21626527607440948], [-0.031424954533576965, -0.023152006790041924, 0.14988131821155548, 0.07047951966524124, -0.3473934829235077, -0.28766965866088867, -0.14220887422561646, -0.22101637721061707, -0.1442660391330719, -0.006313018035143614, -0.06177600845694542, -0.10507452487945557], [0.04049484431743622, -0.2379511147737503, -0.016620051115751266, -0.021233823150396347, -0.06825920194387436, -0.2002163678407669, 0.013657646253705025, -0.17579397559165955, -0.058935943990945816, -0.3174706995487213, 0.10850134491920471, -0.18457236886024475], [-0.06360818445682526, -0.10218039900064468, -0.03538331389427185, -0.17732848227024078, -0.049664806574583054, -0.29723212122917175, -0.16180270910263062, 0.037850040942430496, -0.11839406192302704, 0.02782226912677288, 0.11582310497760773, 0.21076013147830963], [-0.01663021184504032, -0.10106708109378815, -0.06434252858161926, 0.078519806265831, -0.031908709555864334, -0.1571425497531891, -0.10591690242290497, -0.2511025369167328, 0.18866704404354095, -0.15726850926876068, -0.12509207427501678, 0.243827685713768], [-0.18856437504291534, -0.24085824191570282, 0.05872899666428566, 0.11850650608539581, -0.20311225950717926, -0.14812588691711426, 0.07914137095212936, -0.14056792855262756, -0.01880982145667076, -0.1901465207338333, 0.10359694808721542, -0.09982819110155106], [-0.06580112129449844, 0.12548954784870148, -0.26372623443603516, -0.11582370102405548, 0.09878303855657578, 0.15601705014705658, 0.06646767258644104, 0.22821544110774994, 0.13974294066429138, 0.12459143996238708, 0.005016103386878967, 0.15013690292835236], [0.07922013103961945, -0.10264705866575241, -0.19541239738464355, 0.20316965878009796, 0.033649250864982605, 0.07067324221134186, -0.22931185364723206, 0.05183473229408264, -0.12281463295221329, 0.010422686114907265, 0.10551735013723373, -0.13586260378360748], [0.2019696682691574, 0.14476098120212555, 0.08913877606391907, -0.08024036139249802, 0.11895377188920975, 0.19220711290836334, 0.018793640658259392, 0.1395198106765747, 0.1716814786195755, 0.23680324852466583, 0.10119016468524933, -0.10062800347805023], [0.10744012147188187, 0.3405570089817047, 0.11143355816602707, -0.10193654894828796, 0.021725043654441833, -0.13082683086395264, -0.0782921090722084, 0.042967718094587326, 0.07665535062551498, 0.04372481256723404, 0.024629952386021614, 0.10010560601949692], [0.10477067530155182, 0.2804402709007263, -0.08412322402000427, 0.1350344568490982, 0.1280594766139984, 0.0718221440911293, 0.047377269715070724, -0.1704879105091095, 0.2286917269229889, 0.019084099680185318, -0.024470215663313866, 0.009432950057089329], [0.11219270527362823, -0.30257007479667664, -0.1522064059972763, 0.16288577020168304, 0.06704608350992203, 0.02159220352768898, -0.008915424346923828, -0.14730322360992432, 0.2060750275850296, -0.19916917383670807, -0.08164159953594208, 0.23098982870578766], [-0.12588678300380707, 0.357808917760849, 0.07578344643115997, -0.27369025349617004, 0.13005462288856506, 0.0967671200633049, -0.026622412726283073, -0.07270286232233047, 0.14020751416683197, 0.12698839604854584, 0.05206810683012009, -0.011928437277674675], [-0.16979515552520752, -0.035356853157281876, 0.13340750336647034, -0.12564270198345184, -0.062280017882585526, -0.0686056837439537, 0.1516799032688141, 0.03420417010784149, 0.13759690523147583, 0.014057174324989319, -0.04124565050005913, -0.11647245287895203], [-0.01875852607190609, 0.13946881890296936, -0.12412523478269577, -0.030372150242328644, 0.13385139405727386, -0.11465701460838318, -0.10084094852209091, -0.23376895487308502, -0.09166138619184494, -0.1903093308210373, -0.25418299436569214, 0.01677047647535801], [0.10073786228895187, 0.03341275826096535, 0.15592391788959503, -0.012826466001570225, 0.09687971323728561, -0.01506495289504528, 0.24466469883918762, -0.05154591053724289, 0.10547084361314774, 0.0718453899025917, 0.28982338309288025, 0.09003876894712448], [0.11689388751983643, 0.23026615381240845, -0.13970234990119934, 0.056043196469545364, -0.02105560712516308, -0.1351063996553421, 0.03512011840939522, 0.017541971057653427, 0.22224019467830658, 0.2367875576019287, 0.09009508043527603, 0.02352762408554554], [-0.20568682253360748, -0.12345119565725327, 0.13183118402957916, -0.13913150131702423, -0.11420633643865585, -0.2262236475944519, 0.04676938056945801, -0.12390053272247314, 0.0020300615578889847, -0.09181436896324158, 0.0813097208738327, 0.03436403349041939], [0.2548888325691223, 0.028933675959706306, -0.196160227060318, 0.17036090791225433, 0.1171833723783493, -0.24544431269168854, -0.056701429188251495, 0.1704866737127304, 0.02057269960641861, -0.17859342694282532, 0.1425168514251709, 0.1823364496231079], [-0.10831606388092041, -0.15382711589336395, -0.11552595347166061, -0.07193296402692795, 0.011998282745480537, -0.18692144751548767, -0.0873822346329689, -0.2759037911891937, -0.14316727221012115, -0.12553031742572784, 0.1991761475801468, -0.08390646427869797], [0.09719623625278473, 0.1686553955078125, 0.22058579325675964, 0.14757856726646423, -0.07086427509784698, -0.08684779703617096, 0.1733834445476532, -0.03035169094800949, 0.0982983261346817, -0.22530615329742432, 0.09347893297672272, 0.030519353225827217], [-0.02231503650546074, -0.2706761658191681, 0.23394915461540222, 0.2956838011741638, -0.07246894389390945, -0.2417612373828888, 0.13561932742595673, 0.16033190488815308, 0.023493871092796326, 0.05706041678786278, 0.09442216902971268, 0.17954199016094208], [-0.1247495785355568, 0.2757781445980072, -0.05632677674293518, -0.018245289102196693, -0.08831936120986938, -0.14766782522201538, -0.13514678180217743, 0.1264939159154892, 0.08112915605306625, 0.15311843156814575, -0.054603345692157745, 0.15494361519813538], [0.2869967222213745, -0.19262003898620605, -0.03982674703001976, -0.03785176947712898, 0.0651276484131813, -0.024244684725999832, 0.04090782627463341, 0.32923924922943115, 0.13433152437210083, -0.08492937684059143, 0.06497029960155487, 0.06026589125394821], [0.3187929093837738, -0.14613677561283112, 0.13953208923339844, 0.19621603190898895, 0.23603713512420654, -0.139740988612175, -0.15660801529884338, -0.03037322126328945, -0.10750675201416016, 0.014148566871881485, 0.03259818255901337, -0.10572411864995956], [-0.2902701497077942, -0.06502506881952286, -0.1343422830104828, -0.08617809414863586, 0.16439324617385864, -0.14532451331615448, 0.06901686638593674, -0.02284841611981392, -0.0998707041144371, -0.03294823691248894, 0.0785169005393982, -0.04109210520982742], [0.03346068784594536, 0.17648127675056458, -0.17185933887958527, -0.1800704002380371, -0.27322515845298767, -0.27553269267082214, -0.014197153970599174, -0.26796263456344604, 0.05908975750207901, 0.00427793525159359, -0.08640249073505402, 0.06099691987037659], [-0.19277027249336243, -0.37178534269332886, 0.1664489507675171, 0.18637749552726746, 0.15089112520217896, -0.14120514690876007, -0.1129181832075119, -0.04762735962867737, 0.1676759272813797, 0.05084862560033798, 0.08729676902294159, 0.022401388734579086], [-0.25029048323631287, -0.01547860074788332, -0.03458181768655777, -0.04746433347463608, -0.07503340393304825, 0.07488750666379929, 0.15350674092769623, 0.19974075257778168, -0.2230028510093689, -0.21536283195018768, -0.09708644449710846, 0.08605356514453888], [-0.34948664903640747, 0.26102155447006226, 0.053622763603925705, 0.14698773622512817, -0.0491291768848896, 0.13046680390834808, -0.17070722579956055, 0.13413015007972717, -0.047115202993154526, 0.05413317307829857, 0.06837186962366104, -0.025508355349302292], [0.07127492874860764, 0.14908257126808167, -0.09994801878929138, -0.04587995633482933, -0.22600646317005157, 0.15054544806480408, 0.10937290638685226, -0.21913231909275055, -0.3089459240436554, -0.24462886154651642, -0.09301833808422089, 0.010254127904772758], [0.1982191950082779, -0.2782611548900604, -0.21223552525043488, 0.1739979088306427, -0.10514772683382034, 0.0678367167711258, 0.1744891107082367, -0.23491235077381134, -0.03947502747178078, -0.18816985189914703, 0.18370871245861053, 0.0012597376480698586], [-0.3692699074745178, -0.09650726616382599, 0.20802335441112518, -0.018511543050408363, 0.11998851597309113, 0.18434610962867737, 0.10313141345977783, -0.05895407870411873, -0.13333240151405334, -0.023545144125819206, -0.1007314920425415, 0.03144187107682228], [0.39487597346305847, 0.12258533388376236, 0.021778063848614693, -0.041570838540792465, 0.14548268914222717, -0.178519606590271, 0.16340535879135132, -0.20373046398162842, 0.12129681557416916, 0.013388821855187416, 0.049221448600292206, -0.051087938249111176], [-0.2945121228694916, -0.07956915348768234, 0.22294075787067413, -0.11438949406147003, 0.08140161633491516, -0.1773272603750229, 0.04107915982604027, -0.06445828080177307, 0.0758008360862732, 0.06275251507759094, 0.06047573685646057, 0.04457278549671173], [0.22042401134967804, 0.20529448986053467, -0.07791212946176529, -0.026464050635695457, 0.09091801196336746, 0.22089609503746033, 0.2404404580593109, 0.22666387259960175, -0.11821676790714264, -0.15944361686706543, 0.012729217298328876, -0.14311261475086212], [-0.24059484899044037, 0.24466753005981445, 0.13893520832061768, 0.09346762299537659, 0.21913638710975647, 0.24800485372543335, -0.05729636549949646, 0.0468808189034462, 0.04679137095808983, 0.02448371984064579, -0.1553567349910736, 0.14307603240013123], [0.02667715959250927, -0.1751127541065216, -0.2562553286552429, -0.19176992774009705, -0.24039869010448456, -0.2592712640762329, -0.011425526812672615, 0.036296457052230835, -0.10076778382062912, -0.17136164009571075, -0.18398597836494446, -0.10004045814275742]], "gru.weight_hh_l0": [[-0.055162444710731506, -0.08026927709579468, -0.05677156150341034, -0.2828634977340698, -0.013987480662763119, -0.06023017317056656, -0.12811461091041565, -0.04135921224951744, -0.016059277579188347, 0.19508753716945648, 0.08975537121295929, 0.005139312241226435, 0.037967514246702194, -0.21000128984451294, 0.02376837283372879, 0.14197103679180145, -0.15126873552799225, 0.1926741600036621, -0.13559693098068237, 0.1966894119977951, -0.1695595383644104, -0.05288367345929146, 0.1687604933977127, -0.04911470040678978, -0.1563931405544281, 0.19992578029632568, -0.1143588200211525, 0.1959654837846756, -0.043861858546733856, -0.031127745285630226, 0.18096648156642914, -0.1021585687994957], [0.11894940584897995, -0.0744277611374855, 0.13877539336681366, 0.0975857600569725, -0.12624412775039673, -0.20859000086784363, -0.04256143048405647, 0.02063486911356449, -0.02917584590613842, 0.21133258938789368, 0.10574762523174286, 0.04054684191942215, 0.030650189146399498, -0.02691708132624626, -0.009670982137322426, 0.03578263521194458, 0.06892770528793335, 0.051586780697107315, -0.21544313430786133, 0.014266900718212128, -0.07566795498132706, 0.029141589999198914, 0.027144301682710648, 0.20208050310611725, -0.12134943902492523, -0.004478969145566225, 0.17673911154270172, -0.271653413772583, 0.24089191854000092, -0.04052957892417908, 0.21425151824951172, -0.044391948729753494], [0.21198996901512146, -0.279744416475296, 0.21740777790546417, -0.06256187707185745, -0.2511692941188812, 0.18351808190345764, 0.14182135462760925, 0.09814433008432388, -0.07317876070737839, 0.1814534068107605, -0.23115795850753784, -0.020152388140559196, -0.033822186291217804, -0.21960923075675964, -0.12137391418218613, 0.03937457874417305, 0.014698857441544533, 0.11341987550258636, -0.06723687797784805, 0.1726612150669098, -0.29185256361961365, -0.15136831998825073, 0.018400710076093674, 0.14966845512390137, -0.0038255034014582634, 0.06318864226341248, 0.21801158785820007, 0.006857673637568951, 0.08303303271532059, 0.1131274551153183, 0.07476870715618134, -0.030557364225387573], [0.03611938655376434, -0.1685570776462555, 0.0009132717968896031, 0.1873098909854889, -0.08232143521308899, 0.0015987582737579942, 0.3021356165409088, -0.11980875581502914, -0.046961672604084015, -0.024486500769853592, 0.09372939169406891, -0.07223410904407501, -0.016633441671729088, -0.19769185781478882, -0.0840742215514183, -0.07513319700956345, 0.026843486353754997, 0.2099614143371582, -0.17102450132369995, -0.15166407823562622, -0.17482177913188934, 0.050226446241140366, 0.24635307490825653, -0.17069774866104126, 0.08106102049350739, 0.02736305072903633, 0.12397923320531845, 0.07156012952327728, -0.16025441884994507, 0.02630809135735035, 0.0636746808886528, -0.21907319128513336], [-0.22814133763313293, 0.15242347121238708, 0.05055759474635124, -0.12217055261135101, 0.0935400128364563, 0.16706354916095734, -0.03039347380399704, 0.1502484381198883, 0.00446473341435194, 0.05423707515001297, -0.02959553897380829, 0.02594803087413311, -0.12240669876337051, 0.08196673542261124, -0.13829335570335388, -0.05769016221165657, 0.003878606017678976, -0.03017246164381504, 0.013903514482080936, 0.06792647391557693, 0.011439753696322441, 0.04921426624059677, 0.0004961584927514195, 0.22375363111495972, -0.044558919966220856, 0.029117343947291374, -0.1849684715270996, -0.2878953516483307, 0.07384981960058212, -0.0657123252749443, -0.0863356813788414, -0.07119092345237732], [0.009816654026508331, -0.04359084367752075, 0.20642562210559845, -0.2836073637008667, 0.05954853817820549, -0.02085297554731369, -0.06135033816099167, -0.07744866609573364, -0.009483324363827705, 0.10872023552656174, -0.06969962269067764, -0.11553769558668137, -0.008651521988213062, -0.06600873917341232, 0.1466401219367981, 0.22155606746673584, -0.12731151282787323, -0.1853005439043045, 0.1289467215538025, -0.08486543595790863, -0.24382054805755615, -0.04568622633814812, 0.008683420717716217, 0.02200934663414955, -0.14604118466377258, 0.02591654844582081, 0.13488589227199554, 0.19575166702270508, 0.030004575848579407, 0.005139515269547701, -0.1562929004430771, -0.06736154109239578], [0.05378422886133194, 0.0853591114282608, 0.23337145149707794, -0.03668637573719025, -0.0026843473315238953, -0.005755087360739708, -0.045003004372119904, 0.16416621208190918, -0.10579648613929749, -0.010631552897393703, 0.1135297417640686, -0.14244061708450317, 0.08771742880344391, 0.038562823086977005, 0.07546389102935791, 0.3482348918914795, 0.0893983244895935, 0.06608763337135315, 0.1543215960264206, 0.08600010722875595, -0.08955685049295425, 0.228058859705925, -0.015249698422849178, 0.04313024878501892, -0.1829311102628708, 0.05269777029752731, 0.004752310458570719, -0.08834163099527359, 0.057880252599716187, -0.02006436325609684, 0.12096524238586426, 0.04504190385341644], [-0.09159363806247711, -0.22848275303840637, 0.06960907578468323, 0.17207515239715576, 0.12649790942668915, -0.025481337681412697, -0.03574003651738167, -0.06787460297346115, 0.056804463267326355, 0.07607152312994003, -0.06368859857320786, -0.05082286149263382, -0.06013927236199379, -0.10510081052780151, 0.06097486615180969, -0.07029691338539124, -0.05320185422897339, 0.04727373272180557, -0.08847091346979141, 0.08540281653404236, 0.0030070627108216286, -0.050630856305360794, -0.17519702017307281, -0.02699488028883934, 0.18729723989963531, -0.1581079661846161, -0.1018078401684761, 0.05022057145833969, 0.0310773104429245, 0.16752450168132782, -0.058425333350896835, -0.013641729950904846], [0.03277040272951126, 0.10378054529428482, 0.13344480097293854, -0.06583669036626816, 0.004288753494620323, -0.1996665596961975, 0.0026394277811050415, 0.172338604927063, -0.29931995272636414, 0.07352480292320251, -0.18519294261932373, -0.06027701124548912, 0.06827370077371597, -0.11565256863832474, 0.17543306946754456, -0.014910048805177212, -0.030154481530189514, 0.14080330729484558, 0.1275058537721634, -0.1146240159869194, -0.0172731913626194, 0.05964459106326103, -0.08365515619516373, -0.11808288097381592, 0.014454673044383526, 0.22307731211185455, -0.06351422518491745, 0.07697182148694992, 0.008480611257255077, 0.12545204162597656, 0.019618971273303032, -0.023167269304394722], [0.262881875038147, -0.0936398059129715, 0.050626400858163834, -0.12219559401273727, -0.15672241151332855, -0.029309794306755066, 0.013964341953396797, -0.000188317964784801, -0.052172791212797165, -0.10352881252765656, -0.06656330823898315, 0.05839914083480835, -0.19397416710853577, -0.1468847393989563, -0.08859042823314667, 0.10808491706848145, -0.11824221909046173, -0.1057913526892662, -0.014785367995500565, -0.029673144221305847, 0.0024974935222417116, 0.0003474815166555345, 0.11817681789398193, -0.06805581599473953, 0.01799243874847889, -0.045760832726955414, 0.08090892434120178, 0.08200152963399887, -0.0019770015496760607, -0.15194737911224365, 0.05835947394371033, -0.20603710412979126], [-0.27239280939102173, -0.01756886951625347, 0.05533319711685181, -0.1769992560148239, -0.20654897391796112, 0.14914269745349884, 0.037175070494413376, 0.1184079572558403, 0.0238565094769001, 0.14727838337421417, -0.1727173924446106, -0.19480237364768982, -0.002782250754535198, 0.10516015440225601, 0.2753695845603943, -0.01614929735660553, 0.01583539880812168, 0.10731737315654755, -0.03967587649822235, -0.08835262805223465, -0.03786174952983856, 0.07704570144414902, 0.13903149962425232, -0.015099052339792252, -0.08362370729446411, -0.09217716753482819, -0.07803665101528168, -0.18891261518001556, 0.10923018306493759, 0.03444984182715416, 0.21583238244056702, -0.10903147608041763], [0.1250438690185547, -0.0315755195915699, 0.1645432561635971, -0.0388401560485363, 0.2251163125038147, -0.022478384897112846, -0.10266722738742828, 0.17697161436080933, -0.014434787444770336, 0.08646967262029648, -0.029189204797148705, -0.06275103241205215, 0.0018911013612523675, -0.052112873643636703, 0.07810264825820923, 0.15074214339256287, -0.05962282791733742, 0.018930114805698395, -0.09029808640480042, 0.057471007108688354, -0.013381385244429111, -0.12839774787425995, 0.37605276703834534, 0.0036076316609978676, -0.0013978418428450823, -0.2766260504722595, 0.018111877143383026, -0.1727859079837799, -0.038025666028261185, -0.10208600014448166, 0.09057502448558807, 0.030300676822662354], [-0.019551269710063934, -0.18440693616867065, -0.04195703938603401, 0.2156984657049179, 0.03344745188951492, 0.024373870342969894, -0.1287045180797577, 0.018689574673771858, -0.08751840144395828, 0.03954998776316643, 0.01811036840081215, 0.008275365456938744, 0.009189722128212452, 0.10058168321847916, 0.24012167751789093, -0.11747480183839798, -0.15675778687000275, 0.09264802187681198, -0.06590244174003601, -0.014258714392781258, -0.15639512240886688, 0.0031300378032028675, 0.14361752569675446, 0.21519827842712402, -0.21363848447799683, -0.17576830089092255, -0.03022083081305027, -0.24599160254001617, 0.09448950737714767, 0.0024137760046869516, 0.1736614853143692, -0.04759570211172104], [0.024499276652932167, -0.06365357339382172, 0.1837056577205658, 0.2002616971731186, -0.08446184545755386, -0.07463421672582626, 0.1261114478111267, -0.11746492236852646, -0.0034533364232629538, 0.1101023405790329, 0.04207878187298775, -0.18723587691783905, 0.1607341319322586, -0.13793958723545074, 0.005015198606997728, 0.12474006414413452, -0.15284837782382965, 0.09085486829280853, -0.43652647733688354, 0.09885971993207932, -0.08611869066953659, -0.25365740060806274, 0.008865420706570148, -0.005732371471822262, -0.05869925767183304, -0.10950247943401337, -0.01907234825193882, 0.0673895925283432, 0.03177277743816376, 0.24322348833084106, 0.04703628644347191, -0.1431748867034912], [0.0016540609067305923, 0.059890080243349075, -0.1660517007112503, -0.06387149542570114, -0.12652476131916046, 0.04290597513318062, 0.06928455084562302, 0.14360693097114563, -0.027211003005504608, 0.006663859356194735, -0.09319459646940231, -0.26618602871894836, -0.16624508798122406, 0.03296048566699028, -0.16995003819465637, -0.24601593613624573, -0.03947202488780022, -0.19950108230113983, 0.0239496398717165, -0.012288250960409641, -7.8072895121295e-05, 0.15404416620731354, 0.11218665540218353, 0.026960404589772224, 0.09629794955253601, -0.1992703080177307, -0.09795676171779633, 0.05532020330429077, 0.32028308510780334, 0.01604183204472065, 0.17711141705513, 0.002233123639598489], [0.14879342913627625, 0.0004769162624143064, 0.09690823405981064, -0.27440470457077026, -0.11013951152563095, -0.09888165444135666, 0.0732894167304039, -0.013517597690224648, -0.2682967483997345, 0.006476656999439001, -0.18714627623558044, -0.043200112879276276, -0.11150699853897095, -0.09385810792446136, -0.03699309006333351, 0.016668589785695076, 0.0701887458562851, 0.08060121536254883, -0.18249602615833282, 0.11600711196660995, -0.11122284829616547, 0.12445782870054245, 0.1283867061138153, 0.08285306394100189, -0.1787571758031845, -0.1238519549369812, 0.09830699115991592, -0.09033284336328506, 0.021573560312390327, 0.0057620275765657425, 0.06352568417787552, 0.1821591854095459], [0.01519063115119934, -0.06677643209695816, 0.023129435256123543, 0.04768068343400955, -0.06940870732069016, -0.16803163290023804, 0.0641729012131691, -0.19341729581356049, -0.20376020669937134, -0.08201456815004349, 0.1270127296447754, -0.10154768824577332, 0.22344708442687988, -0.07888207584619522, -0.07835006713867188, -0.068534255027771, -0.08137534558773041, 0.21149519085884094, 0.050927747040987015, 0.01961148902773857, -0.2793656289577484, -0.07929155975580215, 0.11423235386610031, 0.09207703173160553, -0.2794376313686371, 0.017322877421975136, -0.23573529720306396, 0.15941058099269867, -0.1330059915781021, 0.06898809224367142, 0.025898057967424393, -0.1287303864955902], [0.14628297090530396, -0.11832628399133682, -0.03790324181318283, 0.07204709947109222, 0.04701405018568039, -0.10515930503606796, -0.05653022974729538, -0.04336431622505188, 0.013659603893756866, 0.22429506480693817, -0.05317896232008934, -0.17331278324127197, 0.30936142802238464, -0.3561041057109833, -0.27901577949523926, -0.00724174315109849, 0.037396516650915146, 0.007041583769023418, -0.16069620847702026, 0.021858669817447662, -0.009839452803134918, 0.050066690891981125, 0.14364123344421387, -0.07569396495819092, -0.020696913823485374, -0.35715144872665405, 0.08290977030992508, 0.032290246337652206, 0.0042422679252922535, 0.17656686902046204, 0.09953274577856064, 0.015502814203500748], [0.2651309370994568, -0.14154668152332306, 0.013850525952875614, -0.035958707332611084, -0.012413913384079933, 0.10878368467092514, 0.14042305946350098, 0.1394057720899582, 0.009454015642404556, 0.2717464864253998, 0.1279662549495697, -0.10113144665956497, 0.06856662780046463, 0.06676093488931656, 0.1375984102487564, 0.10401356220245361, 0.13553372025489807, 0.1319788247346878, 0.08427417278289795, -0.09900245070457458, -0.15636971592903137, -0.12417078763246536, 0.061562396585941315, -0.09958892315626144, -0.012481052428483963, 0.14819882810115814, -0.033616866916418076, 0.1837347000837326, 0.026467900723218918, -0.006817796267569065, 0.014991989359259605, -0.11637456715106964], [-0.0674898698925972, -0.20568962395191193, -0.027084097266197205, -0.13489298522472382, 0.1869092881679535, -0.10665803402662277, 0.18372750282287598, 0.11107613891363144, -0.1196221336722374, 0.08269254863262177, -0.12489137053489685, -0.11019448190927505, -0.007160404231399298, 0.12215007096529007, 0.05918436124920845, 0.11432608217000961, -0.10667229443788528, 0.1312660276889801, -0.1851205974817276, 0.057099733501672745, 0.10049533098936081, 0.207990825176239, 0.1719074845314026, 0.011235764250159264, -0.18909680843353271, -0.15839917957782745, 0.14913693070411682, 0.032203298062086105, -0.08321516960859299, 0.13269516825675964, 0.2818661630153656, -0.14060728251934052], [0.1862194687128067, -0.0838015004992485, 0.0829976499080658, -0.20856912434101105, -0.04777727276086807, 0.015075966715812683, -0.005283754784613848, -0.031692516058683395, -0.039368726313114166, 0.1888033151626587, 0.04506547749042511, 0.03135021775960922, 0.08992542326450348, -0.02883821539580822, 0.1272890418767929, 0.0716070607304573, -0.2712209224700928, 0.11414996534585953, 0.13148580491542816, 0.025731785222887993, 0.06641161441802979, -0.07504542171955109, -0.03830011188983917, 0.054752521216869354, 0.0026884861290454865, -0.12382698059082031, 0.13727840781211853, -0.03677856922149658, -0.15125179290771484, 0.05495019629597664, 0.03922177106142044, -0.250296413898468], [-0.020670657977461815, -0.014626084826886654, -0.1219988688826561, -0.33026108145713806, -0.11804478615522385, 0.006400315091013908, 0.08626874536275864, 0.004406653810292482, -0.09077765047550201, -0.20944608747959137, -0.13818050920963287, 0.010134083218872547, 0.030677270144224167, -0.0159146785736084, 0.036426741629838943, 0.13116562366485596, 0.029023319482803345, 0.15886282920837402, -0.018367499113082886, 0.04686397686600685, 0.05809292942285538, 0.06534340232610703, 0.00707399332895875, 0.11153881996870041, -0.10196826606988907, 0.06220376119017601, -0.06184372305870056, -0.019435616210103035, 0.16696402430534363, 0.17961961030960083, -0.03137847036123276, 0.031676966696977615], [0.07197730988264084, -0.03550492972135544, 0.20198553800582886, 0.19405969977378845, -0.03178876265883446, -0.22964000701904297, 0.11456690728664398, -0.3996482789516449, -0.12495467066764832, 0.07663505524396896, 0.1661011278629303, 0.004004856571555138, 0.059053316712379456, -0.03428401052951813, 0.18231792747974396, 0.08548785746097565, 0.106094129383564, 0.0405743382871151, 0.07554051280021667, -0.007760658394545317, 0.008679583668708801, -0.13779233396053314, -0.10420405864715576, 0.10649482905864716, -0.056304965168237686, -0.06190348416566849, 0.2245377004146576, 0.08475540578365326, -0.022911036387085915, 0.1486419141292572, 0.1885400116443634, 0.0252069178968668], [0.29500654339790344, 0.13527697324752808, 0.05706486478447914, -0.003622012212872505, 0.1153636947274208, 0.0635019987821579, -0.06348633021116257, 0.05624739080667496, -0.25021716952323914, 0.06799834966659546, -0.1356690227985382, 0.13307853043079376, 0.05907152593135834, 0.13808061182498932, 0.20127980411052704, 0.07648169249296188, -0.12308334559202194, 0.0662710964679718, -0.22717152535915375, 0.09992165863513947, -0.2509911060333252, 0.06767620891332626, 0.20544135570526123, -0.009783850982785225, -0.04454111307859421, -0.06945010274648666, 0.08473274111747742, -0.1342346966266632, 0.2326483130455017, 0.17738501727581024, 0.06518430262804031, -0.2780635356903076], [-0.18639878928661346, 0.19960589706897736, 0.046199239790439606, 0.18009977042675018, 0.1745380163192749, 0.09074772149324417, 0.01905764453113079, -0.04606075957417488, 0.03144070506095886, -0.09883924573659897, 0.033920738846063614, 0.008684132248163223, -0.10098187625408173, 0.053047265857458115, -0.09851989895105362, 0.3126363158226013, -0.035659629851579666, 0.09433586895465851, 0.05924022197723389, 0.07056573033332825, 0.09370003640651703, 0.009301703423261642, 0.07167830318212509, -0.05768606811761856, -0.10743381828069687, 0.14942647516727448, 0.14999394118785858, 0.07852189242839813, 0.10772328823804855, -0.05200830474495888, -0.17559605836868286, 0.2394591122865677], [0.1466253250837326, 0.05047875642776489, -0.12245694547891617, -0.08039934933185577, 0.2006312757730484, -0.008709198795258999, 0.0918588936328888, -0.15862256288528442, -0.05105827376246452, 0.1796606332063675, 0.014311674050986767, -0.23702210187911987, 0.09644682705402374, -0.14251959323883057, 0.16328370571136475, -0.0036151958629488945, -0.06838612258434296, -0.056243833154439926, -0.21073634922504425, 0.02182716131210327, 0.026466598734259605, -0.03160777688026428, 0.08057210594415665, 0.2857871353626251, 0.09288793057203293, -0.06564346700906754, 0.0781547874212265, -0.2059534639120102, 0.006848983000963926, 0.11307231336832047, 0.020314790308475494, -0.3265906572341919], [0.07693410664796829, 0.025360029190778732, 0.007093196269124746, -0.20398147404193878, -0.05033477768301964, -0.12494809180498123, -0.06102314963936806, -0.03678854927420616, -0.13825254142284393, 0.039585381746292114, -0.016408851370215416, -0.10145903378725052, 0.23669520020484924, 0.06904421001672745, 0.08811497688293457, 0.1685783565044403, -0.018543560057878494, 0.0658901259303093, 0.12250107526779175, 0.19325833022594452, -0.03668517991900444, -0.04729001969099045, 0.2102755308151245, -0.13657835125923157, 0.053065016865730286, 0.12833136320114136, 0.13215790688991547, 0.2025066465139389, 0.010983501560986042, 0.05910758674144745, -0.20803552865982056, -0.18438908457756042], [0.047265179455280304, -0.024896178394556046, 0.19418568909168243, 0.1473071277141571, 0.042901601642370224, 0.04784884303808212, 0.10277479887008667, -0.1938764452934265, -0.15744344890117645, -0.039525583386421204, -0.20871488749980927, 0.10145478695631027, -0.0018744500121101737, -0.11064321547746658, -0.06760472804307938, -0.08417858183383942, -0.1673155575990677, 0.050738826394081116, 0.19141298532485962, -0.025633011013269424, 0.18001310527324677, -0.04063296690583229, 0.08638586848974228, -0.06153135746717453, 0.001760228187777102, 0.06557608395814896, -0.018019042909145355, 0.1656765341758728, -0.028481023386120796, -0.0022845915518701077, 0.0028037552256137133, -0.20701810717582703], [-0.09291329234838486, -0.22301606833934784, -0.025511575862765312, -0.1807517558336258, 0.02167763188481331, -0.02658592350780964, 0.013340342789888382, 0.09784416109323502, -0.06632381677627563, 0.18194463849067688, -0.04276227205991745, 0.08384236693382263, 0.009552422910928726, -0.12883861362934113, -0.05563235282897949, 0.10889694094657898, -0.001576222712174058, 0.022989735007286072, 0.06949663907289505, 0.0023584195878356695, -0.07376272231340408, -0.09573811292648315, 0.2748505473136902, -0.11002320051193237, -0.16465525329113007, 0.1306222379207611, 0.0381501168012619, -0.13393543660640717, -0.063179612159729, 0.257921427488327, 0.02802114188671112, 0.02342359721660614], [-0.27875784039497375, -0.10519971698522568, -0.004341338761150837, -0.05029316619038582, -0.04228717088699341, -0.09764499217271805, -0.013544183224439621, 0.139582559466362, 0.1330660730600357, -0.09670279920101166, -0.13060474395751953, 0.09582553803920746, 0.0431990772485733, 0.05978976562619209, 0.007401338312774897, 0.16873347759246826, 0.13132694363594055, -0.02439252845942974, 0.0960894376039505, -0.1296675205230713, -0.16497915983200073, 0.0697338730096817, 0.04572019353508949, 0.2493952512741089, -0.012283828109502792, -0.13544999063014984, 0.022508865222334862, -0.08297254145145416, -0.024874212220311165, -0.10504650324583054, 0.005841005127876997, -0.09132923930883408], [-0.13223426043987274, -0.07036177814006805, -0.013859832659363747, 0.007447732612490654, -0.11115788668394089, 0.036944929510354996, -0.11913924664258957, -0.2487873136997223, -0.07570114731788635, 0.05141754820942879, -0.028097352012991905, 0.07256896793842316, 0.09290634095668793, 0.048391275107860565, -0.05175838991999626, -0.15794138610363007, -0.005361841060221195, 0.09045358747243881, -5.952671926934272e-05, -0.027804063633084297, 0.0743606761097908, -0.11329459398984909, 0.16738981008529663, 0.14077617228031158, -0.05385226383805275, 0.11478792130947113, -0.12280470877885818, -0.06434036046266556, -0.012270044535398483, -0.037612758576869965, -0.0077590555883944035, -0.00566875608637929], [0.13449668884277344, -0.2737294137477875, -0.007505069021135569, -0.01937694288790226, 0.04281771183013916, 0.22247643768787384, 0.139462411403656, -0.021371901035308838, 0.027195019647479057, 0.06761394441127777, -0.03795182332396507, -0.07500871270895004, 0.14575059711933136, -0.140268936753273, 0.1755928099155426, -0.1841236650943756, 0.028660466894507408, 0.1922774761915207, 0.043772730976343155, -0.2125198394060135, -0.04443738982081413, 0.05185636132955551, 0.043223507702350616, 0.21376343071460724, -0.060142114758491516, -0.021285774186253548, 0.015548924915492535, 0.11716606467962265, -0.15422330796718597, 0.05911743640899658, 0.13022872805595398, 0.04691251739859581], [-0.1941668540239334, 0.3665529489517212, -0.07336948066949844, 0.12715862691402435, -0.12127028405666351, 0.15461032092571259, 0.08378911018371582, 0.08702652156352997, 0.04807969555258751, -0.335134893655777, 0.09366829693317413, 0.139186292886734, -0.09926512837409973, 0.11902576684951782, -0.07046601921319962, -0.024786971509456635, -0.033746376633644104, -0.3803354799747467, -0.09110727161169052, -0.2023237645626068, 0.1668577492237091, 0.29736393690109253, -0.15403468906879425, 0.15246807038784027, 0.18832211196422577, 0.18897664546966553, -0.10284968465566635, -0.2489328235387802, -0.0012829492334276438, -0.0957716777920723, -0.03708424046635628, 0.2304488569498062], [-0.18730005621910095, 0.2801859676837921, -0.23575875163078308, 0.01167803443968296, 0.03410951793193817, 0.12798140943050385, -0.3365527391433716, -0.0988680049777031, 0.07491317391395569, -0.18165455758571625, 0.23659929633140564, 0.22027087211608887, 0.11549876630306244, 0.23863421380519867, -0.016106490045785904, 0.1693560928106308, 0.04112624749541283, -0.16983553767204285, 0.2925257384777069, -0.21454687416553497, 0.10129053890705109, 0.05018572509288788, -0.08508218824863434, -0.12877143919467926, 0.23161213099956512, 0.26752927899360657, -0.015437818132340908, 0.12212598323822021, -0.12905627489089966, -0.05628141388297081, 0.02096482366323471, 0.26229944825172424], [0.04941493645310402, 0.09196737408638, -0.21091069281101227, -0.1211436539888382, -0.28779372572898865, 0.01040500309318304, -0.13723011314868927, 0.039990928024053574, 0.056870825588703156, -0.21202318370342255, 0.11631777137517929, -0.019898192957043648, 0.09057414531707764, 0.4267653226852417, -0.2614813446998596, 0.19313982129096985, -0.06872715055942535, -0.12700527906417847, 0.04765024408698082, -0.053520217537879944, 0.024087583646178246, 0.2738167345523834, -0.16989116370677948, -0.10427764058113098, 0.0019399505108594894, 0.20286157727241516, -0.2730015218257904, -0.0142201017588377, 0.139985591173172, -0.02676142193377018, -0.27279943227767944, 0.2373589724302292], [-0.1205185279250145, -0.021147480234503746, -0.13415978848934174, -0.31858688592910767, -0.061839234083890915, 0.00899807270616293, -0.2394396960735321, 0.0024293812457472086, 0.1954292505979538, 0.022159680724143982, 0.02890481986105442, -0.016894830390810966, -0.21326138079166412, -0.012389290146529675, -0.07459718734025955, 0.22950582206249237, 0.14689061045646667, -0.14848870038986206, 0.14421308040618896, 0.17238302528858185, 0.22177346050739288, -0.028305981308221817, 0.022490886971354485, 0.1514717936515808, -0.10478835552930832, 0.185067817568779, -0.019758708775043488, 0.025429967790842056, -0.01957138441503048, -0.12951597571372986, 0.17462462186813354, 0.11503594368696213], [-0.02322039008140564, 0.15830829739570618, -0.018127216026186943, 0.07921355217695236, -0.10823698341846466, -0.14276696741580963, -0.03933972120285034, 0.01242796890437603, 0.2681325078010559, -0.15803007781505585, -0.05441727489233017, 0.13297511637210846, 0.11409647017717361, 0.18604344129562378, -0.06954215466976166, -0.1376228779554367, 0.15252602100372314, 0.18513543903827667, 0.21044985949993134, -0.1698634773492813, 0.10581810027360916, 0.15841950476169586, -0.07548005878925323, -0.15866678953170776, 0.16142483055591583, 0.16986127197742462, 0.17741641402244568, -0.20193888247013092, 0.10585562139749527, -0.0302275400608778, -0.10325880348682404, 0.061152976006269455], [-0.27781304717063904, 0.17243899405002594, -0.17909221351146698, 0.1997193992137909, 0.04793485254049301, -0.2901436984539032, 0.31470754742622375, 0.013208257965743542, 0.13751742243766785, -0.12181030958890915, 0.29385629296302795, 0.14034722745418549, 0.006474548485130072, 0.11737486720085144, -0.10658036917448044, -0.24423345923423767, 0.197186678647995, -0.2678360641002655, 0.05954575166106224, -0.019176485016942024, 0.17829474806785583, 0.029685473069548607, -0.2839016318321228, -0.15047188103199005, 0.26968058943748474, 0.07090143114328384, 0.19420170783996582, -0.003249197732657194, 0.06532735377550125, -0.008158125914633274, -0.2575424611568451, 0.14775648713111877], [-0.12427209317684174, -0.16517993807792664, -0.06965219974517822, 0.12231819331645966, 0.0696512758731842, -0.03698347136378288, 0.03825578838586807, 0.009138052351772785, -0.012433172203600407, -0.2360914945602417, 0.013512304052710533, 0.17622224986553192, 0.11177635192871094, 0.0696689635515213, -0.0632193386554718, -0.1392933428287506, 0.06226688250899315, 0.03467449173331261, -0.01668703928589821, 0.09663993120193481, 0.14525391161441803, -0.09500131756067276, -0.03303905203938484, 0.09757958352565765, 0.23666298389434814, 0.06240874528884888, -0.2227945327758789, 0.15367862582206726, 0.07207884639501572, -0.1913941204547882, -0.10757981240749359, -0.044289346784353256], [-0.011146806180477142, -0.015268340706825256, 0.03406372293829918, -0.20181113481521606, -0.014107738621532917, -0.08007944375276566, -0.2774016261100769, 0.052196040749549866, -0.04557378962635994, -0.02071865275502205, -0.04703744500875473, -0.09411851316690445, 0.12319480627775192, -0.06486444920301437, 0.13529720902442932, 0.22556182742118835, 0.11186745762825012, -0.021671125665307045, -0.11315776407718658, -0.1626897007226944, -0.046893343329429626, 0.07590124011039734, 0.07525724172592163, 0.16624081134796143, 0.055783990770578384, -0.01145593449473381, -0.09575638175010681, 0.02271239086985588, 0.08566510677337646, -0.048523638397455215, -0.1149955615401268, 0.35628291964530945], [-0.09051383286714554, 0.2536226809024811, -0.10570835322141647, 0.2102159708738327, 0.31522172689437866, -0.04937843233346939, 0.1345035582780838, -0.10468622297048569, 0.1316053420305252, -0.13396921753883362, 0.12297724932432175, 0.34847503900527954, -0.1008269265294075, 0.21815256774425507, -0.046997010707855225, -0.17742548882961273, 0.21380528807640076, -0.26933813095092773, -0.04061693698167801, -0.1490325927734375, 0.1205158457159996, -0.0024378946982324123, -0.046946797519922256, 0.09991712868213654, 0.04262898489832878, -0.09223677963018417, -0.07006628066301346, 0.0732177123427391, -0.07095278054475784, -0.0692763403058052, -0.0622137226164341, 0.23727205395698547], [-0.1752191036939621, 0.022330109030008316, -0.00632703211158514, 0.14509253203868866, -0.027182480320334435, -0.14948658645153046, 0.08856618404388428, -0.042632684111595154, 0.12419280409812927, -0.1138748899102211, -0.0005431656609289348, 0.20239777863025665, 0.006639416329562664, 0.12673431634902954, -0.09889227151870728, -0.013775826431810856, 0.23242422938346863, -0.2923673987388611, -0.08291232585906982, -0.22285211086273193, 0.08205079287290573, -0.1023750826716423, -0.04881211370229721, 0.031021686270833015, 0.10467088222503662, -0.043901558965444565, -0.14804768562316895, -0.11875592172145844, -0.1475779414176941, 0.05389922484755516, -0.015248940326273441, -0.16073638200759888], [-0.227644681930542, 0.20132511854171753, -0.12776044011116028, 0.1857350468635559, -0.03275364264845848, 0.07704823464155197, 0.2701491415500641, -0.1711794137954712, 0.28579962253570557, -0.01855979673564434, 0.17001694440841675, 0.15227803587913513, 0.3280271887779236, 0.11263076961040497, 0.0606919527053833, -0.11542126536369324, 0.08140598982572556, -0.08979316055774689, 0.06466707587242126, 0.20060531795024872, 0.04555917903780937, -0.00888875313103199, -0.2656961679458618, -0.10519550740718842, 0.36115607619285583, 0.16470861434936523, -0.09043692797422409, 0.003393287304788828, -0.04705582186579704, -0.1723540723323822, -0.16291658580303192, 0.17073293030261993], [0.03291559964418411, 0.17424853146076202, -0.013217120431363583, -0.0456872321665287, -0.045950476080179214, 0.11547312140464783, -0.20439423620700836, 0.2827904522418976, -0.03335229679942131, 0.00036388871376402676, 0.07072808593511581, 0.09475116431713104, -0.08515602350234985, -0.009848978370428085, -0.19914835691452026, -0.2361358255147934, 0.2722346782684326, -0.11819428205490112, -0.14934368431568146, 0.11592032760381699, 0.1542956829071045, 0.1059538871049881, -0.12680023908615112, 0.15092693269252777, -0.05387554317712784, 0.11964478343725204, -0.037209466099739075, -0.14432558417320251, 0.15332913398742676, -0.167816162109375, 0.11104580760002136, 0.13901196420192719], [-0.10632750391960144, 0.22423860430717468, -0.08484749495983124, 0.04889347776770592, 0.11505807936191559, 0.11849020421504974, -0.12415074557065964, 0.1607937067747116, 0.15992464125156403, -0.09364639967679977, 0.25099751353263855, 0.18146370351314545, 0.205816388130188, 0.15591800212860107, -0.17253966629505157, -0.07753627002239227, 0.12147023528814316, -0.17821091413497925, -0.023009536787867546, -0.2291633039712906, 0.01941094733774662, 0.238316148519516, -0.07761915028095245, -0.1569085568189621, -0.17381641268730164, -0.0008121125865727663, 0.021921133622527122, -0.035654354840517044, -0.020562440156936646, -0.12877391278743744, -0.20123106241226196, -0.08058994263410568], [-0.18068352341651917, 0.051951341331005096, -0.03289400413632393, 0.001828531501814723, -0.02593907341361046, 0.06390147656202316, -0.15799032151699066, -0.12323436886072159, 0.04907483235001564, -0.12722815573215485, 0.28354987502098083, 0.026342127472162247, -0.022010229527950287, 0.23059333860874176, 0.007903135381639004, -0.04597554728388786, 0.09525731950998306, -0.12477873265743256, -0.004674897063523531, -0.1278190016746521, 0.2508109509944916, -0.11198094487190247, -0.13009463250637054, -0.10361693054437637, 0.17854620516300201, 0.13548654317855835, -0.1305903047323227, 0.03727029263973236, -0.07591719925403595, -0.3078187108039856, -0.11760451644659042, 0.26456135511398315], [0.07961557060480118, 0.08738537132740021, 0.10491672158241272, -0.020432651042938232, 0.09896516054868698, -0.10245124250650406, 0.1745665818452835, -0.08163315802812576, 0.004367736168205738, 0.11113115400075912, 0.0019341156585142016, 0.013508240692317486, 0.060861408710479736, 0.07819099724292755, -0.0185557771474123, 0.021162264049053192, 0.22019408643245697, -0.04461896792054176, 0.11009358614683151, 0.013006456196308136, -0.1435505747795105, -0.015406837686896324, 0.05234573408961296, 0.009973437525331974, -0.04830310493707657, 0.09218860417604446, -0.11907747387886047, 0.09956935793161392, 0.022058606147766113, -0.06713718175888062, -0.17268091440200806, 0.08288821578025818], [-0.2704170048236847, 0.12067613005638123, -0.2189330905675888, 0.2461758404970169, 0.10157237946987152, -0.11784203350543976, -0.22726644575595856, 0.008539081551134586, 0.3955439627170563, -0.23117168247699738, 0.021962670609354973, 0.09153632074594498, 0.006483004428446293, 0.19678403437137604, -0.07516393810510635, -0.09817897528409958, 0.1623004525899887, -0.17989124357700348, 0.13605326414108276, 0.015086195431649685, -0.04988596588373184, 0.14804573357105255, -0.16425906121730804, -0.1011611595749855, 0.2028694897890091, 0.063517265021801, -0.09753584861755371, -0.1372680515050888, -0.02666686475276947, -0.29084154963493347, -0.1456589549779892, 0.288462370634079], [-0.13031437993049622, 0.19404272735118866, -0.008258587680757046, 0.2008724957704544, 0.0327078253030777, -0.10634885728359222, -0.025654025375843048, 0.08718876540660858, 0.08900067210197449, -0.21910755336284637, 0.16092991828918457, 0.15138407051563263, -0.15451382100582123, 0.25999030470848083, 0.11058323830366135, -0.15880893170833588, 0.1464323103427887, -0.30135226249694824, -0.11974763870239258, -0.016341760754585266, 0.1728845238685608, 0.2840655446052551, -0.14347447454929352, 0.023773489519953728, 0.00036726967664435506, -0.12256208062171936, -0.07582568377256393, 0.028298301622271538, 0.16523627936840057, -0.12972040474414825, -0.09904773533344269, 0.10162098705768585], [-0.2282051295042038, 0.14184512197971344, 0.05906978249549866, 0.21938203275203705, 0.011385587975382805, 0.1221870481967926, -0.2555793225765228, -0.3227766752243042, 0.14824095368385315, -0.13699661195278168, 0.08932731300592422, 0.14624813199043274, -0.11704185605049133, 0.2557239830493927, -0.20305606722831726, 0.08656354248523712, 0.16539742052555084, -0.17125548422336578, 0.09976790845394135, -0.2749759554862976, 0.1715543568134308, 0.2988574802875519, -0.18225160241127014, 0.10727116465568542, 0.3889824151992798, 0.07536041736602783, -0.11483310908079147, -0.003912115935236216, 0.06499937921762466, -0.2850170135498047, -0.2486577033996582, 0.04916625842452049], [-0.06165269762277603, 0.031399331986904144, -0.18761318922042847, 0.07484640926122665, 0.029662244021892548, 0.003734963247552514, -0.044977713376283646, 0.04006297141313553, 0.02997204288840294, 0.1419239044189453, -0.09025657176971436, 0.08286802470684052, 0.08707117289304733, 0.27985334396362305, -0.0644080713391304, -0.06878337264060974, 0.3595009446144104, -0.37515291571617126, 0.037818122655153275, 0.05523323640227318, 0.006040692329406738, 0.26212403178215027, -0.07472983747720718, -0.1350407898426056, 0.20918530225753784, 0.1394348293542862, -0.06637515872716904, -0.06454936414957047, -0.04540461674332619, -0.2284807562828064, -0.0911046639084816, 0.19685620069503784], [-0.1712196171283722, -0.1912992149591446, -0.15863044559955597, -0.18590480089187622, 0.24600782990455627, 0.0671686977148056, -0.049870554357767105, 0.02657139115035534, -0.06688397377729416, -0.41901063919067383, 0.09937350451946259, 0.09535010904073715, 0.12842191755771637, 0.11912801861763, -0.09482862800359726, 0.13383816182613373, 0.20959673821926117, -0.1381925642490387, 0.2308790236711502, -0.1328500658273697, 0.08110979944467545, -0.2586214244365692, -0.1865970492362976, -0.2337101548910141, -0.03379436582326889, 0.04924516752362251, 0.1367695927619934, 0.24457944929599762, 0.14271196722984314, -0.24452656507492065, -0.051857613027095795, 0.30236291885375977], [-0.11272042244672775, 0.01112207118421793, -0.041050124913454056, 0.22353744506835938, -0.007885655388236046, -0.038345757871866226, -0.015625709667801857, -0.06429372727870941, 0.07963722944259644, -0.21328267455101013, 0.05220380425453186, 0.19531942903995514, 0.02509487234055996, 0.10075352340936661, 0.1727972775697708, 0.02791677415370941, 0.19964931905269623, -0.2530476748943329, 0.03479757532477379, -0.11180952191352844, 0.1839521825313568, -0.08602214604616165, -0.15693399310112, -0.3087383806705475, 0.04124513640999794, 0.1548142433166504, -0.01400790736079216, 0.0012620461639016867, -0.02439567819237709, -0.12530675530433655, -0.30112192034721375, 0.2470206469297409], [-0.03836600109934807, 0.13416552543640137, 0.05945415794849396, -0.022559428587555885, -0.07338403910398483, 0.17264513671398163, -0.10119589418172836, -0.2995705306529999, 0.08163132518529892, -0.0754479244351387, 0.19387897849082947, -0.016121458262205124, -0.2615220546722412, 0.10496262460947037, -0.1811646819114685, -0.016633016988635063, 0.10348299145698547, -0.23803114891052246, 0.35103049874305725, -0.11588003486394882, 0.05000600218772888, 0.0059037720784544945, -0.09760656952857971, -0.053396206349134445, -0.11771348863840103, -0.10885823518037796, 0.010553290136158466, 0.19440291821956635, -0.06546084582805634, 0.15382839739322662, 0.15949073433876038, 0.07452621310949326], [-0.2528803050518036, 0.06897908449172974, -0.1448814421892166, -0.07307750731706619, 0.04277080297470093, -0.017237180843949318, 0.19872066378593445, -0.040504805743694305, -0.11230605840682983, 0.10113084316253662, 0.004080469720065594, 0.13410980999469757, 0.0009765289723873138, 0.20472487807273865, -0.024227427318692207, -0.037132956087589264, 0.2721859812736511, 0.05480387806892395, -0.08950412273406982, -0.04938061535358429, 0.15798573195934296, -0.0378418043255806, -0.060580432415008545, 0.09879077970981598, 0.013682560995221138, 0.022862352430820465, -0.0747867301106453, 0.15571875870227814, 0.13065768778324127, -0.10473507642745972, -0.14142675697803497, 0.026447521522641182], [-0.3439951241016388, 0.17211446166038513, -0.14502525329589844, 0.15859688818454742, -0.22852638363838196, 0.16731469333171844, -0.12832744419574738, 0.05445362627506256, -0.1005953848361969, -0.17884911596775055, 0.20221185684204102, -0.022269325330853462, -0.061431724578142166, 0.21404743194580078, -0.082349494099617, -0.020137950778007507, 0.34343016147613525, -0.19695539772510529, 0.022766612470149994, -0.04293479770421982, 0.05704382061958313, 0.022556178271770477, -0.15054447948932648, -0.15799322724342346, 0.2158992439508438, 0.21849259734153748, 0.049164190888404846, -0.021733051165938377, -0.07942800968885422, -0.16259409487247467, -0.3065146207809448, 0.030748065561056137], [0.15036828815937042, -0.003150508040562272, -0.03552832826972008, -0.0991578996181488, 0.102114737033844, 0.03184131532907486, 0.03456376492977142, 0.3165798783302307, -0.07761881500482559, -0.031114038079977036, -0.020827891305088997, 0.02153152972459793, 0.07615262269973755, 0.19429193437099457, 0.08616623282432556, 0.21293199062347412, -0.03719836473464966, 0.03070455603301525, -0.19009509682655334, 0.02509663626551628, -0.10229165107011795, 0.18873141705989838, -0.045217160135507584, 0.036986660212278366, -0.05512141436338425, 0.1729501634836197, -0.1352766752243042, -0.14610111713409424, 0.08261597901582718, -0.009261349216103554, 0.052798446267843246, -0.17935431003570557], [-0.12288642674684525, 0.2193601429462433, -0.12316178530454636, 0.14863567054271698, 0.05027512088418007, -0.056362103670835495, -0.0309754591435194, -0.2355436533689499, -0.022104520350694656, -0.23330965638160706, 0.09680117666721344, 0.17808939516544342, 0.21660633385181427, 0.08668540418148041, -0.036290161311626434, 0.020821304991841316, 0.07614146918058395, 0.018562542274594307, 0.03507176786661148, -0.25026029348373413, 0.0777331218123436, -0.0681910589337349, -0.20066958665847778, -0.17512285709381104, 0.37309539318084717, 0.18129464983940125, -0.2175142467021942, 0.06681998074054718, -0.1764594167470932, -0.0006334154168143868, -0.035045452415943146, 0.18620502948760986], [-0.04720935598015785, 0.01206237357109785, 4.747136699734256e-05, 0.02386765368282795, 0.07300843298435211, 0.05744678154587746, -0.09250587970018387, 0.03861985355615616, 0.047088872641325, -0.05207458510994911, 0.1620006412267685, 0.12483624368906021, 0.12231237441301346, 0.18277716636657715, -0.016805926337838173, -0.04044901579618454, 0.11377992480993271, -0.18429765105247498, -0.0882219672203064, -0.06604219228029251, 0.17505241930484772, -0.0267010685056448, 0.06677767634391785, -0.15154971182346344, -0.05925225839018822, 0.2879384160041809, -0.10220177471637726, -0.0173735860735178, 0.07190500944852829, -0.15675240755081177, -0.24036143720149994, 0.2604907155036926], [-0.19581858813762665, -0.01961415447294712, -0.03807171806693077, 0.15404380857944489, -0.03318432345986366, 0.0617547370493412, -0.1080973893404007, -0.12838540971279144, 0.4042649269104004, -0.3908858895301819, 0.0920640081167221, 0.19716499745845795, 0.04963229224085808, 0.1173350140452385, 0.006156747695058584, -0.07236944884061813, 0.3170470893383026, -0.24104394018650055, -0.03582065925002098, -0.1667802482843399, 0.19023963809013367, 0.19317375123500824, -0.0032218301203101873, -0.04206852614879608, 0.002749702660366893, 0.15013128519058228, -0.023644939064979553, 0.10432853549718857, 0.13655592501163483, -0.20558366179466248, -0.029352687299251556, 0.14059750735759735], [-0.2091267704963684, 0.06583895534276962, -0.19303372502326965, 0.10197655111551285, 0.1005980372428894, 0.1478099375963211, 0.030339278280735016, 0.11237622052431107, 0.054727423936128616, 0.11317748576402664, -0.030387992039322853, 0.3354645371437073, -0.0006308169104158878, 0.17813453078269958, -0.06971336156129837, -0.08179599046707153, 0.11537760496139526, -0.22076989710330963, -0.01878693886101246, -0.07432909309864044, 0.2884264886379242, 0.17409232258796692, -0.25371626019477844, 0.11155077069997787, -0.0363096185028553, 0.08207172900438309, -0.21886542439460754, -0.07263742387294769, 0.3177112340927124, -0.09772373735904694, -0.1092064380645752, 0.19605107605457306], [-0.017536232247948647, -0.07190237939357758, -0.12805861234664917, 0.19753152132034302, 0.04591202363371849, 0.16787458956241608, 0.1068531796336174, -0.10882433503866196, 0.24160036444664001, -0.2586390972137451, 0.11287655681371689, -0.02154572308063507, 0.05048364773392677, 0.2235729843378067, -0.0852063000202179, -0.030465714633464813, 0.2847965657711029, -0.10709170252084732, 0.046118754893541336, -0.054521266371011734, 0.20683667063713074, 0.19271261990070343, -0.13664181530475616, 0.24440862238407135, -0.10248691588640213, 0.06974320113658905, -0.18909955024719238, -0.056036971509456635, 0.20778681337833405, -0.11448599398136139, -0.0713595375418663, 0.043382082134485245], [-0.1769905388355255, -0.048673175275325775, -0.17935089766979218, 0.157820925116539, 0.3029412627220154, 0.1477077454328537, 0.06375338137149811, -0.11943256855010986, -0.021014830097556114, -0.138729527592659, 0.1730894297361374, 0.2555006742477417, -0.23049063980579376, -0.06385866552591324, -0.04701818898320198, 0.07172000408172607, 0.25966063141822815, -0.0554824024438858, 0.021425221115350723, 0.025873297825455666, -0.029419604688882828, 0.11143303662538528, -0.19434139132499695, 0.06495222449302673, 0.157051682472229, 0.009532971307635307, -0.18264776468276978, 0.05793584883213043, 0.12411883473396301, -0.08623938262462616, -0.018983149901032448, 0.1429387480020523], [-0.157311350107193, 0.22789038717746735, 0.03272521123290062, 0.23643574118614197, -0.20517036318778992, 0.18194033205509186, 0.0834028571844101, 0.019608473405241966, 0.15988950431346893, -0.028470659628510475, -0.1355835646390915, 0.22128382325172424, -0.06387952715158463, 0.2423740029335022, -0.16389356553554535, -0.05822381749749184, 0.13542155921459198, -0.37097790837287903, 0.03239830955862999, -0.06413675844669342, 0.2674213647842407, 0.20152930915355682, -0.19640487432479858, 0.019460191950201988, 0.06772659718990326, -0.02755683660507202, -0.3538714647293091, 0.11066756397485733, -0.00599076971411705, -0.16711200773715973, -0.21975870430469513, 0.10638900846242905], [0.05787907913327217, -0.07854519039392471, 0.22028391063213348, -0.20359604060649872, -0.19834300875663757, -0.06649185717105865, -0.06637962907552719, 0.04516342282295227, -0.1751207858324051, 0.3088890314102173, -0.06560129672288895, 0.05579323694109917, 0.007059467490762472, -0.06326382607221603, 0.034642305225133896, 0.015712112188339233, -0.16342808306217194, 0.24246875941753387, -0.10823826491832733, 0.021124260500073433, -0.1107284277677536, -0.06841182708740234, 0.028978677466511726, 0.04087558016180992, -0.11524490267038345, -0.03243820741772652, 0.10512974858283997, 0.19965329766273499, -0.026606155559420586, -0.052676428109407425, -0.011297255754470825, -0.20574362576007843], [0.07516844570636749, 0.00805109553039074, -0.11611495912075043, 0.21167568862438202, 0.11711520701646805, -0.037102192640304565, -0.002596758073195815, 0.010693776421248913, -0.06310077756643295, -0.041191697120666504, 0.25397899746894836, 0.015607031993567944, 0.08145395666360855, 0.22884604334831238, -0.2436101734638214, -0.09339065104722977, 0.043644677847623825, 0.019940875470638275, 0.2903395891189575, -0.08798091113567352, 0.2062073051929474, -0.12258170545101166, -0.03746006637811661, -0.17169325053691864, 0.07378030568361282, -0.07978109270334244, -0.024614794179797173, 0.14834217727184296, 0.048121128231287, -0.03777970001101494, -0.19065023958683014, 0.07655062526464462], [-0.053247205913066864, 0.09787186235189438, 0.0014612465165555477, 0.23154331743717194, 0.06365501135587692, -0.09756585210561752, 0.08292087912559509, -0.024746015667915344, 0.08106733113527298, 0.026128608733415604, 0.12496817857027054, 0.06378986686468124, 0.0448155403137207, -0.12518739700317383, 0.1883719116449356, -0.11160143464803696, 0.1858733892440796, 0.06252287328243256, 0.010459275916218758, 0.1257161796092987, 0.1436125636100769, -0.30677682161331177, 0.06927220523357391, -0.030842997133731842, 0.16060855984687805, -0.2868949770927429, -0.022051285952329636, 0.12406005710363388, -0.1831277310848236, -0.028184957802295685, 0.004344800487160683, -0.0301663875579834], [0.05706712231040001, 0.06332030147314072, -0.048491090536117554, 0.2931833565235138, 0.08860425651073456, -0.02369583770632744, 0.2978516221046448, -0.1561121642589569, 0.01387054193764925, 0.012224738486111164, -0.14283981919288635, -0.11521227657794952, -0.1184568703174591, 0.03476150333881378, 0.05195413902401924, -0.08712544292211533, -0.03494646027684212, 0.06616446375846863, 0.058441344648599625, 0.02770499885082245, -0.06649181246757507, -0.296774685382843, 0.07696752995252609, 0.025447631254792213, 0.00939286220818758, -0.10828260332345963, -0.04079221561551094, 0.11752501875162125, 0.08979532122612, 0.019318794831633568, 0.22026720643043518, 0.0084119513630867], [0.04132552444934845, 0.09036276489496231, -0.11236663907766342, 0.2385280877351761, -0.19504663348197937, -0.0034718511160463095, -0.09233248978853226, 0.03793717548251152, 0.12976787984371185, -0.011437607929110527, 0.005551306996494532, 0.0582314133644104, -0.04864323139190674, 0.10429685562849045, 0.005274309776723385, -0.020001113414764404, 0.07863422483205795, 0.09777276962995529, -0.019655222073197365, -0.11646240204572678, 0.11458567529916763, -0.18948890268802643, 0.021931134164333344, 0.2085171490907669, 0.08532566577196121, 0.04364003241062164, 0.03785155713558197, 0.3015230596065521, -0.19968879222869873, 0.15690897405147552, -0.2222379893064499, 0.004238133784383535], [0.09234204888343811, -0.044039465487003326, 0.14443257451057434, -0.0175981055945158, -0.07579914480447769, 0.001618113019503653, 0.0443103164434433, -0.023096371442079544, -0.3025534152984619, -0.046251751482486725, -0.0458364337682724, -0.09004741907119751, 0.20732250809669495, -0.2227759063243866, 0.0056653148494660854, -0.05728110671043396, 0.028451407328248024, 0.10386913269758224, 0.0011909307213500142, 0.24105490744113922, 0.08541758358478546, 0.19525779783725739, 0.10889938473701477, -0.10548433661460876, -0.1742124706506729, 0.04622591659426689, 0.2650584280490875, 0.11838646233081818, 0.014607803896069527, -0.05078958347439766, 0.16527150571346283, -0.3324400782585144], [-0.03410893306136131, -0.01942511275410652, 0.1325051635503769, -0.0043128477409482, 0.04040271416306496, -0.12816575169563293, 0.21196995675563812, 0.011190387420356274, 0.11900138109922409, 0.044970326125621796, 0.07988560944795609, 0.06316114217042923, 0.10023188591003418, 0.24003803730010986, -0.05930222570896149, -0.009374954737722874, 0.08386258035898209, 0.08555597811937332, -0.14505591988563538, 0.006196313071995974, 0.04919331148266792, -0.10066866874694824, -0.0014585478929802775, -0.16206690669059753, 0.1603672057390213, -0.0005225910572335124, -0.18844343721866608, -0.05473185330629349, -0.0010238747345283628, -0.1017429456114769, 0.0917210578918457, 0.03717094659805298], [-0.09274714440107346, 0.049844980239868164, -0.17691391706466675, -0.030993815511465073, -0.18229098618030548, 0.17061111330986023, -0.2152768075466156, 0.12381039559841156, -0.01652509532868862, 0.07363830506801605, -0.07503768056631088, 0.09677378833293915, 0.10565229505300522, 0.12474321573972702, -0.06935026496648788, 0.23133587837219238, 0.06889262795448303, -0.2753259241580963, 0.03246398642659187, 0.03957410156726837, 0.07277432829141617, 0.1647443026304245, -0.2945576310157776, -0.09895730763673782, -0.30853715538978577, 0.09953679889440536, -0.07285884767770767, -0.19815897941589355, 0.007362099830061197, -0.044401612132787704, 0.008706408552825451, -0.08007969707250595], [-0.113583043217659, -0.049534279853105545, -0.008005725219845772, 0.285471647977829, 0.10198190808296204, -0.2165115475654602, -0.06162641942501068, 0.061303041875362396, 0.055098701268434525, 0.04999944195151329, 0.01588393934071064, 0.10035376250743866, -0.2620783746242523, -0.0038860791828483343, 0.0018926678458228707, -0.1120045855641365, 0.3427445590496063, -0.2320995181798935, -0.07844246923923492, -0.1513422429561615, 0.04954693093895912, 0.0656120702624321, -0.0367915965616703, -0.050971850752830505, 0.27910304069519043, 0.10860435664653778, -0.18122461438179016, -0.05439586564898491, 0.058890894055366516, 0.14326663315296173, 0.09821907430887222, -0.06584833562374115], [0.06673100590705872, -0.14394277334213257, -0.10835243761539459, -0.052205104380846024, -0.06410976499319077, 0.05163581296801567, -0.0791986808180809, -0.23136281967163086, -0.16577570140361786, 0.15743973851203918, -0.0020256934221833944, -0.017373327165842056, -0.022438744083046913, -0.18084141612052917, 0.17200565338134766, 0.03142194077372551, -0.14908751845359802, 0.15905457735061646, 0.05595594272017479, 0.03548694774508476, -0.2627466320991516, -0.00019760968280024827, -0.04983918368816376, -0.17562158405780792, -0.15274445712566376, -0.22628065943717957, 0.04576363041996956, 0.07830247282981873, 0.09427221864461899, 0.15886464715003967, -0.06472604721784592, -0.07117640972137451], [-0.06646256893873215, 0.11529851704835892, -0.1954880952835083, 0.21131014823913574, 0.2223709225654602, -0.10446194559335709, 0.08157418668270111, 0.02472936362028122, -0.0706581324338913, -0.11782694607973099, 0.1559014469385147, -0.03794959560036659, -0.04787512496113777, -0.05411727353930473, -0.02416060119867325, -0.16969817876815796, 0.03206617757678032, -0.15269671380519867, 0.1569831371307373, -0.35600531101226807, -0.0323602631688118, -0.20026355981826782, -0.08825528621673584, -0.013928222469985485, -0.15325844287872314, 0.0011616399278864264, 0.04430880397558212, 0.22409097850322723, 0.0051373448222875595, -0.02460198476910591, -0.0904996320605278, 0.07809381932020187], [-0.04477141797542572, 0.09908744692802429, 0.11628545820713043, 0.1894024759531021, -0.030222630128264427, -0.08887525647878647, 0.03737562522292137, 0.23130261898040771, -0.061989590525627136, 0.09813898801803589, -0.1181521862745285, 0.10289076715707779, 0.025917556136846542, 0.07465510070323944, 0.0739857479929924, 0.08035162836313248, -0.1681787073612213, -0.07650528103113174, -0.15094970166683197, 0.2535703182220459, -0.06672478467226028, 0.06023441255092621, 0.09422435611486435, 0.1680152267217636, -0.02624436840415001, -0.15823759138584137, 0.17953544855117798, -0.31809964776039124, 0.23368661105632782, 0.05006001889705658, 0.22681957483291626, -0.026916157454252243], [-0.024386920034885406, 0.15722307562828064, 0.07971122115850449, -0.05933482572436333, 0.03123651258647442, 0.15706579387187958, 0.10728400945663452, -0.010276880115270615, -0.006387179251760244, -0.09747616946697235, 0.3126889169216156, 0.02729974128305912, -0.021888455376029015, 0.04261733219027519, -0.07986678928136826, -0.13366557657718658, 0.06729600578546524, -0.17788276076316833, 0.3021676540374756, 0.003827970940619707, -0.1318242996931076, 0.1592356264591217, 0.024958880618214607, -0.21774595975875854, 0.15433800220489502, 0.1443054974079132, -0.0896141529083252, 0.30049532651901245, -0.08633050322532654, 0.0016625049756839871, -0.11712818592786789, 0.15952330827713013], [-0.1570926308631897, 0.10020046681165695, -0.13344602286815643, 0.005866291932761669, -0.09211955964565277, -0.07936149090528488, -0.10514023154973984, 0.04566798359155655, 0.10945224016904831, -0.1443459391593933, 0.3559878170490265, 0.10484898090362549, 0.08529764413833618, 0.04868687689304352, 0.06510866433382034, -0.08259204775094986, -0.046383678913116455, -0.2307768166065216, 0.13094429671764374, 0.023975176736712456, 0.09783871471881866, 0.09264098107814789, 0.009422685950994492, -0.21376743912696838, 0.03806395083665848, 0.14746253192424774, -0.14723680913448334, 0.0324147529900074, 0.11406571418046951, 0.14781509339809418, -0.11935858428478241, 0.001314037712290883], [-0.0044507719576358795, 0.24166171252727509, -0.12990187108516693, 0.2355455607175827, 0.1698172688484192, 0.016425736248493195, -0.026163456961512566, 0.061930809170007706, -0.016652287915349007, 0.10406171530485153, 0.0878317654132843, -0.13371559977531433, -0.17555838823318481, -0.15807349979877472, -0.23525549471378326, 0.1213066354393959, 0.05766557902097702, 0.11718881130218506, 0.11872460693120956, 0.04129206761717796, -0.00834517739713192, 0.1517975926399231, 0.062430813908576965, 0.063480444252491, -0.007456548046320677, -0.09423042088747025, -0.007218945771455765, 0.12917183339595795, -0.07880154252052307, -0.03455006703734398, -0.07293914258480072, -0.13787919282913208], [-0.07579262554645538, -0.1587514579296112, 0.07858221232891083, -0.11973213404417038, -0.1910637468099594, 0.18636682629585266, -0.13737796247005463, 0.2251853346824646, -0.06143493577837944, 0.12067107856273651, 0.1254652589559555, -0.015439746901392937, -0.003771935123950243, -0.07966074347496033, -0.014895000495016575, 0.29875263571739197, -0.15574556589126587, 0.012337937951087952, 0.2767833471298218, 0.05658100172877312, 0.07349930703639984, 0.21628965437412262, 0.17779171466827393, -0.13494229316711426, 0.0074875266291201115, 0.1409885734319687, 0.007003262173384428, 0.07678420096635818, 0.07218184322118759, 0.007185285910964012, -0.10121729969978333, -0.01879829913377762], [-0.04163820669054985, -0.11279416084289551, -0.15007951855659485, 0.2603646218776703, -0.08022566139698029, -0.04204961657524109, 0.030589640140533447, -0.009878824464976788, -0.07284826785326004, 0.17679502069950104, -0.04229821637272835, -0.07307952642440796, -0.06045546010136604, 0.09459022432565689, 0.0888046994805336, 0.027541013434529305, 0.10279788821935654, -0.19233249127864838, -0.2003733366727829, 0.02877916768193245, 0.21985843777656555, 0.10651808232069016, 0.11503767967224121, 0.21207092702388763, 0.14065112173557281, -0.025810053572058678, -0.010843033902347088, -0.14093992114067078, -0.09317497909069061, -0.027405111119151115, -0.02252022735774517, 0.3074664771556854], [-0.0689636766910553, -0.25937625765800476, 0.2798510491847992, 0.031039582565426826, -0.03199738636612892, -0.22438794374465942, 0.17484846711158752, 0.08474765717983246, -0.161017507314682, -0.07538475841283798, -0.021244727075099945, -0.2034982144832611, 0.04152580723166466, -0.04677676782011986, -0.10399653762578964, 0.02505595050752163, -0.12699948251247406, 0.0741957426071167, -0.00439048046246171, -0.02929924800992012, -0.2663934826850891, -0.24674201011657715, 0.11288861185312271, 0.04605377838015556, 0.09822273254394531, -0.2954540550708771, 0.12715142965316772, 0.062320906668901443, -0.21327657997608185, 0.13170240819454193, 0.14403082430362701, -0.10519877821207047], [-0.0967327430844307, 0.010917712934315205, 0.12752367556095123, -0.19626548886299133, 0.09557978808879852, 0.13084599375724792, -0.2697767913341522, -0.16337621212005615, -0.059640489518642426, 0.09240785241127014, -0.03776686638593674, -0.38004574179649353, 0.0431489497423172, 0.02530781365931034, -0.07636624574661255, 0.07850092649459839, -0.038398921489715576, 0.08479277044534683, 0.044616974890232086, -0.11666733771562576, -0.04302195832133293, -0.003769536968320608, -0.17167708277702332, -0.29221460223197937, -0.12908370792865753, 0.2479076385498047, 0.19430862367153168, 0.1371230185031891, 0.008120022714138031, 0.07689762860536575, -0.08557916432619095, -0.09842140227556229], [0.10160612314939499, -0.16568833589553833, -0.13804513216018677, 0.17449063062667847, 0.01339786872267723, 0.029112596064805984, 0.08763497322797775, 0.07174339890480042, -0.024689754471182823, -0.03397247940301895, -0.06776995211839676, -0.17466384172439575, -0.08468391746282578, -0.10911153256893158, 0.1184190958738327, 0.04825346916913986, 0.0068265944719314575, -0.07531179487705231, -0.11439963430166245, 0.1223057359457016, 0.054264459758996964, -0.07966098934412003, -0.03921860083937645, 0.26058855652809143, -0.030347593128681183, -0.13490751385688782, 0.1369546353816986, -0.26027414202690125, -0.12806811928749084, -0.04213923215866089, 0.23922036588191986, -0.08330893516540527], [-0.07445307821035385, 0.14975476264953613, -0.0678475871682167, 0.18784095346927643, 0.13037312030792236, -0.00715784402564168, 0.243623748421669, -0.10933631658554077, -0.031219907104969025, 0.11303442716598511, 0.19416406750679016, 0.033307332545518875, -0.10871346294879913, -0.09329864382743835, 0.11993253231048584, -0.1716393381357193, 0.05709369480609894, -0.15426203608512878, -0.100035160779953, -0.039787761867046356, -0.0007095749024301767, 0.012250005267560482, -0.026988578960299492, 0.07222427427768707, 0.05941379815340042, 0.014948253519833088, -0.089603491127491, -0.21631324291229248, 0.0035180021077394485, -0.22241130471229553, -0.09386811405420303, 0.019237125292420387], [-0.040984611958265305, 0.1056692898273468, 0.05400189384818077, -0.053274475038051605, -0.01871674694120884, 0.12557435035705566, -0.09815186262130737, -0.028481733053922653, -0.08126790821552277, -0.0969027653336525, 0.1661159098148346, -0.14611896872520447, -0.02433120831847191, 0.03841690719127655, -0.06266851723194122, 0.1580118089914322, 0.04833292216062546, -0.024921579286456108, 0.09697557985782623, -0.1289035826921463, -0.003328893566504121, -0.10371335595846176, 0.03171537071466446, -0.15148593485355377, -0.07405414432287216, -0.052701909095048904, 0.09023263305425644, -0.16324782371520996, 0.1971055418252945, 0.08592842519283295, -0.15785975754261017, -0.05901368707418442], [-0.07823950797319412, 0.05112116038799286, -0.025478530675172806, -0.1727965623140335, -0.15138565003871918, -0.013575744815170765, -0.3197591304779053, 0.04267806187272072, 0.11486935615539551, 0.03926138952374458, -0.15359771251678467, 0.04700508713722229, 0.01156798005104065, 0.1750878244638443, 0.002673552604392171, 0.2156454473733902, -0.010414722375571728, -0.06014236435294151, 0.23918697237968445, 0.19418324530124664, 0.12988421320915222, 0.3175843358039856, -0.006552318576723337, 0.06801234930753708, -0.17693395912647247, 0.1913042813539505, -0.06199810281395912, -0.12137347459793091, 0.010314011946320534, -0.14996494352817535, -0.20357096195220947, -0.022824689745903015], [0.188628152012825, 0.0016308057820424438, 0.2126050889492035, -0.0025494610890746117, 0.08515512943267822, -0.25765055418014526, 0.08701455593109131, 0.03932701051235199, 0.057149726897478104, -0.08613612502813339, -0.14338693022727966, -0.2712993323802948, -0.07337266951799393, -0.18561728298664093, 0.13459709286689758, 0.0035699736326932907, -0.013731173239648342, -0.06426730751991272, -0.016567815095186234, 0.04211530089378357, 0.13001637160778046, -0.05518916994333267, 0.3309544622898102, 0.18109004199504852, -0.08710861951112747, -0.0626128688454628, -0.043448127806186676, -0.4549398422241211, 0.005205588880926371, 0.2815602719783783, 0.060676950961351395, -0.07569170743227005], [0.07924161851406097, 0.09893026202917099, 0.04699787124991417, -0.028162037953734398, -0.07336492836475372, -0.05223605036735535, -0.07010581344366074, 0.11936614662408829, 0.1525510549545288, 0.05211528390645981, -0.09582886099815369, 0.10563497245311737, 0.1661061942577362, -0.08465299010276794, 0.01712208241224289, 0.04117940366268158, 0.05961595103144646, -0.0022432790137827396, 0.09077387303113937, -0.12052809447050095, -0.11658990383148193, 0.006189841311424971, 0.006804915145039558, -0.012313535436987877, -0.0835026428103447, 0.0934184268116951, 0.01818695291876793, 0.02531181275844574, 0.18113182485103607, 0.0580730102956295, -0.03698107972741127, -0.05382850393652916], [-0.023959415033459663, 0.09391224384307861, 0.060446999967098236, -0.1904725432395935, 0.018435077741742134, 0.10146872699260712, -0.04978073015809059, -0.012335111387073994, -0.07456056773662567, -0.13487644493579865, 0.2185019701719284, 0.07142239809036255, -0.052684955298900604, -0.12574616074562073, -0.12334612011909485, 0.07359019666910172, 0.3062960207462311, 0.18199875950813293, 0.259525865316391, -0.2082659900188446, 0.1294250339269638, 0.024044856429100037, -0.16628165543079376, -0.0626080259680748, 0.12666559219360352, -0.14228662848472595, -0.15682849287986755, 0.05663304775953293, 0.016323454678058624, 0.0664563775062561, -0.1354905366897583, 0.09697805345058441], [-0.12486378848552704, 0.30207359790802, -0.2871011197566986, 0.18558116257190704, 0.10312137752771378, -0.29331767559051514, 0.16763463616371155, 0.14406108856201172, 0.21303652226924896, -0.16836059093475342, 0.0059587061405181885, 0.03685811907052994, -0.11190959811210632, -0.02428743988275528, -0.0876694917678833, 0.1000114157795906, 0.20182214677333832, -0.3089704215526581, -0.16492292284965515, -0.11298562586307526, 0.031193142756819725, -0.16580751538276672, -0.03655104339122772, 0.08227024972438812, 0.20388996601104736, -0.08514613658189774, -0.03880554437637329, -0.18572057783603668, 0.05125202238559723, -0.2563866674900055, 0.1423928439617157, -0.053146641701459885], [-0.1086566224694252, 0.03269634395837784, 0.06503356248140335, 0.30315297842025757, 0.0704287514090538, 0.05002554506063461, -0.04379324987530708, -0.24094074964523315, -0.12745052576065063, -0.19301339983940125, -0.17593945562839508, -0.06744488328695297, 0.1360604614019394, -0.060446981340646744, -0.16646650433540344, -0.07771595567464828, 0.09499283879995346, 0.0034521231427788734, 0.04069366306066513, 0.028938092291355133, -0.06432315707206726, -0.20530514419078827, 0.09509172290563583, -0.07064958661794662, 0.1731288582086563, -0.09118980169296265, 0.10606704652309418, 0.32122835516929626, -0.042654696851968765, 0.07041526585817337, 0.08733367919921875, 0.003164230613037944], [0.006612733937799931, 0.15439817309379578, -0.08513601124286652, 0.17295770347118378, 0.006077170372009277, 0.12621420621871948, -0.03343107923865318, 0.07567433267831802, 0.1495714783668518, -0.2927667200565338, 0.0830865353345871, -0.06626790761947632, -0.02033226191997528, 0.12984615564346313, 0.029536491259932518, 0.051545675843954086, 0.3750740587711334, -0.12367629259824753, 0.013744916766881943, 0.08252399414777756, 0.09507261961698532, -0.11633013188838959, -0.2013668715953827, -0.12253599613904953, -0.06709491461515427, -0.11194035410881042, -0.26826536655426025, -0.1650238186120987, -0.0868336409330368, -0.1353066861629486, -0.05028427764773369, 0.13573898375034332], [-0.1308366060256958, 0.12805207073688507, 0.1755039095878601, -0.017683086916804314, 0.23619255423545837, 0.04678184166550636, 0.02780439332127571, 0.06651687622070312, 0.1263357698917389, -0.24769090116024017, 0.2142495959997177, -0.04502228647470474, 0.14336428046226501, -0.07148827612400055, 0.07851919531822205, -0.169507697224617, 0.12428425252437592, -0.016829196363687515, -0.018240217119455338, -0.049146879464387894, -0.016998352482914925, -0.16838809847831726, -0.09366654604673386, 0.18310987949371338, -0.07094493508338928, -0.05815375596284866, 0.01726064272224903, 0.03920804709196091, 0.08322157710790634, 0.15955311059951782, 0.04279612749814987, 0.04441594332456589], [0.01814030483365059, 0.13056030869483948, 0.0021985562052577734, -0.09814517199993134, -0.08654860407114029, 0.16268157958984375, 0.05859493464231491, -0.04249464347958565, -0.054340705275535583, 0.05479356646537781, -0.0852305069565773, -0.015010465867817402, 0.11527673155069351, 0.034224983304739, 0.24270875751972198, -0.03507937863469124, -0.02850593626499176, 0.10803364217281342, -0.1854247897863388, -0.10842178016901016, -0.05424261838197708, 0.03177959844470024, 0.18515770137310028, -0.01224960945546627, 0.03749431297183037, -0.14656589925289154, -0.005427774041891098, 0.015488259494304657, -0.14141839742660522, -0.04300825670361519, 0.2490033656358719, 0.010060211643576622], [-0.09264019876718521, 0.06887660175561905, -0.14849677681922913, 0.08958902209997177, -0.23996126651763916, 0.07614294439554214, -0.212142214179039, -0.04882432892918587, 0.09159261733293533, -0.021502837538719177, -0.043035559356212616, 0.1926756352186203, -0.08412179350852966, 0.29204094409942627, 0.02536701038479805, -0.05170374736189842, 0.14575758576393127, 0.07742275297641754, -0.1821962147951126, 0.12037675082683563, 0.08490145951509476, -0.01872582733631134, 0.13057731091976166, 0.05157448351383209, 0.2677946984767914, 0.0657384917140007, 0.16204151511192322, -0.007939380593597889, -0.03980821743607521, 0.21465669572353363, -0.09622866660356522, 0.05703956261277199]], "gru.bias_ih_l0": [0.08120337873697281, 0.045392002910375595, 0.10052214562892914, 0.03249574080109596, -0.010773450136184692, 0.06019747257232666, 0.012840724550187588, 0.05362853407859802, 0.08214259892702103, 0.0846833884716034, 0.0487607941031456, 0.05740680918097496, 0.08550485223531723, 0.0911744087934494, 0.005077884998172522, 0.0778440460562706, 0.09241467714309692, 0.1166631430387497, 0.11720000207424164, 0.09910247474908829, 0.11217249929904938, 0.026048677042126656, 0.08116646856069565, 0.07985643297433853, -0.017688065767288208, 0.05185931175947189, 0.09982424229383469, 0.05076698213815689, 0.07332275062799454, -0.03411373868584633, -0.023379145190119743, 0.07117792963981628, -0.06996124982833862, -0.1153639703989029, -0.02965681254863739, -0.12637482583522797, -0.15756234526634216, -0.07004766911268234, -0.14831340312957764, -0.07449368387460709, -0.1388455331325531, -0.13916237652301788, -0.12963657081127167, -0.06521395593881607, -0.13264375925064087, -0.16921238601207733, 0.028438091278076172, -0.118759885430336, -0.11881954222917557, -0.19259172677993774, -0.12490075826644897, -0.005159178748726845, -0.10307598114013672, -0.04813730716705322, -0.10699602216482162, -0.19604063034057617, -0.01808200776576996, -0.17563147842884064, -0.08965799957513809, -0.16000068187713623, -0.08975372463464737, -0.09621842205524445, -0.2023206204175949, -0.07507061213254929, 0.05026156082749367, -0.03712926805019379, -0.034806955605745316, -0.029441513121128082, 0.000819064793176949, 0.08057276904582977, -0.02825152315199375, -0.014099347405135632, -0.04491777345538139, 0.05598507076501846, -0.04673546925187111, 0.007748763542622328, -0.04186788573861122, -0.046471741050481796, -0.014857735484838486, -0.06423646956682205, -0.011179294437170029, 0.11768867820501328, 0.011612540110945702, 0.020000046119093895, -0.06481488049030304, -0.04538926109671593, 0.004203407093882561, 0.06265521794557571, -0.0042932303622365, -0.029019169509410858, -0.02114616148173809, -0.008769377134740353, -0.08443831652402878, 0.04972139745950699, 0.10565730184316635, -0.06888756901025772], "gru.bias_hh_l0": [0.08120337873697281, 0.045392002910375595, 0.10052214562892914, 0.03249574080109596, -0.010773450136184692, 0.06019747257232666, 0.012840724550187588, 0.05362853407859802, 0.08214259892702103, 0.0846833884716034, 0.0487607941031456, 0.05740680918097496, 0.08550485223531723, 0.0911744087934494, 0.005077884998172522, 0.0778440460562706, 0.09241467714309692, 0.1166631430387497, 0.11720000207424164, 0.09910247474908829, 0.11217249929904938, 0.026048677042126656, 0.08116646856069565, 0.07985643297433853, -0.017688065767288208, 0.05185931175947189, 0.09982424229383469, 0.05076698213815689, 0.07332275062799454, -0.03411373868584633, -0.023379145190119743, 0.07117792963981628, -0.06996124982833862, -0.1153639703989029, -0.02965681254863739, -0.12637482583522797, -0.15756234526634216, -0.07004766911268234, -0.14831340312957764, -0.07449368387460709, -0.1388455331325531, -0.13916237652301788, -0.12963657081127167, -0.06521395593881607, -0.13264375925064087, -0.16921238601207733, 0.028438091278076172, -0.118759885430336, -0.11881954222917557, -0.19259172677993774, -0.12490075826644897, -0.005159178748726845, -0.10307598114013672, -0.04813730716705322, -0.10699602216482162, -0.19604063034057617, -0.01808200776576996, -0.17563147842884064, -0.08965799957513809, -0.16000068187713623, -0.08975372463464737, -0.09621842205524445, -0.2023206204175949, -0.07507061213254929, 0.10523193329572678, -0.06598050147294998, -0.02353771962225437, -0.022661931812763214, -0.03818454593420029, 0.1045389324426651, -0.02441217564046383, -0.030509548261761665, -0.04569321870803833, 0.0655258297920227, -0.05680312588810921, 0.027089888229966164, -0.08469339460134506, -0.05309293791651726, 0.008718904107809067, -0.02499612607061863, -0.0330796018242836, 0.13269256055355072, 0.033321648836135864, 0.022932352498173714, -0.0688779354095459, -0.004902343265712261, -0.02037961594760418, 0.06164002791047096, -0.0018830366898328066, -0.04522939771413803, -0.06354890763759613, 0.009459965862333775, -0.09450355917215347, 0.03611670807003975, 0.09708637744188309, -0.10256653279066086], "fc.weight": [[0.20899318158626556, 0.03967507183551788, 0.4405771493911743, 0.45917922258377075, 0.3208375871181488, 0.08236201852560043, 0.2532169818878174, -0.4674278497695923, -0.0075152660720050335, 0.11298249661922455, 0.1686803102493286, -0.49315905570983887, 0.3747831881046295, -0.33597710728645325, -0.030197612941265106, -0.4993821084499359, -0.28180399537086487, 0.1992958039045334, 0.4099763333797455, 0.19108694791793823, -0.1297427862882614, -0.27210739254951477, -0.3270368278026581, 0.09489970654249191, -0.2105630338191986, 0.03695673495531082, -0.3897324204444885, 0.5008923411369324, -0.2666865885257721, 0.13995619118213654, 0.20758536458015442, -0.10851960629224777], [-0.045930396765470505, -0.39643386006355286, 0.47613146901130676, -0.014438369311392307, 0.004464193247258663, -0.09454924613237381, 0.07410679012537003, -0.24356530606746674, -0.01997520960867405, -0.030471019446849823, -0.042046792805194855, 0.2821345627307892, -0.5185307264328003, -0.2386244535446167, 0.030061114579439163, -0.42722734808921814, 0.02263864502310753, 0.1794009506702423, -0.5091632604598999, 0.340530127286911, -0.03257722407579422, -0.045035142451524734, 0.02128499373793602, 0.34090176224708557, -0.04006088152527809, -0.46424850821495056, 0.47485625743865967, 0.10281891375780106, -0.09015728533267975, 0.24808849394321442, 0.32292795181274414, -0.3817102611064911], [0.2842964231967926, 0.2282409965991974, -0.25743743777275085, -0.4751734137535095, 0.13199114799499512, 0.37138831615448, -0.3547406792640686, 0.0988822802901268, -0.42707711458206177, 0.28621816635131836, -0.3527895510196686, -0.26747453212738037, -0.19288136065006256, 0.09840267151594162, -0.123863585293293, 0.4001963436603546, -0.483325332403183, 0.22342808544635773, 0.4698493182659149, -0.3587920665740967, -0.3123227655887604, 0.18379119038581848, 0.30735528469085693, 0.07662544399499893, 0.14834634959697723, 0.05725732818245888, -0.25803142786026, 0.07352542132139206, -0.47284629940986633, 0.3425307869911194, 0.13060329854488373, -0.41541004180908203], [0.13232025504112244, -0.3538901209831238, -0.27449995279312134, -0.34907668828964233, -0.2873471677303314, 0.3231022357940674, -0.2201251983642578, 0.23621031641960144, -0.37303876876831055, 0.09860066324472427, -0.3823480010032654, 0.08711107075214386, -0.23402808606624603, -0.170930415391922, -0.19734230637550354, 0.016242556273937225, 0.005536388140171766, 0.22971726953983307, -0.11004197597503662, 0.2591548562049866, -0.5221261382102966, -0.2489006668329239, 0.15017522871494293, 0.23922240734100342, -0.004189143422991037, -0.2505749464035034, -0.16117139160633087, -0.5368319153785706, -0.20719528198242188, 0.006602080538868904, 0.4438260793685913, 0.25070255994796753]], "fc.bias": [-4.913535118103027, -4.909928321838379, -4.941351413726807, -4.8762922286987305]}}