{"effector": "ReluPointMass24", "input_dim": 12, "hidden_dim": 32, "output_dim": 4, "weights": {"gru.weight_ih_l0": [[0.27881813049316406, -0.1251259744167328, 0.03510832414031029, 0.07223859429359436, 0.304324209690094, -0.13902370631694794, -0.11336812376976013, -0.13572849333286285, 0.014870685525238514, -0.2404657006263733, 0.26381510496139526, -0.07305488735437393], [-0.5291415452957153, 0.05588206276297569, 0.1710161715745926, -0.25268396735191345, 0.22248202562332153, -0.013208899646997452, 0.1955602467060089, -0.1576891839504242, -0.1492183655500412, 0.008119816891849041, -0.07382351905107498, 0.10480093955993652], [0.10219988971948624, 0.041572194546461105, -0.11930833756923676, -0.26029399037361145, 0.04393065720796585, 0.2722362279891968, 0.05798610299825668, 0.22786325216293335, -0.2330740988254547, -0.02329329028725624, -0.06664832681417465, -0.014864698983728886], [-0.06540779769420624, 0.23833349347114563, -0.016711324453353882, -0.2595241963863373, 0.12811237573623657, -0.15497052669525146, -0.1839158684015274, 0.004397884011268616, 0.11522050946950912, 0.010586868040263653, 0.20819461345672607, 0.137838676571846], [-0.4204014837741852, -0.21005479991436005, 0.1870518922805786, -0.01009499840438366, -0.1382821947336197, 0.1018863171339035, 0.11625806987285614, 0.14220145344734192, -0.19962747395038605, 0.14942656457424164, -0.13003258407115936, 0.009974977932870388], [-0.028800606727600098, -0.48171907663345337, -0.010223171673715115, 0.22622878849506378, -0.050353892147541046, -0.07792577892541885, 0.21729658544063568, -0.1284513622522354, -0.09722179919481277, 0.3160359263420105, 0.18724089860916138, -0.1802939921617508], [0.18028393387794495, 0.040809743106365204, -0.24335657060146332, 0.20832189917564392, 0.2287113070487976, 0.19320949912071228, -0.07102116197347641, 0.10354211926460266, 0.21499250829219818, -0.015330009162425995, -0.23671779036521912, -0.09666365385055542], [0.2871735394001007, 0.21149374544620514, -0.06665441393852234, -0.29679083824157715, 0.25180748105049133, -0.1267583817243576, 0.209985613822937, 0.09809129685163498, 0.11856327950954437, 0.1345018595457077, 0.016337819397449493, -0.13346149027347565], [0.10548725724220276, -0.013540557585656643, -0.23577255010604858, -0.21530072391033173, 0.33522018790245056, -0.024919316172599792, 0.298955500125885, 0.2629472315311432, 0.12971045076847076, 0.10379624366760254, 0.06480888277292252, 0.2811715304851532], [0.031888317316770554, -0.176997572183609, 0.062245119363069534, 0.03728017583489418, -0.08651763200759888, 0.21057824790477753, 0.08155032992362976, 0.16681785881519318, 0.05235620215535164, -0.0959034413099289, -0.042082324624061584, -0.08865775167942047], [0.03237210959196091, -0.31305238604545593, -0.0384322851896286, 0.09320346266031265, -0.0780966505408287, 0.22954782843589783, 0.1911460906267166, -0.07391224801540375, -0.04875446856021881, -0.30868974328041077, 0.10676756501197815, -0.1040729358792305], [-0.14938406646251678, 0.05009542405605316, -0.043547291308641434, -0.040446002036333084, 0.04847307875752449, 0.0893079936504364, 0.0098183061927557, 0.12642887234687805, 0.019627947360277176, 0.1241469606757164, -0.2067839354276657, 0.09572826325893402], [-0.39264416694641113, 0.21889448165893555, 0.06255888193845749, 0.1317303329706192, 0.03249664977192879, -0.13440069556236267, -0.13067057728767395, 0.0996166542172432, -0.06926747411489487, 0.05512932315468788, 0.09323149919509888, 0.2330554872751236], [0.06546735018491745, 0.08553174883127213, 0.360100120306015, -0.2819065451622009, -0.05800663307309151, 0.08689429610967636, 0.15237168967723846, 0.08974821865558624, -0.20687335729599, -0.21224257349967957, -0.01169197540730238, 0.08659546077251434], [-0.1404387503862381, -0.14380650222301483, -0.07029236853122711, -0.22721751034259796, -0.03178751841187477, -0.048066191375255585, -0.21801318228244781, 0.008731775917112827, 0.0024667626712471247, -0.029882386326789856, -0.2901325821876526, -0.09222515672445297], [-0.3053082227706909, -0.23243318498134613, -0.24390938878059387, -0.27841687202453613, -0.015396583825349808, -0.18385109305381775, 0.3136833608150482, 0.07257302105426788, 0.06159870699048042, -0.15034306049346924, -0.05849722400307655, 0.11482543498277664], [0.4313906729221344, 0.13656127452850342, 0.19356650114059448, -0.18526826798915863, 0.05534017086029053, 0.16758781671524048, 0.3309420049190521, 0.0059936027973890305, 0.09018129110336304, -0.08553913235664368, 0.041189491748809814, 0.09575039148330688], [-0.12381543219089508, 0.1508251428604126, -0.012506319209933281, 0.016273610293865204, 0.1515558511018753, -0.06997088342905045, 0.08882956206798553, 0.32768481969833374, 0.12121953070163727, 0.021624328568577766, -0.11630573868751526, 0.25181132555007935], [0.25002574920654297, -0.3343440294265747, -0.009011030197143555, 0.19767352938652039, 0.07921108603477478, 0.1253294199705124, 0.24508579075336456, 0.006206983234733343, 0.009541790932416916, -0.007930907420814037, -0.1615135222673416, 0.06605213135480881], [-0.1538216471672058, 0.027933791279792786, -0.16872991621494293, 0.038592685014009476, -0.03759196400642395, 0.30646732449531555, 0.17337387800216675, 0.029860859736800194, 0.10693928599357605, 0.04565213993191719, -0.00931456033140421, -0.061044029891490936], [0.07355750352144241, 0.06198088824748993, -0.3076474368572235, -0.024865861982107162, 0.09168589860200882, -0.04166145622730255, 0.08579046279191971, 0.11628250032663345, -0.11034353077411652, 0.00481659360229969, -0.1595812439918518, -0.12479695677757263], [0.25611865520477295, -0.04300915077328682, 0.06245477497577667, 0.08518753200769424, -0.1806812286376953, -0.11325971782207489, -0.07309114933013916, -0.0735916718840599, -0.09628953784704208, -0.11082589626312256, -0.004575476981699467, -0.10028140246868134], [0.260388046503067, 0.32717105746269226, -0.022721881046891212, 0.010279286652803421, 0.2239852249622345, -0.13288787007331848, -0.061595648527145386, 0.19316011667251587, -0.014423084445297718, -0.26438599824905396, -0.04402356594800949, 0.01110832765698433], [0.001722234534099698, -0.016650287434458733, -0.12238680571317673, 0.2859025001525879, -0.06359733641147614, 0.10521308332681656, -0.14305882155895233, 0.1985100954771042, 0.14338862895965576, 0.10045832395553589, -0.0030584828928112984, 0.11228308081626892], [-0.05159251391887665, 0.05148233845829964, 0.012068481184542179, 0.38961201906204224, 0.004616794642060995, 0.051820266991853714, 0.12465272098779678, 0.07308070361614227, -0.13365863263607025, -0.029463432729244232, -0.3745752274990082, -0.14408278465270996], [-0.17724965512752533, -0.06632410734891891, 0.24233995378017426, -0.13541877269744873, 0.04827836528420448, 0.1352628767490387, -0.09381947666406631, -0.11995318531990051, -0.24129197001457214, -0.21052640676498413, 0.1046757847070694, -0.03571516275405884], [0.2074124664068222, -0.16005007922649384, -0.2504661977291107, -0.02566460706293583, -0.016228437423706055, 0.002932318951934576, -0.10179267823696136, 0.195341095328331, -0.26062527298927307, -0.11513776332139969, 0.08125638216733932, 0.04840351268649101], [0.35076653957366943, -0.14833234250545502, -0.4010202884674072, -0.238551065325737, -0.08127649128437042, 0.020215600728988647, 0.10205978155136108, 0.16057303547859192, -0.24638031423091888, 0.2974134683609009, -0.039216283708810806, -0.03941122815012932], [0.3191183805465698, -0.02147781103849411, -0.03140582516789436, 0.24286864697933197, 0.23297974467277527, -0.06692223250865936, 0.235433891415596, 0.1608123481273651, 0.25700750946998596, -0.2889231741428375, -0.09950242936611176, 0.1423930674791336], [-0.36440494656562805, 0.13013499975204468, -0.24044179916381836, 0.3421582281589508, -0.09010705351829529, -0.007773978635668755, 0.17683647572994232, -0.08898355811834335, -0.02626301534473896, 0.3905996084213257, -0.5039739608764648, -0.03525121137499809], [0.20965911448001862, 0.1130998358130455, 0.002058508340269327, 0.16992761194705963, -0.16940423846244812, -0.03516681492328644, 0.12929345667362213, 0.09090311825275421, -0.07521817088127136, -0.29009878635406494, 0.11047963052988052, -0.03960719332098961], [0.0581984743475914, -0.15510351955890656, -0.023944396525621414, -0.2063625007867813, -0.1159200668334961, 0.002474624663591385, -0.07136163860559464, 0.18498513102531433, 0.14280642569065094, -0.16927336156368256, 0.11425203830003738, -0.39622896909713745], [0.13645994663238525, 0.027451803907752037, 0.08397975564002991, -0.016830168664455414, -0.045780908316373825, -0.03728090226650238, -0.1983136385679245, -0.37265652418136597, 0.2797062397003174, 0.35836389660835266, -0.31274470686912537, 0.3336893618106842], [0.21547135710716248, 0.004411823581904173, -0.07040861248970032, 0.06577130407094955, 0.028599606826901436, -0.36137959361076355, -0.11453383415937424, -0.20612318813800812, -0.14266502857208252, 0.17026810348033905, -0.19097141921520233, -0.3342094421386719], [-0.10031960904598236, -0.058327388018369675, -0.11087077856063843, 0.003305707359686494, -0.26814004778862, -0.12467893213033676, 0.15020209550857544, -0.2608805000782013, 0.06959094107151031, 0.0861753523349762, -0.06631200015544891, -0.04060755670070648], [-0.06513785570859909, 0.28095346689224243, 0.11203867197036743, -0.05966594070196152, -0.026851123198866844, -0.3564690351486206, -0.28215375542640686, -0.3937898874282837, -0.38564804196357727, 0.4368622601032257, -0.25302955508232117, 0.09488600492477417], [0.03669338300824165, 0.058883585035800934, -0.04580963775515556, 0.2556273639202118, -0.11244833469390869, -0.06298383325338364, -0.0993768498301506, -0.3641762137413025, -0.06143873557448387, -0.018763475120067596, -0.03139006346464157, -0.06173671782016754], [-0.08879490941762924, -0.1526673436164856, -0.13017870485782623, -0.04094462841749191, -0.29017847776412964, -0.3191366195678711, -0.19704094529151917, -0.11969016492366791, 0.16348761320114136, 0.07016044855117798, 0.18447713553905487, 0.1834004521369934], [0.011827724985778332, -0.039530735462903976, -0.11494208872318268, 0.25240570306777954, -0.28290435671806335, -0.13346052169799805, -0.23530897498130798, -0.2561640739440918, -0.14222188293933868, -0.08337002992630005, 0.003820805810391903, -0.20728619396686554], [0.010456395335495472, -0.018095754086971283, 0.2302026003599167, 0.46581292152404785, -0.2128690630197525, -0.2294727861881256, -0.2921082079410553, 0.16777601838111877, 0.15531133115291595, 0.11714617162942886, -0.3312743902206421, -0.22868873178958893], [-0.04685641825199127, 0.10968497395515442, 0.19754157960414886, -0.07685242593288422, -0.2129019796848297, -0.12455308437347412, -0.31298643350601196, -0.06754913926124573, 0.30495166778564453, -0.352594792842865, -0.0944775715470314, -0.13731253147125244], [0.02612491510808468, 0.4192359149456024, -0.0004178179078735411, 0.01727469637989998, -0.011184455826878548, -0.04174080491065979, -0.10917329043149948, 0.022445611655712128, -0.010953073389828205, -0.2345351129770279, 0.2682524621486664, 0.027333643287420273], [0.011707202531397343, 0.1330854743719101, -0.2199537456035614, -0.023516470566391945, 0.05349179729819298, -0.10939519852399826, -0.26517990231513977, -0.17865104973316193, -0.2360074371099472, 0.19529306888580322, -0.1732373833656311, 0.008708810433745384], [-0.030173877254128456, 0.08255225419998169, 0.2962990403175354, -0.21970577538013458, -0.22736133635044098, 0.0033424266148358583, -0.2391194999217987, 0.12527720630168915, 0.1501629799604416, 0.44004908204078674, -0.1176028773188591, 0.06602153927087784], [-0.1771959811449051, -0.18294134736061096, -0.0018420779379084706, -0.04129863902926445, -0.1247183233499527, -0.16777321696281433, -0.15249286592006683, -0.16006404161453247, -0.1030408963561058, -0.01856779307126999, -0.051758650690317154, -0.13353395462036133], [-0.12178048491477966, -0.042184021323919296, -0.0027158770244568586, 0.100030317902565, -0.037778642028570175, -0.05322174355387688, -0.3775431215763092, -0.19906848669052124, -0.057586442679166794, -0.15635257959365845, 0.2020326554775238, 0.034511491656303406], [0.20791547000408173, -0.2993912398815155, 0.07381180673837662, 0.08149515092372894, 0.15365374088287354, -0.13519465923309326, -0.00040904482011683285, 0.2261902242898941, 0.19731026887893677, 0.032547418028116226, -0.08410639315843582, 0.14664825797080994], [0.16111893951892853, -0.06490326672792435, 0.1818964183330536, -0.11071155220270157, -0.3168136179447174, -0.08318015187978745, -0.22397349774837494, -0.34125351905822754, 0.10511019825935364, -0.02623891830444336, 0.08173450827598572, -0.06480541080236435], [0.07861138880252838, 0.14422175288200378, 0.06816966086626053, -0.14644695818424225, -0.12210649996995926, -0.05256303772330284, -0.2199280858039856, -0.40476202964782715, -0.04581992328166962, -0.36731621623039246, -0.08545415103435516, 0.1907050758600235], [-0.1509350687265396, -0.035239361226558685, 0.20141209661960602, -0.18229937553405762, -0.14886903762817383, -0.29114577174186707, -0.18115560710430145, -0.1721729189157486, -0.06688855588436127, -0.025629812851548195, -0.10650017857551575, -0.23154494166374207], [0.27166029810905457, 0.11210374534130096, 0.01859564520418644, -0.05083993449807167, -0.3993268311023712, -0.184096559882164, -0.1187957376241684, -0.42128095030784607, -0.1399524211883545, -0.11803458631038666, 0.0760836973786354, -0.045405302196741104], [0.32556748390197754, -0.2606703042984009, -0.4261779189109802, 0.22311732172966003, 0.09474450349807739, -0.10750418156385422, -0.15159128606319427, -0.24189220368862152, 0.1212877407670021, 0.19242329895496368, -0.25588396191596985, -0.10719157010316849], [0.06003497168421745, 0.06395014375448227, -0.16397973895072937, -0.2828229069709778, -0.3536258935928345, -0.03899497911334038, -0.3343272805213928, 0.0203856211155653, -0.07829238474369049, -0.12050481140613556, -0.19653254747390747, -0.3247893154621124], [0.2815377414226532, -0.1758902221918106, 0.2532061040401459, 0.38740235567092896, -0.4000038802623749, -0.3295860290527344, -0.0514402911067009, -0.16300824284553528, -0.06289110332727432, -0.018205605447292328, -0.13911940157413483, -0.26826339960098267], [0.007969405502080917, -0.0671553909778595, -0.11852066218852997, 0.14282160997390747, 0.02402614988386631, -0.19746167957782745, -0.30636101961135864, -0.33711183071136475, -0.138129323720932, -0.0560183972120285, 0.16502657532691956, -0.09012646973133087], [0.241750106215477, 0.06089401617646217, -0.1448463499546051, 0.03416284918785095, -0.19349713623523712, -0.30804547667503357, -0.06426513940095901, -0.1786957085132599, 0.048158202320337296, 0.1643955260515213, -0.06876026093959808, -0.017383551225066185], [0.09452539682388306, 0.09797552227973938, -0.18808823823928833, 0.24369390308856964, -0.3225410282611847, 0.004510599188506603, -0.06315433233976364, 0.05962912365794182, 0.06676322966814041, -0.00945005938410759, 0.3790700137615204, -0.12857577204704285], [0.45155519247055054, -0.1055503562092781, -0.2997061014175415, -0.1274166703224182, -0.31781190633773804, -0.12184256315231323, -0.07999557256698608, -0.25644928216934204, 0.07958951592445374, 0.13820132613182068, -0.13242115080356598, 0.0016576541820541024], [-0.11223161220550537, -0.22662760317325592, -0.14316870272159576, 0.3088754713535309, 0.046325817704200745, -0.34453871846199036, -0.0816345140337944, -0.20056119561195374, -0.1540890485048294, 0.19152142107486725, 0.07175583392381668, -0.18573887646198273], [-0.009918564930558205, -0.01485457643866539, 0.10459870845079422, 0.026461461558938026, -0.42198607325553894, -0.3652835786342621, -0.2222830206155777, -0.30353686213493347, -0.13128730654716492, -0.029448477551341057, -0.04073667526245117, -0.11945070326328278], [-0.04577024653553963, -0.2205049693584442, 0.06915684789419174, -0.05968693271279335, -0.1923861801624298, -0.3218018412590027, -0.10533460974693298, -0.293335884809494, -0.02710876613855362, -0.3300821781158447, 0.042631689459085464, -0.23242129385471344], [-0.09932611137628555, -0.0766553282737732, 0.01095347199589014, -0.14469069242477417, -0.17567609250545502, -0.42745518684387207, -0.29076892137527466, -0.09785498678684235, -0.24635149538516998, 0.05844399705529213, 0.1359642595052719, 0.2711237072944641], [0.0578497014939785, -0.20862291753292084, -0.14852580428123474, 0.08292674273252487, -0.10262337327003479, -0.23666700720787048, -0.17856130003929138, -0.3300727605819702, 0.17233529686927795, -0.15331697463989258, -0.1318604201078415, 0.2500394880771637], [-0.1828213781118393, -0.23770111799240112, 0.0765284076333046, 0.12415057420730591, -0.3153865933418274, -0.2629380524158478, -0.03761555626988411, -0.26041802763938904, -0.0008649032097309828, -0.1597442924976349, 0.08717089891433716, -0.12051080912351608], [-0.0657477155327797, 0.11776424199342728, -0.2597838342189789, -0.11632027477025986, 0.11037818342447281, 0.16957390308380127, 0.07803744822740555, 0.2419133186340332, 0.18379279971122742, 0.05927985534071922, 0.06906627863645554, 0.1000952273607254], [0.1432395875453949, -0.09576833248138428, -0.18944185972213745, 0.2450757473707199, 0.017403122037649155, 0.05631902441382408, -0.2354034185409546, 0.04523388668894768, -0.09083782881498337, 0.008915267884731293, 0.11250212788581848, -0.1395716518163681], [0.1850942224264145, 0.23804642260074615, 0.03569924086332321, -0.07502023875713348, 0.11962544918060303, 0.19016794860363007, 0.02628711797297001, 0.1267852485179901, 0.1210969090461731, 0.23269307613372803, 0.08644674718379974, -0.0948091447353363], [0.12989304959774017, 0.3945375978946686, 0.1143212765455246, -0.13715624809265137, 0.02052621729671955, -0.13006797432899475, -0.08523721247911453, 0.0338514968752861, 0.08433166146278381, 0.023906921967864037, 0.0337432436645031, 0.08593349903821945], [0.19491040706634521, 0.31927812099456787, -0.13050103187561035, 0.10507473349571228, 0.13649198412895203, 0.07354655116796494, 0.05213458463549614, -0.17718222737312317, 0.20402738451957703, -0.0075617097318172455, -0.021297620609402657, -0.01674780808389187], [0.15243826806545258, -0.3797769248485565, -0.17245317995548248, 0.1517276167869568, 0.08471223711967468, 0.03135976195335388, 0.0049796393141150475, -0.1351092904806137, 0.20159181952476501, -0.18290962278842926, -0.07172366976737976, 0.24093177914619446], [-0.12205182015895844, 0.4247693419456482, 0.08684602379798889, -0.296062707901001, 0.1276300549507141, 0.0991680845618248, -0.03331485763192177, -0.0794864296913147, 0.11720805615186691, 0.09334056079387665, 0.05542537569999695, -0.04191557317972183], [-0.21557648479938507, -0.07306922972202301, 0.17813421785831451, -0.10791116207838058, -0.07480621337890625, -0.07422497868537903, 0.14115385711193085, 0.03499939665198326, 0.12454064190387726, -0.008622333407402039, 0.009274429641664028, -0.09723041206598282], [-0.03272917866706848, 0.160110205411911, -0.113046795129776, -0.01607687585055828, 0.10337136685848236, -0.14382706582546234, -0.12764738500118256, -0.2626430094242096, -0.0338907390832901, -0.1818426251411438, -0.2106359601020813, -0.046237748116254807], [0.09696915745735168, -0.0024672846775501966, 0.1382814347743988, -0.0317448191344738, 0.12348336726427078, 0.007195159327238798, 0.2674754559993744, -0.0325259268283844, 0.16964559257030487, 0.07579625397920609, 0.23345908522605896, 0.018502088263630867], [0.1098797470331192, 0.28608202934265137, -0.18949688971042633, 0.07597662508487701, -0.04442770034074783, -0.17159239947795868, 0.017103368416428566, -0.008968694135546684, 0.19394879043102264, 0.20977790653705597, 0.050337016582489014, 0.01143090520054102], [-0.27456867694854736, -0.13194066286087036, 0.15731193125247955, -0.1512124389410019, -0.12147457152605057, -0.22325672209262848, 0.03960220143198967, -0.1274162232875824, 0.006448590196669102, -0.008548285812139511, 0.031071798875927925, 0.030273646116256714], [0.2943139672279358, 0.06356538832187653, -0.272954523563385, 0.1947644054889679, 0.11884006857872009, -0.26645269989967346, -0.05587015673518181, 0.1614956110715866, 0.06759151071310043, -0.14484283328056335, 0.06161807104945183, 0.1404539793729782], [-0.08444367349147797, -0.16034919023513794, -0.13998205959796906, -0.04485784098505974, 0.006707256659865379, -0.19921088218688965, -0.08743516355752945, -0.281899631023407, -0.10695964097976685, -0.04292502626776695, 0.2446385622024536, -0.07213789969682693], [0.05566142126917839, 0.13903090357780457, 0.23735138773918152, 0.07423035055398941, -0.08105503767728806, -0.08798017352819443, 0.15056097507476807, -0.05009337142109871, 0.044914837926626205, -0.17124344408512115, 0.04920123517513275, 0.0021960395388305187], [-0.010153135284781456, -0.3418656587600708, 0.23479174077510834, 0.32671648263931274, -0.07619917392730713, -0.24567753076553345, 0.13883987069129944, 0.1642550230026245, 0.05551593005657196, 0.024909039959311485, 0.14388678967952728, 0.1658080667257309], [-0.1363585740327835, 0.3135048747062683, -0.016969986259937286, -0.02198183722794056, -0.10439563542604446, -0.15052099525928497, -0.1486394852399826, 0.11823537200689316, 0.0792103111743927, 0.13564026355743408, -0.03817449137568474, 0.16639681160449982], [0.3039539158344269, -0.1814507693052292, -0.04291431978344917, -0.050993144512176514, 0.09343506395816803, 0.004915057215839624, 0.06880594789981842, 0.3571837842464447, 0.1091051697731018, -0.06572932749986649, 0.021985191851854324, 0.0820116177201271], [0.40213197469711304, -0.20463544130325317, 0.12299858778715134, 0.17189562320709229, 0.2416480928659439, -0.14238962531089783, -0.15684805810451508, -0.032837994396686554, -0.08009734004735947, -0.014516057446599007, 0.0413391999900341, -0.09367390722036362], [-0.38946855068206787, -0.05775272846221924, -0.16372564435005188, -0.13317246735095978, 0.18724440038204193, -0.1325797140598297, 0.07730944454669952, -0.01791907474398613, -0.08233774453401566, -0.03238414600491524, 0.06110938638448715, -0.03525017201900482], [0.03597051277756691, 0.1790034919977188, -0.16192060708999634, -0.1888980120420456, -0.28711602091789246, -0.2876209020614624, -0.028731800615787506, -0.28291770815849304, 0.06095415726304054, -0.008621828630566597, -0.06694920361042023, 0.056233689188957214], [-0.2294798493385315, -0.4346110224723816, 0.1519361138343811, 0.18763048946857452, 0.14654037356376648, -0.15009385347366333, -0.11882952600717545, -0.050037235021591187, 0.14558669924736023, 0.08844424039125443, 0.0832156389951706, -0.000796714739408344], [-0.28393086791038513, -0.08286139369010925, -0.022919967770576477, -0.037692319601774216, -0.07068886607885361, 0.09635471552610397, 0.17132917046546936, 0.20781150460243225, -0.17300409078598022, -0.16048617660999298, -0.05269742012023926, 0.10491187125444412], [-0.4465871751308441, 0.32526788115501404, 0.03156723827123642, 0.2245780974626541, -0.045582447201013565, 0.1278609335422516, -0.15710563957691193, 0.15084321796894073, -0.06642024219036102, 0.05701587721705437, 0.050578389316797256, -0.02258150279521942], [0.09540574252605438, 0.15494702756404877, -0.11573483794927597, -0.071492500603199, -0.2302488535642624, 0.14761604368686676, 0.10419023782014847, -0.2337382286787033, -0.2898660898208618, -0.14789074659347534, -0.04099409654736519, -0.0035727745853364468], [0.2861369252204895, -0.3351883292198181, -0.2172604203224182, 0.1725403219461441, -0.10682256519794464, 0.060644954442977905, 0.172147735953331, -0.23774884641170502, -0.044605549424886703, -0.14573733508586884, 0.1341523379087448, -0.014778216369450092], [-0.49554604291915894, -0.06781822443008423, 0.256434828042984, -0.051664140075445175, 0.1092052236199379, 0.1902206838130951, 0.09430018067359924, -0.06479330360889435, -0.13464917242527008, 0.006025423761457205, -0.12348758429288864, 0.038649216294288635], [0.46948710083961487, 0.14656832814216614, -0.019680820405483246, -0.04254186153411865, 0.1508479118347168, -0.18098750710487366, 0.16998916864395142, -0.20852304995059967, 0.0973735973238945, 0.021164052188396454, 0.03793568164110184, -0.03579477593302727], [-0.3236594498157501, -0.08651956915855408, 0.2405175417661667, -0.14831964671611786, 0.055981021374464035, -0.19990184903144836, 0.008564615622162819, -0.09417397528886795, 0.10343559086322784, 0.07119419425725937, 0.10254199802875519, 0.0179111547768116], [0.31684988737106323, 0.18146973848342896, 0.030705951154232025, -0.04205011576414108, 0.08338674157857895, 0.24019581079483032, 0.23533733189105988, 0.23795616626739502, -0.10247723758220673, -0.12692929804325104, -0.015133252367377281, -0.1296391487121582], [-0.2641872465610504, 0.27229928970336914, 0.13297125697135925, 0.11505446583032608, 0.23078759014606476, 0.2584816813468933, -0.04146401211619377, 0.0620560459792614, 0.0713471993803978, -0.02362152934074402, -0.12992505729198456, 0.10794414579868317], [0.013097085990011692, -0.1937805563211441, -0.2698991298675537, -0.19110310077667236, -0.2518511414527893, -0.2749089300632477, -0.023989053443074226, 0.019909115508198738, -0.0786651149392128, -0.18210478127002716, -0.18922527134418488, -0.07690516859292984]], "gru.weight_hh_l0": [[-0.038778942078351974, -0.09390557557344437, -0.03582833707332611, -0.3274734616279602, 0.004687854088842869, -0.04133038967847824, -0.1247621402144432, -0.04629598930478096, -0.03662106767296791, 0.22498804330825806, 0.08910752087831497, -0.027775300666689873, 0.01968487724661827, -0.23100145161151886, 0.005598860792815685, 0.1538744568824768, -0.16678594052791595, 0.20983777940273285, -0.09272467344999313, 0.1968972235918045, -0.1840091496706009, -0.06356371194124222, 0.18034544587135315, -0.059261977672576904, -0.18487565219402313, 0.19810570776462555, -0.12200707942247391, 0.23063130676746368, -0.06677746772766113, -0.017140939831733704, 0.21092475950717926, -0.12491849064826965], [0.12173967808485031, -0.0702333152294159, 0.12826724350452423, 0.042608313262462616, -0.12639012932777405, -0.19484125077724457, 0.018480775877833366, 0.03205975145101547, -0.0316605381667614, 0.21608497202396393, 0.10356030613183975, 0.056142307817935944, 0.04400946572422981, -0.01544272992759943, 0.053415101021528244, -0.023043205961585045, 0.06725525110960007, 0.052933868020772934, -0.2954631745815277, 0.06786765903234482, -0.07764794677495956, 0.05559913069009781, 0.045496560633182526, 0.2119976282119751, -0.11906695365905762, 0.018576256930828094, 0.15841028094291687, -0.3247961103916168, 0.2412959188222885, -0.0387725792825222, 0.21666961908340454, -0.04392249882221222], [0.23752689361572266, -0.28710126876831055, 0.2377786636352539, -0.11956782639026642, -0.2718140184879303, 0.19649702310562134, 0.16960228979587555, 0.11916837096214294, -0.10954295098781586, 0.2317599505186081, -0.25611263513565063, -0.0494648814201355, -0.051619209349155426, -0.24105055630207062, -0.09323139488697052, 0.03552361950278282, -0.01180659607052803, 0.1548420786857605, -0.024260932579636574, 0.20872065424919128, -0.3145004212856293, -0.13895580172538757, 0.02751344069838524, 0.1730925589799881, -0.056471388787031174, 0.08830549567937851, 0.2123178243637085, -0.030345208942890167, 0.044949766248464584, 0.13779793679714203, 0.12208825349807739, -0.06682933121919632], [0.03722037747502327, -0.16597828269004822, -0.009919045493006706, 0.18837596476078033, -0.19672179222106934, 0.002404493046924472, 0.3088018596172333, -0.12859609723091125, -0.04736267402768135, -0.023928619921207428, 0.08172746002674103, -0.07332433760166168, 0.000867426919285208, -0.19565704464912415, -0.14611029624938965, -0.07548072189092636, 0.028346996754407883, 0.21101541817188263, -0.1501782387495041, -0.14291080832481384, -0.17603182792663574, 0.0372774563729763, 0.28691065311431885, -0.16652746498584747, 0.11882840096950531, 0.03393252193927765, 0.12832248210906982, 0.03439708799123764, -0.16234447062015533, 0.02889266237616539, 0.06552012264728546, -0.22088076174259186], [-0.21798154711723328, 0.15850727260112762, 0.06582926213741302, -0.08300593495368958, 0.004002999048680067, 0.1660076528787613, -0.010856032371520996, 0.15470242500305176, -0.007702318485826254, 0.0628223642706871, -0.01884477213025093, 0.02428838051855564, -0.1253155916929245, 0.07762505859136581, -0.07683594524860382, -0.02670099213719368, 0.005350721068680286, -0.020858697593212128, 0.030903559178113937, 0.07234428077936172, 0.002006515162065625, 0.07274864614009857, -0.0287907887250185, 0.24635189771652222, -0.04907654598355293, 0.020078781992197037, -0.17631568014621735, -0.4106505215167999, 0.07231329381465912, -0.0568729005753994, -0.07699857652187347, -0.07999805361032486], [0.013026829808950424, -0.045520734041929245, 0.2168213129043579, -0.3509168326854706, 0.09061472117900848, -0.004416012670844793, -0.068890281021595, -0.07184962928295135, -0.012230578809976578, 0.1036858931183815, -0.06799014657735825, -0.11469931155443192, -0.029107170179486275, -0.07104337215423584, 0.10932021588087082, 0.16910319030284882, -0.13293197751045227, -0.18099692463874817, 0.15127386152744293, -0.09825088083744049, -0.24789142608642578, -0.03709202632308006, 0.004104606341570616, 0.018371783196926117, -0.17459748685359955, 0.01825193502008915, 0.17163094878196716, 0.219144806265831, 0.028692740947008133, 0.006479199975728989, -0.15294937789440155, -0.07071740925312042], [0.05035826191306114, 0.08670158684253693, 0.24132409691810608, -0.013417920097708702, 0.06329664587974548, -0.014596153981983662, -0.04004655405879021, 0.18255135416984558, -0.10087668150663376, -0.02321804314851761, 0.1340138018131256, -0.13441158831119537, 0.08905830979347229, 0.04011823982000351, 0.13323862850666046, 0.38832980394363403, 0.10900209099054337, 0.06341908872127533, 0.08506892621517181, 0.07538805902004242, -0.08669374138116837, 0.23684467375278473, -0.04647647589445114, 0.033611394464969635, -0.19916687905788422, 0.0504189170897007, 0.04833927005529404, -0.09078948944807053, 0.06364963203668594, -0.025865750387310982, 0.11796914041042328, 0.04987750202417374], [-0.09692283719778061, -0.22778284549713135, 0.06348969042301178, 0.1517549455165863, 0.07690656185150146, -0.03673224151134491, -0.0361064076423645, -0.054281871765851974, 0.06276705861091614, 0.07052025943994522, -0.0650530681014061, -0.04548458009958267, -0.06533711403608322, -0.10305696725845337, 0.014897431246936321, -0.0588284507393837, -0.04243677854537964, 0.04217057675123215, -0.08547942340373993, 0.07868332415819168, 0.008067760616540909, -0.053271740674972534, -0.15370675921440125, -0.03544207662343979, 0.2004828155040741, -0.15781879425048828, -0.08850090205669403, 0.029012858867645264, 0.03386338800191879, 0.16296905279159546, -0.06408470869064331, -0.010407167486846447], [0.04394251108169556, 0.08980175107717514, 0.13063983619213104, -0.0883466973900795, -0.03226299583911896, -0.1864234060049057, -0.02388658933341503, 0.15909743309020996, -0.30038660764694214, 0.06977029144763947, -0.1928781121969223, -0.06742720305919647, 0.06926791369915009, -0.12476737052202225, 0.17777802050113678, -0.008212736807763577, -0.03231330215930939, 0.15446005761623383, 0.14403070509433746, -0.10867273807525635, -0.028023580089211464, 0.04332038760185242, -0.06909056007862091, -0.1182621642947197, 0.02842678129673004, 0.2284223735332489, -0.04820874705910683, 0.04975290223956108, -0.004115871153771877, 0.13396713137626648, 0.034369096159935, -0.028279239311814308], [0.27939581871032715, -0.10789107531309128, 0.08343972265720367, -0.21966059505939484, -0.13824932277202606, 0.008225255645811558, 0.004652378614991903, -0.025212138891220093, -0.06794217973947525, -0.07291217148303986, -0.08872336894273758, 0.029836280271410942, -0.24183961749076843, -0.16346609592437744, -0.12303975969552994, 0.06726399809122086, -0.17381668090820312, -0.08827290683984756, 0.1057746633887291, -0.025498416274785995, -0.012570615857839584, -0.016511220484972, 0.14261427521705627, -0.09755273908376694, -0.025782614946365356, -0.055938657373189926, 0.05639909952878952, 0.19441407918930054, -0.022233834490180016, -0.13866588473320007, 0.07639741152524948, -0.21541622281074524], [-0.2973536550998688, 0.04592715948820114, 0.0305535476654768, -0.2678840756416321, -0.2491029053926468, 0.13579058647155762, 0.09330970793962479, 0.21886089444160461, 0.04874306544661522, 0.10714917629957199, -0.1086297407746315, -0.18263429403305054, 0.06797577440738678, 0.1306736320257187, 0.25481030344963074, -0.015464932657778263, -0.0004834907012991607, 0.0800662562251091, 0.10273916274309158, -0.16945093870162964, -0.015395622700452805, 0.17361825704574585, 0.10667134821414948, -0.09050769358873367, -0.07935149222612381, -0.02577027678489685, -0.06355676054954529, -0.28425315022468567, 0.15503531694412231, 0.013405921868979931, 0.1817735880613327, -0.0851956233382225], [0.13875606656074524, -0.026618892326951027, 0.16850140690803528, -0.07433079183101654, 0.25368455052375793, -0.009993184357881546, -0.047133684158325195, 0.18224091827869415, -0.030171263962984085, 0.09754075855016708, -0.04323001205921173, -0.06725020706653595, 0.01975550502538681, -0.05121530219912529, 0.08701038360595703, 0.1501419097185135, -0.08147925138473511, 0.032516904175281525, -0.1209481805562973, 0.06280627101659775, -0.026217417791485786, -0.12221414595842361, 0.3899121880531311, 0.021158946678042412, 0.001387297990731895, -0.2735782563686371, 0.03484266996383667, -0.18583688139915466, -0.04494607448577881, -0.08885019272565842, 0.10728917270898819, 0.01728847622871399], [-0.02039324678480625, -0.1842075139284134, -0.047035422176122665, 0.21572650969028473, 0.028307508677244186, 0.011636839248239994, -0.11670756340026855, 0.024064457044005394, -0.08733165264129639, 0.040780067443847656, 0.011942282319068909, 0.009519761428236961, 0.011432266794145107, 0.1039997860789299, 0.319053053855896, -0.11489817500114441, -0.1635531634092331, 0.09067119657993317, -0.0994478166103363, -0.0063598500564694405, -0.15501242876052856, 0.016301235184073448, 0.13493943214416504, 0.21951478719711304, -0.21071872115135193, -0.17022152245044708, -0.06823877990245819, -0.2973507046699524, 0.09754082560539246, 0.0024951938539743423, 0.1724727749824524, -0.045111700892448425], [-0.00584677467122674, -0.14722849428653717, 0.1522369086742401, 0.2044733464717865, -0.1603706032037735, -0.16483290493488312, 0.05382443591952324, -0.18185248970985413, 0.0381857231259346, 0.04048638045787811, -0.0825062021613121, -0.1463027447462082, 0.03712721914052963, -0.14351175725460052, -0.05111946538090706, 0.07159048318862915, -0.1097196638584137, 0.05597136542201042, -0.4930052161216736, 0.05997414141893387, -0.06111923232674599, -0.38729119300842285, 0.07422206550836563, -0.025010038167238235, 0.015754159539937973, -0.19530817866325378, 0.010876835323870182, -0.0869835689663887, 0.07083350419998169, 0.21930433809757233, 0.011314119212329388, -0.10385636240243912], [0.015402848832309246, 0.050843801349401474, -0.1589004099369049, -0.1367473006248474, -0.2689977288246155, 0.06675460189580917, 0.055841851979494095, 0.08743639290332794, -0.040796298533678055, 0.021878300234675407, -0.12118381261825562, -0.2905071973800659, -0.18301542103290558, 0.018978824838995934, -0.3847733438014984, -0.39105457067489624, -0.06536640226840973, -0.18642361462116241, 0.10428683459758759, 0.023243267089128494, -0.01348234061151743, 0.14784719049930573, 0.17929542064666748, 0.041816093027591705, 0.10430020838975906, -0.21112757921218872, -0.14212509989738464, 0.13764385879039764, 0.3080434203147888, 0.02958173118531704, 0.18931938707828522, -0.009912007488310337], [0.14379748702049255, 0.022203078493475914, 0.06079686060547829, -0.3774251341819763, -0.08378926664590836, -0.11872632801532745, 0.15485133230686188, 0.03993700444698334, -0.2583105266094208, 0.012591199018061161, -0.15283922851085663, -0.03181399032473564, -0.04470067471265793, -0.08840075880289078, -0.029907668009400368, 0.026018977165222168, 0.08177487552165985, 0.07601062208414078, -0.23321618139743805, 0.17053678631782532, -0.10821498930454254, 0.16379232704639435, 0.18498797714710236, -0.010893545113503933, -0.12026885896921158, -0.06216105446219444, 0.12670199573040009, -0.10765063017606735, 0.03937361389398575, 0.01301234494894743, 0.054795052856206894, 0.18719911575317383], [0.02972332574427128, -0.08468984812498093, 0.024317748844623566, 0.04309839755296707, -0.05974371358752251, -0.1776265650987625, 0.03135276585817337, -0.25182512402534485, -0.21365024149417877, -0.10898623615503311, 0.1135869175195694, -0.12029993534088135, 0.22935158014297485, -0.09396110475063324, -0.06756341457366943, -0.06521040946245193, -0.06987649202346802, 0.23062065243721008, 0.04962628334760666, 0.0198766328394413, -0.29471614956855774, -0.15275365114212036, 0.1420445740222931, 0.10228722542524338, -0.2558816969394684, 0.009469844400882721, -0.22651031613349915, 0.2005624622106552, -0.16086944937705994, 0.09027701616287231, 0.04690081626176834, -0.14364363253116608], [0.1481151580810547, -0.14322508871555328, -0.03865455090999603, 0.06747960299253464, 0.019091051071882248, -0.1070077121257782, -0.06732729077339172, -0.0575496181845665, 0.012460179626941681, 0.22431860864162445, -0.0694849044084549, -0.1744621992111206, 0.30043649673461914, -0.361555814743042, -0.2937692701816559, -0.006879523396492004, 0.036229513585567474, 0.0098020164296031, -0.16053873300552368, 0.02673007734119892, -0.01177465170621872, 0.03313509002327919, 0.15174958109855652, -0.07157562673091888, -0.016661176458001137, -0.37002846598625183, 0.08814801275730133, 0.016561975702643394, -0.005751100834459066, 0.17850732803344727, 0.1047741249203682, 0.01388621423393488], [0.2774880528450012, -0.15850207209587097, 0.023020369932055473, -0.03609449788928032, -0.04082368314266205, 0.11483077704906464, 0.13119104504585266, 0.12096565961837769, -0.0015224430244415998, 0.2773261070251465, 0.11448060721158981, -0.11555912345647812, 0.0552733838558197, 0.051665402948856354, 0.09502701461315155, 0.10681245476007462, 0.1338951140642166, 0.146035835146904, 0.10906723886728287, -0.10102873295545578, -0.16971181333065033, -0.15609273314476013, 0.0787833034992218, -0.10332968831062317, -0.011696728877723217, 0.1312202364206314, 0.01026435662060976, 0.1816716343164444, 0.01201836671680212, 0.005303977057337761, 0.030689159408211708, -0.13019992411136627], [-0.07154413312673569, -0.20442913472652435, -0.03477643057703972, -0.1574344038963318, 0.24273881316184998, -0.09121496230363846, 0.22171755135059357, 0.12813179194927216, -0.11183741688728333, 0.0982917845249176, -0.12250538170337677, -0.09799675643444061, 0.0027751517482101917, 0.12873004376888275, 0.0661294087767601, 0.0947147086262703, -0.11554016917943954, 0.12424914538860321, -0.2183147668838501, 0.09495019912719727, 0.10652448982000351, 0.2444537729024887, 0.18195320665836334, -0.0014817338669672608, -0.20914404094219208, -0.1526964008808136, 0.1291740983724594, 0.03772268816828728, -0.07531993091106415, 0.1316380500793457, 0.2762187421321869, -0.1314467340707779], [0.1985737830400467, -0.1064169853925705, 0.09236398339271545, -0.22493690252304077, -0.042581576853990555, 0.026773987337946892, -0.008214340545237064, -0.0356789194047451, -0.05214131996035576, 0.20156329870224, 0.02985524572432041, 0.026013486087322235, 0.08357251435518265, -0.041889678686857224, 0.1361696422100067, 0.07592792063951492, -0.28431013226509094, 0.13221248984336853, 0.11225882172584534, 0.03874607011675835, 0.053557440638542175, -0.09113077819347382, -0.02215234376490116, 0.07088694721460342, -0.01918988674879074, -0.1296013593673706, 0.1421716958284378, -0.045953258872032166, -0.17047233879566193, 0.06788654625415802, 0.05518379434943199, -0.26572564244270325], [-0.01323503814637661, -0.02223978377878666, -0.12434512376785278, -0.39965522289276123, -0.10866931825876236, 0.01750093325972557, 0.10245264321565628, 0.05095856636762619, -0.09837400913238525, -0.2026301473379135, -0.15151527523994446, 0.008540106005966663, 0.036954257637262344, -0.02311723493039608, 0.022361837327480316, 0.19809658825397491, 0.01705736108124256, 0.16635899245738983, -0.08291013538837433, 0.05530152842402458, 0.05054590851068497, 0.07535074651241302, 0.038259223103523254, 0.11890371888875961, -0.09586774557828903, 0.06391735374927521, -0.047598205506801605, -0.04233618825674057, 0.1598280668258667, 0.18723541498184204, -0.022849073633551598, 0.02279548905789852], [0.07135070115327835, -0.032221365720033646, 0.20316803455352783, 0.34021058678627014, -0.034506503492593765, -0.29137372970581055, 0.1342778205871582, -0.5063192844390869, -0.11494582146406174, 0.07821601629257202, 0.08272816985845566, 0.015973951667547226, 0.09959407150745392, -0.03427395969629288, 0.2600178122520447, 0.10577065497636795, 0.14497478306293488, 0.04210910573601723, -0.1098376214504242, 0.010480125434696674, 0.006875496823340654, -0.26896271109580994, 0.0356011800467968, 0.12509584426879883, 0.07191135734319687, -0.07439915090799332, 0.2091590315103531, 0.16902227699756622, -0.027241185307502747, 0.16291703283786774, 0.19739127159118652, 0.02738078311085701], [0.2988610863685608, 0.14895394444465637, 0.05052870884537697, 0.04365302249789238, 0.18376709520816803, 0.06412515789270401, -0.07376544922590256, 0.053610436618328094, -0.2532252073287964, 0.07390104979276657, -0.13446475565433502, 0.13047660887241364, 0.09492829442024231, 0.1432492434978485, 0.32611721754074097, 0.12322153151035309, -0.13518793880939484, 0.06963550299406052, -0.22824059426784515, 0.10779833793640137, -0.25454995036125183, 0.050425801426172256, 0.21068516373634338, 0.010754448361694813, -0.037942446768283844, -0.04377986863255501, 0.006540794391185045, -0.10548163950443268, 0.22915537655353546, 0.1851222664117813, 0.06854276359081268, -0.27660292387008667], [-0.19848386943340302, 0.2189628928899765, 0.036678414791822433, 0.3483080267906189, 0.27361756563186646, 0.060826484113931656, 0.017338667064905167, -0.06217021495103836, 0.04865577071905136, -0.116900235414505, 0.04678599163889885, 0.02424011565744877, -0.06672316044569016, 0.06534548848867416, 0.04703354090452194, 0.37272655963897705, -0.009666935540735722, 0.08239741623401642, -0.06848014146089554, 0.04847610369324684, 0.10540783405303955, -0.011893682181835175, 0.06974688917398453, -0.06520307064056396, -0.06481052190065384, 0.1586151421070099, 0.15768592059612274, 0.18074001371860504, 0.12067148834466934, -0.06233612075448036, -0.1857987642288208, 0.2584448754787445], [0.1552748829126358, 0.05315694212913513, -0.12912839651107788, -0.1148703321814537, 0.20532818138599396, -0.0015287690330296755, 0.14226147532463074, -0.13317836821079254, -0.06034707650542259, 0.18755006790161133, 0.001255582319572568, -0.23542355000972748, 0.12060034275054932, -0.14439308643341064, 0.2182411402463913, 0.015206667594611645, -0.08609633147716522, -0.0485406368970871, -0.2647656798362732, 0.03536763787269592, 0.018232304602861404, -0.015983739867806435, 0.09325693547725677, 0.30077505111694336, 0.11545795947313309, -0.0484035387635231, 0.06369893997907639, -0.2413540780544281, 0.0015844792360439897, 0.12179870903491974, 0.029444986954331398, -0.3347534239292145], [0.07073729485273361, 0.04331362992525101, 0.012028614059090614, -0.2219385802745819, -0.02050691470503807, -0.11260603368282318, -0.1116449236869812, -0.05046893283724785, -0.1317639797925949, 0.026847373694181442, 0.04163743183016777, -0.14062097668647766, 0.2887369990348816, 0.06991979479789734, -0.07472529262304306, 0.26449909806251526, -0.008817821741104126, 0.062135253101587296, 0.35007262229919434, 0.16862307488918304, -0.0326596163213253, -0.05761551111936569, 0.21779727935791016, -0.17299722135066986, 0.05738907307386398, 0.14724823832511902, 0.13181442022323608, 0.3387891948223114, 0.018420018255710602, 0.05510678142309189, -0.21385464072227478, -0.1798333376646042], [0.05814170464873314, -0.024065228179097176, 0.19109252095222473, 0.08346598595380783, -0.021180201321840286, 0.06287048012018204, 0.09935618191957474, -0.1813456267118454, -0.16682711243629456, -0.03247813880443573, -0.20139548182487488, 0.09008048474788666, 0.00042310741264373064, -0.1171509176492691, -0.0977623239159584, -0.007053268142044544, -0.16450005769729614, 0.06215106323361397, 0.24328462779521942, -0.021595409139990807, 0.1685193032026291, -0.034655094146728516, 0.11265130341053009, -0.06577541679143906, 0.015762610360980034, 0.07515418529510498, 0.013665784150362015, 0.15721474587917328, -0.03456410393118858, 0.009219832718372345, 0.01135057583451271, -0.21863584220409393], [-0.10340552031993866, -0.23530763387680054, -0.039707768708467484, -0.17668351531028748, -0.019280996173620224, -0.03937342390418053, -0.030838297680020332, 0.08624839037656784, -0.053538210690021515, 0.1740299016237259, -0.07794257998466492, 0.10242882370948792, 0.03744972497224808, -0.12497103214263916, -0.04727000743150711, 0.1461195945739746, 0.0040042707696557045, 0.012073162943124771, 0.05828212574124336, -0.008186406455934048, -0.06494171172380447, -0.13636617362499237, 0.3098750412464142, -0.11610352247953415, -0.13195303082466125, 0.139585942029953, 0.03401090204715729, -0.1719508022069931, -0.06378994882106781, 0.2517997622489929, 0.01906420849263668, 0.03545563668012619], [-0.2761857807636261, -0.1129159927368164, -0.009501341730356216, -0.056261006742715836, 0.04858984798192978, -0.0816531553864479, -0.09156767278909683, 0.09377490729093552, 0.1353561133146286, -0.1006213054060936, -0.12902571260929108, 0.1089576706290245, 0.0319027379155159, 0.05658743157982826, -0.004688379354774952, 0.13634563982486725, 0.12130502611398697, -0.022823965176939964, -0.10101187974214554, -0.13107065856456757, -0.16684667766094208, -0.0007747748168185353, 0.056360721588134766, 0.2737314999103546, -0.03887602686882019, -0.18656738102436066, 0.14446915686130524, -0.06292669475078583, -0.029650816693902016, -0.11875099688768387, 0.011034549213945866, -0.08015983551740646], [-0.11311863362789154, -0.09638550132513046, -0.003266184590756893, -0.014310597442090511, -0.13583801686763763, 0.04781753197312355, -0.11179782450199127, -0.24773073196411133, -0.09620706737041473, 0.06883462518453598, -0.05270380154252052, 0.06242150440812111, 0.10663248598575592, 0.031416844576597214, -0.04479241743683815, -0.1384904533624649, -0.028433160856366158, 0.11225119978189468, -0.03544969484210014, 0.0009027792257256806, 0.055731263011693954, -0.13317900896072388, 0.1965368241071701, 0.17026019096374512, -0.05563186854124069, 0.10440179705619812, -0.1152324452996254, -0.09838995337486267, -0.029328322038054466, -0.017345216125249863, 0.019653888419270515, -0.025745144113898277], [0.13976076245307922, -0.21183861792087555, -0.029167229309678078, -0.04640498012304306, 0.04744918271899223, 0.2175367921590805, 0.17977911233901978, -0.013703078962862492, 0.02064952813088894, 0.056109413504600525, -0.03969458118081093, -0.07326731085777283, 0.21116913855075836, -0.10110338777303696, 0.2235458642244339, -0.18895427882671356, 0.017894882708787918, 0.1980169713497162, 0.07538382709026337, -0.23153677582740784, -0.051633380353450775, 0.03040006197988987, 0.05738569051027298, 0.16424186527729034, -0.026266690343618393, 0.0657799169421196, -0.01728435605764389, 0.11636768281459808, -0.15649202466011047, 0.07153233140707016, 0.13886140286922455, 0.04278319701552391], [-0.2237343192100525, 0.36620816588401794, -0.08177629113197327, 0.15578199923038483, -0.1722012609243393, 0.1723487675189972, 0.09417881816625595, 0.06220651790499687, 0.07024548947811127, -0.41958093643188477, 0.14808836579322815, 0.16479502618312836, -0.17799022793769836, 0.1525401920080185, -0.16593541204929352, -0.01809799112379551, 0.02300223335623741, -0.4203472137451172, -0.10355137288570404, -0.2309408336877823, 0.1915215253829956, 0.3682945966720581, -0.20139804482460022, 0.14708365499973297, 0.21473531424999237, 0.17065738141536713, -0.11749476194381714, -0.24710610508918762, 0.05127687752246857, -0.13534222543239594, -0.08222684264183044, 0.2522745132446289], [-0.19570967555046082, 0.2697911262512207, -0.23260849714279175, -0.0026077518705278635, 0.07805536687374115, 0.10513448715209961, -0.36862605810165405, -0.10115179419517517, 0.08287475258111954, -0.20320560038089752, 0.28616034984588623, 0.2184899002313614, 0.14459684491157532, 0.2392173558473587, -0.07274466007947922, 0.17072921991348267, 0.04869925603270531, -0.1747097373008728, 0.30923256278038025, -0.234011709690094, 0.10677266865968704, 0.0305575430393219, -0.102980837225914, -0.1438041627407074, 0.21964283287525177, 0.27141648530960083, 0.005281419027596712, 0.150376558303833, -0.1415501981973648, -0.06143916770815849, 0.011134937405586243, 0.2667890191078186], [-0.002760909730568528, 0.1772872358560562, -0.2447817623615265, -0.09932151436805725, -0.32571813464164734, -0.021843811497092247, -0.14455990493297577, 0.06729727238416672, 0.14262472093105316, -0.34390801191329956, 0.18967294692993164, 0.022100962698459625, 0.12850062549114227, 0.484968900680542, -0.27710527181625366, 0.2025260478258133, -0.017491815611720085, -0.19882935285568237, 0.06764227151870728, -0.13886350393295288, 0.07196258753538132, 0.3166027069091797, -0.21173891425132751, -0.18217505514621735, 0.05621505156159401, 0.239935040473938, -0.28985416889190674, -0.012852838262915611, 0.24507345259189606, -0.07715298235416412, -0.3345493674278259, 0.30219048261642456], [-0.13802434504032135, -0.022530531510710716, -0.14962871372699738, -0.06377055495977402, -0.08068612962961197, -0.033825069665908813, -0.21501581370830536, -0.021052462980151176, 0.2366047501564026, -0.09092974662780762, 0.07595589011907578, 0.014748619869351387, -0.1863752007484436, 0.009161264635622501, -0.04921426996588707, 0.06668507307767868, 0.21584756672382355, -0.169302299618721, -0.05279649421572685, 0.2550608813762665, 0.2447412610054016, -0.035822827368974686, -0.05610382556915283, 0.19624510407447815, 0.014466099441051483, 0.11909966915845871, 0.06017812713980675, 0.053239576518535614, 0.010259909555315971, -0.15235953032970428, 0.1582077443599701, 0.149484783411026], [-0.0608830451965332, 0.20890405774116516, -0.04833422601222992, 0.1113075315952301, -0.10152428597211838, -0.18469813466072083, -0.026740606874227524, 0.04036203771829605, 0.320482075214386, -0.2237187772989273, -0.0033006968442350626, 0.1705733984708786, 0.1698727309703827, 0.22543857991695404, -0.08215383440256119, -0.1453022062778473, 0.18574883043766022, 0.14171214401721954, 0.20374783873558044, -0.23073098063468933, 0.14215408265590668, 0.21410490572452545, -0.11590076982975006, -0.2259521484375, 0.1901397407054901, 0.20532028377056122, 0.17467103898525238, -0.17495755851268768, 0.1714383065700531, -0.069759301841259, -0.1525934338569641, 0.10955715924501419], [-0.32085034251213074, 0.21864472329616547, -0.21543580293655396, 0.24679559469223022, 0.04629262164235115, -0.33010709285736084, 0.320242315530777, 0.030444031581282616, 0.1829368770122528, -0.1599815934896469, 0.3329506516456604, 0.18926741182804108, 0.02822258323431015, 0.1648862361907959, -0.09044130891561508, -0.2506486773490906, 0.23037280142307281, -0.31772997975349426, 0.06909185647964478, -0.05321769043803215, 0.22072391211986542, 0.0740177109837532, -0.3229944705963135, -0.18014571070671082, 0.31451940536499023, 0.09871174395084381, 0.14940346777439117, 0.010792163200676441, 0.12210435420274734, -0.05388767272233963, -0.31727826595306396, 0.20407864451408386], [-0.16606922447681427, -0.1368415206670761, -0.062060799449682236, 0.12947724759578705, 0.11437374353408813, -0.100029356777668, 0.11576271802186966, 0.04262973368167877, 0.02653653733432293, -0.289577841758728, 0.05633320286870003, 0.2076244056224823, 0.09124226868152618, 0.09777869284152985, -0.089147187769413, -0.16153568029403687, 0.09465265274047852, -0.0019551303703337908, -0.061291515827178955, 0.06860828399658203, 0.1798877716064453, -0.04522312059998512, -0.09677110612392426, 0.06338031589984894, 0.17077156901359558, 0.038516853004693985, -0.21731123328208923, 0.18755553662776947, 0.11758986860513687, -0.22603043913841248, -0.16491755843162537, -0.010468456894159317], [-0.02365855686366558, -0.044729556888341904, 0.016605166718363762, -0.1966700404882431, -0.05652698874473572, -0.04494403302669525, -0.45149725675582886, 0.04808272421360016, -0.036753855645656586, -0.021992964670062065, -0.1384209543466568, -0.08649136871099472, 0.1163029745221138, -0.048445116728544235, 0.2257184088230133, 0.35614240169525146, 0.1334986388683319, -0.036372583359479904, -0.07117540389299393, -0.13289420306682587, -0.032618336379528046, -0.03213263303041458, 0.10409317165613174, 0.21421828866004944, 0.07324415445327759, -0.003691332647576928, -0.1643611639738083, -0.061055026948451996, 0.08305101096630096, -0.06891562044620514, -0.12574219703674316, 0.37777531147003174], [-0.10771976411342621, 0.29594042897224426, -0.11897576600313187, 0.22739478945732117, 0.33194947242736816, -0.051564984023571014, 0.14108815789222717, -0.08843190968036652, 0.15195085108280182, -0.16394124925136566, 0.15204428136348724, 0.364897757768631, -0.07556399703025818, 0.24195720255374908, -0.03327764570713043, -0.17978255450725555, 0.23014533519744873, -0.29420140385627747, -0.026659483090043068, -0.16178150475025177, 0.13617542386054993, 0.02066919580101967, -0.06842590123414993, 0.08848551660776138, 0.06171061098575592, -0.07216612249612808, -0.09007042646408081, 0.09310688823461533, -0.049599539488554, -0.08679760247468948, -0.09006219357252121, 0.2596665322780609], [-0.21035507321357727, 0.04691595211625099, -0.03912444785237312, 0.20532919466495514, -0.07976439595222473, -0.18062175810337067, 0.06644248962402344, -0.048008888959884644, 0.16027896106243134, -0.1610868275165558, 0.01960192248225212, 0.25855493545532227, 0.007288668770343065, 0.16899532079696655, -0.08254220336675644, -0.005643881857395172, 0.27075517177581787, -0.32922133803367615, -0.08253167569637299, -0.24327924847602844, 0.11515513807535172, -0.06826410442590714, -0.09106556326150894, 0.02425513043999672, 0.16821697354316711, -0.024176960811018944, -0.170259028673172, -0.14414523541927338, -0.10799414664506912, 0.017943119630217552, -0.07059482485055923, -0.11675677448511124], [-0.24090006947517395, 0.2153521627187729, -0.14577312767505646, 0.23611342906951904, -0.05343063175678253, 0.057724177837371826, 0.26108020544052124, -0.22891533374786377, 0.31666111946105957, -0.13508811593055725, 0.14398302137851715, 0.15680396556854248, 0.3907108008861542, 0.12848693132400513, 0.06294811517000198, -0.17660273611545563, 0.12016791850328445, -0.10589616000652313, 0.09529821574687958, 0.21427631378173828, 0.05941404029726982, -0.060409728437662125, -0.25654950737953186, -0.13400393724441528, 0.4441143572330475, 0.18698640167713165, -0.14040561020374298, 0.07221828401088715, -0.03471443057060242, -0.19514583051204681, -0.17689929902553558, 0.20925679802894592], [-0.02186444029211998, 0.22341400384902954, -0.06256243586540222, -0.022764230147004128, -0.08541102707386017, 0.10483017563819885, -0.2148420810699463, 0.3045903444290161, 0.022501463070511818, -0.06579400599002838, 0.12544569373130798, 0.15594156086444855, -0.06715893745422363, 0.046488720923662186, -0.2417144626379013, -0.23315519094467163, 0.32894042134284973, -0.177393838763237, -0.12789182364940643, 0.09200471639633179, 0.20906154811382294, 0.18943920731544495, -0.18683604896068573, 0.0993700698018074, -0.02552923746407032, 0.1605493277311325, -0.07391533255577087, -0.13939602673053741, 0.2153426706790924, -0.23064160346984863, 0.04222555086016655, 0.20844310522079468], [-0.136549711227417, 0.2660517990589142, -0.10469203442335129, 0.07767227292060852, 0.12999369204044342, 0.11718825995922089, -0.12480770796537399, 0.16551409661769867, 0.19264395534992218, -0.13833844661712646, 0.3053326904773712, 0.20126692950725555, 0.24501894414424896, 0.18740154802799225, -0.19133105874061584, -0.08109410852193832, 0.15223580598831177, -0.21373188495635986, 0.013710252940654755, -0.2615594267845154, 0.046599939465522766, 0.27965715527534485, -0.1158158928155899, -0.20135624706745148, -0.13835307955741882, 0.03202657401561737, 0.008185229264199734, 0.01339593343436718, 0.020842591300606728, -0.15796031057834625, -0.2463538497686386, -0.04309968650341034], [-0.14498107135295868, 0.033729325979948044, -0.04970831423997879, -0.07311014086008072, 0.02278747409582138, 0.12453996390104294, -0.15376296639442444, -0.1142670214176178, 0.00957257766276598, -0.040876779705286026, 0.20216821134090424, 0.027241531759500504, 0.0584600567817688, 0.23538024723529816, 0.11756718903779984, -0.1024312824010849, 0.054489508271217346, -0.07599420100450516, -0.0468268059194088, -0.04832712933421135, 0.21949975192546844, -0.16990675032138824, -0.10970783978700638, -0.04175329580903053, 0.196663498878479, 0.19385839998722076, -0.1645669788122177, 0.035712502896785736, -0.1486467868089676, -0.27830174565315247, -0.07676208764314651, 0.24351586401462555], [0.04348020628094673, 0.1277947723865509, 0.06351184099912643, -0.003960396628826857, 0.09776698797941208, 0.036719441413879395, 0.20107875764369965, -0.055969856679439545, 0.04094872251152992, 0.10908682644367218, 0.05040809512138367, 0.042885713279247284, 0.17260047793388367, 0.11754266172647476, -0.04981685429811478, 0.08795024454593658, 0.22384338080883026, -0.08189498633146286, 0.15490366518497467, -0.06300470978021622, -0.10649164766073227, 0.06555575877428055, 0.014980686828494072, -0.11094429343938828, 0.01755565218627453, 0.1246398538351059, -0.062401026487350464, 0.19809195399284363, 0.06209729611873627, -0.1335383504629135, -0.20733067393302917, 0.1258794516324997], [-0.3246459364891052, 0.19656267762184143, -0.26590317487716675, 0.2541676163673401, 0.08396705240011215, -0.16042903065681458, -0.23024418950080872, 0.050745896995067596, 0.4518411457538605, -0.30843856930732727, 0.04796980693936348, 0.1527455449104309, 0.052432529628276825, 0.2580108940601349, -0.07636409997940063, -0.07950470596551895, 0.20124489068984985, -0.23045764863491058, 0.1241021677851677, -0.03902449458837509, -0.002910260809585452, 0.19718089699745178, -0.1813002973794937, -0.14781373739242554, 0.2579416334629059, 0.10638289898633957, -0.10253449529409409, -0.15040484070777893, 0.036903541535139084, -0.33698323369026184, -0.2038964033126831, 0.35829612612724304], [-0.17673338949680328, 0.25435373187065125, -0.03766308352351189, 0.14694206416606903, -0.020146440714597702, -0.13316123187541962, -0.030658451840281487, 0.11614640057086945, 0.1926015019416809, -0.32009217143058777, 0.19878071546554565, 0.19904613494873047, -0.14469191431999207, 0.2942187190055847, 0.14869807660579681, -0.15961036086082458, 0.13908721506595612, -0.37396639585494995, -0.033072471618652344, -0.06697788834571838, 0.21547694504261017, 0.3382769227027893, -0.17560824751853943, -0.060468677431344986, 0.039009563624858856, -0.03358594700694084, -0.03856705129146576, -0.04491658881306648, 0.23142726719379425, -0.17706681787967682, -0.16339261829853058, 0.20113110542297363], [-0.2347426861524582, 0.15585805475711823, 0.05353253334760666, 0.23729759454727173, -0.0035858533810824156, 0.12262947112321854, -0.2616473138332367, -0.3259761333465576, 0.15954428911209106, -0.15341463685035706, 0.1018708273768425, 0.15228334069252014, -0.115611232817173, 0.26385384798049927, -0.20227769017219543, 0.08855032175779343, 0.17374221980571747, -0.1836840808391571, 0.10539650171995163, -0.2833558917045593, 0.17770400643348694, 0.3087725043296814, -0.1892440766096115, 0.09795786440372467, 0.40866145491600037, 0.08242345601320267, -0.12012842297554016, -0.0010753609240055084, 0.0825820341706276, -0.2917807102203369, -0.2601850628852844, 0.059263452887535095], [-0.1432303786277771, 0.026902761310338974, -0.20261836051940918, 0.13366232812404633, 0.021141761913895607, -0.043160613626241684, -0.01076777745038271, 0.06884723901748657, 0.11420276761054993, 0.051861148327589035, -0.014939537271857262, 0.12658172845840454, 0.06613069772720337, 0.30514219403266907, -0.0905698910355568, -0.08412757515907288, 0.4307291805744171, -0.46918392181396484, -0.008083455264568329, -0.022172221913933754, 0.08292023092508316, 0.3464541733264923, -0.14283080399036407, -0.20136377215385437, 0.24510009586811066, 0.1303509920835495, -0.05303286761045456, -0.0884503424167633, 0.05244515836238861, -0.30569538474082947, -0.1664871871471405, 0.28197553753852844], [-0.1750667244195938, -0.2160523384809494, -0.17436660826206207, -0.18406163156032562, 0.1664043366909027, 0.20196989178657532, -0.2970938980579376, -0.0924961194396019, -0.06746722757816315, -0.34981366991996765, 0.07390498369932175, 0.08037560433149338, 0.15546171367168427, 0.1251259744167328, -0.14562250673770905, 0.2891141474246979, 0.1981903463602066, -0.1418478935956955, 0.3953882157802582, -0.1482367068529129, 0.08881891518831253, -0.38407039642333984, -0.15837563574314117, -0.2833569645881653, -0.05697179585695267, 0.07337940484285355, 0.15605539083480835, 0.2678246796131134, 0.10858173668384552, -0.28599098324775696, -0.06233774125576019, 0.3210429251194], [-0.13765676319599152, 0.04913494735956192, -0.059235475957393646, 0.24562764167785645, -0.002538125729188323, -0.03792119398713112, -0.02215701900422573, -0.07471457868814468, 0.11574224382638931, -0.29566818475723267, 0.11872792989015579, 0.2187790870666504, 0.035048916935920715, 0.13198034465312958, 0.1770341992378235, 0.022993378341197968, 0.22598081827163696, -0.3006897568702698, 0.04968062788248062, -0.12350291758775711, 0.2064671814441681, -0.06663642078638077, -0.18371714651584625, -0.3344046175479889, 0.06898834556341171, 0.1744670420885086, -0.03547287732362747, 0.024983996525406837, 0.003582106903195381, -0.14986823499202728, -0.3423445522785187, 0.2815253734588623], [-0.0471719354391098, 0.13895943760871887, 0.05049113184213638, -0.057211264967918396, -0.0669056624174118, 0.2017100751399994, -0.33855298161506653, -0.20757082104682922, 0.08774208277463913, -0.03281906247138977, 0.14604400098323822, -0.03150368854403496, -0.24497075378894806, 0.11419923603534698, -0.003182541811838746, 0.08261196315288544, 0.07579679787158966, -0.2440474033355713, 0.4718621075153351, -0.14656467735767365, 0.05627630278468132, -0.05989335849881172, -0.09069452434778214, -0.006640604231506586, -0.11114835739135742, -0.09067368507385254, -0.02923058159649372, 0.11700895428657532, -0.08401830494403839, 0.1478234827518463, 0.14643938839435577, 0.09269708395004272], [-0.33754268288612366, 0.19696862995624542, -0.22197170555591583, -0.04700036346912384, 0.012955773621797562, -0.12852518260478973, 0.17798711359500885, -0.011576604098081589, -0.033025309443473816, 0.01474860031157732, 0.04896416515111923, 0.2220933586359024, 0.03274202719330788, 0.30041101574897766, -0.01756729930639267, -0.00656521413475275, 0.3296101689338684, -0.020143376663327217, -0.0980515331029892, -0.10127848386764526, 0.22973321378231049, 0.014073236845433712, -0.11719784140586853, 0.03971626237034798, 0.08115184307098389, 0.07684703171253204, -0.08861056715250015, 0.1128852367401123, 0.20738111436367035, -0.17801429331302643, -0.24771177768707275, 0.10387030988931656], [-0.33174318075180054, 0.13440728187561035, -0.12938417494297028, 0.15089352428913116, -0.28915998339653015, 0.23557494580745697, -0.19174817204475403, 0.006518456153571606, -0.11809847503900528, -0.11029333621263504, 0.2242118865251541, -0.040153663605451584, -0.09436122328042984, 0.20127353072166443, -0.11861354112625122, -0.03609281778335571, 0.3337399959564209, -0.18033871054649353, 0.0723552405834198, -0.042101938277482986, 0.04759516939520836, 0.0025094840675592422, -0.1608555167913437, -0.186351478099823, 0.17101694643497467, 0.19839608669281006, 0.06398563832044601, -0.027214964851737022, -0.13525287806987762, -0.18127427995204926, -0.29617318511009216, 0.019493600353598595], [0.08980197459459305, 0.0523308627307415, -0.11598313599824905, -0.11957746744155884, 0.10122038424015045, 0.012125673703849316, 0.05238693207502365, 0.4115561544895172, -0.017222702503204346, -0.09755155444145203, 0.0612659677863121, 0.13531333208084106, 0.19229233264923096, 0.26766130328178406, 0.15518398582935333, 0.3339797854423523, 0.06106758862733841, -0.03291519731283188, -0.3270668089389801, -0.03177447244524956, -0.040897030383348465, 0.27211278676986694, -0.05914183706045151, -0.02760128863155842, 0.0025673257187008858, 0.2701178789138794, -0.14320681989192963, -0.20825596153736115, 0.14670979976654053, -0.07160314917564392, -0.015006127767264843, -0.11599891632795334], [-0.1534198671579361, 0.2790607213973999, -0.1441725641489029, 0.1443285197019577, 0.03038131818175316, -0.09713271260261536, -0.04298703745007515, -0.21799716353416443, 0.014314871281385422, -0.2849620282649994, 0.1278439164161682, 0.1985943466424942, 0.2532562017440796, 0.11321168392896652, -0.05150701478123665, 0.03197101876139641, 0.10668479651212692, -0.02436310425400734, 0.05569951608777046, -0.3132599890232086, 0.10826216638088226, -0.05000128224492073, -0.20368340611457825, -0.2280973494052887, 0.4053043723106384, 0.21397221088409424, -0.21696805953979492, 0.06065836548805237, -0.12795957922935486, -0.032832179218530655, -0.07094776630401611, 0.23019838333129883], [-0.10010469704866409, 0.055531688034534454, -0.04697997495532036, 0.09889735281467438, 0.022512078285217285, 0.018102508038282394, -0.11670950800180435, 0.0325629897415638, 0.11347361654043198, -0.10972829908132553, 0.2026325762271881, 0.1751011461019516, 0.10969503223896027, 0.24008449912071228, -0.031962886452674866, -0.03695114329457283, 0.18107262253761292, -0.2534998655319214, -0.056865956634283066, -0.12066727131605148, 0.23405475914478302, 0.021372932940721512, 0.01488418411463499, -0.1718917191028595, 0.004372989758849144, 0.2965637147426605, -0.16050848364830017, -0.02703334391117096, 0.14237886667251587, -0.22399255633354187, -0.3083283603191376, 0.3306904137134552], [-0.23774048686027527, 0.034795645624399185, -0.08289661258459091, 0.17404204607009888, -0.03373181074857712, 0.014978887513279915, -0.09096367657184601, -0.10073836147785187, 0.47410842776298523, -0.4378756284713745, 0.12191557884216309, 0.23824647068977356, 0.09879276901483536, 0.157704159617424, 0.022395167499780655, -0.07378779351711273, 0.34315982460975647, -0.3077065646648407, -0.04382520541548729, -0.20456714928150177, 0.23319153487682343, 0.2334023267030716, -0.02928883209824562, -0.09339329600334167, 0.044518131762742996, 0.1815871000289917, -0.0335543267428875, 0.08818208426237106, 0.18580064177513123, -0.24755004048347473, -0.07468180358409882, 0.1902879774570465], [-0.2409372627735138, -0.006234053988009691, -0.2165893018245697, 0.16258153319358826, 0.1096813976764679, 0.13184237480163574, 0.016732577234506607, 0.10733629763126373, 0.09095687419176102, 0.08485572040081024, 0.044550225138664246, 0.3619803488254547, -0.1114068403840065, 0.1425488144159317, -0.06564353406429291, -0.15016894042491913, 0.1445399820804596, -0.2622610926628113, -0.07850919663906097, -0.09263315796852112, 0.3207017481327057, 0.17486928403377533, -0.32717886567115784, 0.12592953443527222, -0.04704263433814049, 0.02743474394083023, -0.24311499297618866, -0.08090836554765701, 0.3809538781642914, -0.13425815105438232, -0.15222066640853882, 0.24185293912887573], [-0.026980485767126083, -0.0656258687376976, -0.15775908529758453, 0.28958430886268616, 0.001433422090485692, 0.11984239518642426, 0.08277706801891327, -0.12086886912584305, 0.25178709626197815, -0.3125745356082916, 0.098506398499012, -0.011845347471535206, 0.07026349008083344, 0.23310181498527527, -0.08664412796497345, -0.002550291595980525, 0.3171432316303253, -0.12402166426181793, 0.027473783120512962, -0.014575641602277756, 0.21435268223285675, 0.1923898458480835, -0.13787809014320374, 0.2877356708049774, -0.017082374542951584, 0.06985527276992798, -0.18610920011997223, -0.06212906539440155, 0.22053062915802002, -0.10660575330257416, -0.08364100754261017, 0.05295003205537796], [-0.1961514949798584, -0.03204827010631561, -0.19274407625198364, 0.1777622103691101, 0.28244948387145996, 0.13263851404190063, 0.046836256980895996, -0.12501537799835205, -0.0014609540812671185, -0.16528663039207458, 0.1805625855922699, 0.28021737933158875, -0.22283141314983368, -0.04486585780978203, -0.051122430711984634, 0.07274094969034195, 0.2761462926864624, -0.07416165620088577, 0.028772857040166855, 0.009837307967245579, -0.013767979107797146, 0.12052267789840698, -0.20300593972206116, 0.047893501818180084, 0.19244633615016937, 0.023874063044786453, -0.18734678626060486, 0.06072717532515526, 0.15166768431663513, -0.10245255380868912, -0.0500144325196743, 0.16347812116146088], [-0.17805403470993042, 0.2609708309173584, 0.028757896274328232, 0.2377781867980957, -0.20044471323490143, 0.1456737071275711, 0.08979091793298721, 0.0563969612121582, 0.179044708609581, -0.06362094730138779, -0.11570686846971512, 0.2316233515739441, -0.06435668468475342, 0.26842784881591797, -0.18460486829280853, -0.04790275916457176, 0.16155104339122772, -0.39548662304878235, 0.04200150445103645, -0.0933900773525238, 0.2853260934352875, 0.24841977655887604, -0.206755593419075, -0.0036809181328862906, 0.0695551335811615, -0.028479890897870064, -0.35809850692749023, 0.12152495235204697, 0.03286362066864967, -0.18815623223781586, -0.25543996691703796, 0.13878056406974792], [0.09597799926996231, -0.0707603245973587, 0.22076581418514252, -0.2295839637517929, -0.21757008135318756, -0.05377757549285889, -0.0912834107875824, 0.02450348250567913, -0.20536063611507416, 0.3547145128250122, -0.09689831733703613, 0.037906624376773834, 0.025992589071393013, -0.08927332609891891, 0.06002291291952133, 0.0235192459076643, -0.19283120334148407, 0.2737939655780792, -0.07671427726745605, 0.05248222127556801, -0.1369936764240265, -0.11285489797592163, 0.05570181831717491, 0.07602240890264511, -0.10338238626718521, 0.0027808649465441704, 0.09513475745916367, 0.1820075362920761, -0.07023987919092178, -0.02634715661406517, 0.03596878424286842, -0.2330307811498642], [0.06846769154071808, 0.012053506448864937, -0.11966034024953842, 0.24728287756443024, 0.1165832132101059, -0.04037218913435936, -0.03188042715191841, -0.002355653792619705, -0.055724333971738815, -0.04932381585240364, 0.26365604996681213, 0.012760351411998272, 0.09434181451797485, 0.22847037017345428, -0.2789909541606903, -0.06455063074827194, 0.05067698657512665, 0.013811706565320492, 0.3221336603164673, -0.12050087004899979, 0.2122102528810501, -0.13710848987102509, -0.04670461267232895, -0.18872703611850739, 0.08981601893901825, -0.07773570716381073, -0.01735045202076435, 0.18325366079807281, 0.052530378103256226, -0.04424365237355232, -0.19865252077579498, 0.08120585232973099], [-0.05996055155992508, 0.09559018164873123, -0.028619561344385147, 0.28049716353416443, 0.0722777470946312, -0.1303461343050003, 0.10104870051145554, -0.03826098144054413, 0.09539717435836792, 0.012247402220964432, 0.11779575794935226, 0.07232922315597534, 0.03490178659558296, -0.1197921484708786, 0.14954903721809387, -0.16420170664787292, 0.21006989479064941, 0.05541682988405228, -0.11488614976406097, 0.13138721883296967, 0.14975371956825256, -0.33887729048728943, 0.07091590017080307, -0.018614307045936584, 0.21970883011817932, -0.30517348647117615, 0.013437485322356224, 0.14415964484214783, -0.18193185329437256, -0.030200215056538582, -0.00045931863132864237, -0.025117158889770508], [0.05630860850214958, 0.070803202688694, -0.06380398571491241, 0.30279454588890076, 0.0047847614623606205, -0.026806456968188286, 0.2999378740787506, -0.15491753816604614, 0.013895092532038689, 0.011661486700177193, -0.15748830139636993, -0.11550603806972504, -0.09092245995998383, 0.043241579085588455, 0.029863258823752403, -0.04851304739713669, -0.031867507845163345, 0.06516070663928986, 0.07580165565013885, 0.03177076205611229, -0.06572608649730682, -0.3117324709892273, 0.10904721915721893, 0.032869718968868256, 0.05257304385304451, -0.09339134395122528, -0.053947653621435165, 0.1051054447889328, 0.08800255507230759, 0.02005370333790779, 0.2198309302330017, 0.0072856079787015915], [0.03784821182489395, 0.09038176387548447, -0.12253060191869736, 0.2616068124771118, -0.2100095897912979, 0.0015417939284816384, -0.11266238242387772, 0.026742175221443176, 0.13236674666404724, -0.007488728500902653, -0.005467286799103022, 0.05655364319682121, -0.03509267792105675, 0.10581422597169876, -0.014776878990232944, 0.0386788509786129, 0.08226703107357025, 0.09501182287931442, 0.021675346419215202, -0.12357652187347412, 0.11769432574510574, -0.20743486285209656, 0.05593101680278778, 0.20054101943969727, 0.11371767520904541, 0.05955376848578453, 0.002634488046169281, 0.3556653559207916, -0.20129550993442535, 0.15654711425304413, -0.22602349519729614, 0.004778434056788683], [0.10216996818780899, -0.051216501742601395, 0.16115592420101166, -0.05196397006511688, -0.050420913845300674, 0.012096143327653408, 0.0352550745010376, -0.033714186400175095, -0.31129059195518494, -0.05024198442697525, -0.05261047184467316, -0.09784889221191406, 0.18876515328884125, -0.23426760733127594, -0.026497717946767807, -0.10123340040445328, 0.022861422970891, 0.11518145352602005, 0.019824141636490822, 0.23210155963897705, 0.07451663166284561, 0.18762145936489105, 0.11770384013652802, -0.10226983577013016, -0.20046409964561462, 0.03508468344807625, 0.2837233245372772, 0.1603226363658905, 0.007085795514285564, -0.04074777662754059, 0.17575062811374664, -0.34245729446411133], [-0.032290514558553696, -0.01630236953496933, 0.12791217863559723, 0.02497454360127449, 0.023476051166653633, -0.12971876561641693, 0.21746833622455597, 0.007006399799138308, 0.11661119014024734, 0.05125068500638008, 0.069320447742939, 0.057616762816905975, 0.11961018294095993, 0.24101684987545013, -0.04770105704665184, -0.001182946260087192, 0.07642240077257156, 0.08653717488050461, -0.12804654240608215, 0.0177498459815979, 0.04791133478283882, -0.11581899225711823, 0.02253936603665352, -0.1505422443151474, 0.1848144233226776, 0.00966962892562151, -0.22554612159729004, -0.03353862091898918, -0.005431668367236853, -0.09977821260690689, 0.09361210465431213, 0.034893546253442764], [-0.09190892428159714, 0.0573827289044857, -0.17481645941734314, -0.0007214383222162724, -0.16121311485767365, 0.16724008321762085, -0.2078484147787094, 0.10289536416530609, -0.01756572164595127, 0.07405415922403336, -0.06455036252737045, 0.09456221759319305, 0.10991083085536957, 0.12758158147335052, -0.04635303094983101, 0.19424420595169067, 0.0647788941860199, -0.27478277683258057, 0.047331906855106354, 0.03988392651081085, 0.07212851196527481, 0.16736413538455963, -0.3255833387374878, -0.09697788208723068, -0.310848206281662, 0.10103834420442581, -0.07178626954555511, -0.17625796794891357, 0.009265984408557415, -0.0444420650601387, 0.008967178873717785, -0.07884202897548676], [-0.13175825774669647, -0.02285580523312092, -0.014598758891224861, 0.31694459915161133, 0.15151937305927277, -0.23712158203125, -0.021518433466553688, 0.08532184362411499, 0.06206637993454933, 0.055150795727968216, 0.032451238483190536, 0.11142782121896744, -0.23842588067054749, 0.012312157079577446, -0.003333441913127899, -0.11023806035518646, 0.34768176078796387, -0.25540363788604736, -0.08340907841920853, -0.16525278985500336, 0.06787291914224625, 0.09268409013748169, -0.0600973516702652, -0.05719159543514252, 0.27858272194862366, 0.11062534153461456, -0.20659729838371277, -0.011652329936623573, 0.0817461684346199, 0.13085858523845673, 0.07546105235815048, -0.05622180923819542], [0.08486753702163696, -0.15966220200061798, -0.0834762305021286, -0.11123861372470856, -0.038575515151023865, 0.08130087703466415, -0.07697902619838715, -0.25165486335754395, -0.1837538629770279, 0.18612198531627655, -0.016723206266760826, -0.045154791325330734, -0.05063953250646591, -0.199570432305336, 0.15025928616523743, -0.0057391393929719925, -0.19508101046085358, 0.18004482984542847, 0.12782219052314758, 0.043084144592285156, -0.27967187762260437, -0.014658678323030472, -0.036032386124134064, -0.19655607640743256, -0.19342297315597534, -0.2365567535161972, 0.03467855975031853, 0.1478932499885559, 0.07088129222393036, 0.17511294782161713, -0.042756929993629456, -0.08711155503988266], [-0.07483559846878052, 0.08340896666049957, -0.20185965299606323, 0.2814400792121887, 0.20935606956481934, -0.13652831315994263, 0.04833238571882248, -0.06128586828708649, -0.05838197097182274, -0.1291009932756424, 0.13720330595970154, -0.03058471716940403, -0.05125696212053299, -0.05136583000421524, -0.04648316651582718, -0.1681734323501587, 0.06585881114006042, -0.16141460835933685, 0.08183126896619797, -0.33821824193000793, -0.02443273551762104, -0.27068066596984863, -0.05641106143593788, -0.0015842036809772253, -0.10547145456075668, -0.033062342554330826, 0.059116654098033905, 0.26570507884025574, 0.0067392634227871895, -0.03252732381224632, -0.09396585822105408, 0.0899483859539032], [-0.045469656586647034, 0.11191964894533157, 0.10869687795639038, 0.15857259929180145, -0.032178815454244614, -0.10351422429084778, 0.07767290621995926, 0.247503861784935, -0.062183503061532974, 0.09679929912090302, -0.12407030165195465, 0.11474474519491196, 0.03169979900121689, 0.08012651652097702, 0.08678353577852249, 0.05244063958525658, -0.17724387347698212, -0.07839691638946533, -0.19881822168827057, 0.24896328151226044, -0.06558751314878464, 0.07567068934440613, 0.09238222986459732, 0.17932380735874176, -0.016380606219172478, -0.15416264533996582, 0.20376823842525482, -0.36595550179481506, 0.23863011598587036, 0.04947488382458687, 0.22600579261779785, -0.02509702928364277], [-0.029320398345589638, 0.15540514886379242, 0.0827597975730896, -0.06620166450738907, 0.059372518211603165, 0.1663963943719864, 0.09117917716503143, -0.015616599470376968, -0.0007777287974022329, -0.10470282286405563, 0.32960495352745056, 0.03228024020791054, -0.024610091000795364, 0.044844165444374084, -0.15854644775390625, -0.1521129161119461, 0.07732759416103363, -0.18159648776054382, 0.2990342676639557, -0.001759262871928513, -0.12745192646980286, 0.14608195424079895, 0.025571709498763084, -0.2256251722574234, 0.1352250874042511, 0.1349629908800125, -0.035788845270872116, 0.34089353680610657, -0.08362122625112534, -0.003607638878747821, -0.12076437473297119, 0.1619860976934433], [-0.15431155264377594, 0.1092468723654747, -0.1445937305688858, 0.031224194914102554, -0.13292741775512695, -0.053286466747522354, -0.11867348104715347, 0.025710785761475563, 0.09149005264043808, -0.1327713131904602, 0.39090824127197266, 0.09561070799827576, 0.1381859928369522, 0.06671707332134247, 0.07153124362230301, -0.01297924667596817, -0.04714323207736015, -0.2273743897676468, 0.16837942600250244, 0.0257160272449255, 0.09640266001224518, 0.12166847288608551, 0.00545929791405797, -0.2118968516588211, 0.07437137514352798, 0.18186186254024506, -0.15768109261989594, 0.06715652346611023, 0.11582574993371964, 0.14850766956806183, -0.11535085737705231, -0.0046045514754951], [0.0017700415337458253, 0.24080590903759003, -0.12692341208457947, 0.2525727450847626, 0.10128897428512573, 0.024343563243746758, -0.04484638571739197, -0.003694052342325449, -0.022254187613725662, 0.11284086108207703, 0.0697830319404602, -0.1510521024465561, -0.1791893094778061, -0.16423474252223969, -0.3535842001438141, 0.04132528603076935, 0.04058602452278137, 0.12244029343128204, 0.16562265157699585, 0.06713636964559555, -0.013898687437176704, 0.1289590448141098, 0.10729310661554337, 0.07964738458395004, 0.00807743426412344, -0.10210816562175751, -0.07090429216623306, 0.25255846977233887, -0.0841255933046341, -0.027784373611211777, -0.06801839172840118, -0.14186812937259674], [-0.07479879260063171, -0.1583305150270462, 0.08821520954370499, -0.16290709376335144, -0.17145054042339325, 0.19472548365592957, -0.1579909771680832, 0.2221040576696396, -0.06206787750124931, 0.11777068674564362, 0.1334812045097351, -0.01619448885321617, -0.01661507599055767, -0.08207102119922638, -0.01985853724181652, 0.2559717893600464, -0.1585690826177597, 0.013972992077469826, 0.31133130192756653, 0.04982713609933853, 0.07220657169818878, 0.2281433790922165, 0.1543109118938446, -0.14488936960697174, -0.019532760605216026, 0.14101608097553253, 0.01711857132613659, 0.08642488718032837, 0.07260661572217941, 0.0050154500640928745, -0.1015343889594078, -0.018689893186092377], [-0.03549599274992943, -0.127587229013443, -0.17360535264015198, 0.2792198657989502, -0.1317838430404663, -0.03203459829092026, 0.02378551848232746, -0.001221540616825223, -0.0829804390668869, 0.20123982429504395, -0.05029670521616936, -0.06522192806005478, -0.06085241958498955, 0.09807730466127396, 0.1696067601442337, 0.04997657611966133, 0.09039882570505142, -0.18755631148815155, -0.2503378987312317, 0.05842651426792145, 0.21572281420230865, 0.10554888099431992, 0.10238684713840485, 0.2333475649356842, 0.15263545513153076, -0.031014299020171165, -0.023404985666275024, -0.2668798863887787, -0.1015840694308281, -0.021598225459456444, -0.01677192561328411, 0.29902714490890503], [-0.06271777302026749, -0.27911290526390076, 0.27990832924842834, 0.01812632754445076, -0.05485418438911438, -0.22401633858680725, 0.1606661081314087, 0.0725037083029747, -0.16101554036140442, -0.08237456530332565, -0.032570261508226395, -0.21154020726680756, 0.030148258432745934, -0.05592789128422737, -0.11868041753768921, 0.02557859756052494, -0.12470449507236481, 0.08281142264604568, 0.008136306889355183, -0.024304784834384918, -0.2726665437221527, -0.2642526924610138, 0.12320172786712646, 0.04844602569937706, 0.1059877946972847, -0.3063722550868988, 0.13539175689220428, 0.04841063544154167, -0.2254573106765747, 0.13686707615852356, 0.15425381064414978, -0.1082431972026825], [-0.10127858072519302, 0.006961794104427099, 0.13155174255371094, -0.22258733212947845, 0.061292700469493866, 0.1373601108789444, -0.291547030210495, -0.17186227440834045, -0.053982388228178024, 0.07974203675985336, -0.03274066373705864, -0.3795814514160156, 0.031787849962711334, 0.02297702245414257, -0.166018545627594, 0.05785603076219559, -0.026447312906384468, 0.08223108947277069, 0.0972517728805542, -0.135519877076149, -0.03973657265305519, -0.008315879851579666, -0.16652792692184448, -0.3114659786224365, -0.1346643567085266, 0.2420823872089386, 0.24053308367729187, 0.16117458045482635, 0.010749192908406258, 0.07173839956521988, -0.0890900045633316, -0.0958469957113266], [0.10609567910432816, -0.17553605139255524, -0.13697920739650726, 0.17393898963928223, 0.02128984034061432, 0.045333776623010635, 0.11396173387765884, 0.07036260515451431, -0.027551082894206047, -0.021319987252354622, -0.07499422878026962, -0.17164745926856995, -0.08558014780282974, -0.1093318909406662, 0.13216672837734222, 0.018862610682845116, 0.0006593147991225123, -0.07276149839162827, -0.16462342441082, 0.16994233429431915, 0.051264263689517975, -0.06685792654752731, -0.01679801195859909, 0.2698708474636078, -0.046005163341760635, -0.13902680575847626, 0.11557403206825256, -0.2710815966129303, -0.13012942671775818, -0.038718875497579575, 0.24423794448375702, -0.08600810915231705], [-0.08639707416296005, 0.17525267601013184, -0.08018219470977783, 0.2065230906009674, 0.13193021714687347, -0.014403660781681538, 0.25188949704170227, -0.10266632586717606, -0.01752835139632225, 0.11654049903154373, 0.20242320001125336, 0.04120844602584839, -0.09112413227558136, -0.07990249991416931, 0.13090597093105316, -0.17221787571907043, 0.05668332055211067, -0.17383454740047455, -0.08435873687267303, -0.051627613604068756, 0.012271467596292496, 0.02687753736972809, -0.03879988193511963, 0.05709485709667206, 0.08012929558753967, 0.030155545100569725, -0.10220113396644592, -0.20521260797977448, 0.020282968878746033, -0.23364196717739105, -0.10906653106212616, 0.03250250592827797], [-0.052079588174819946, 0.11701802909374237, 0.055222973227500916, -0.05348917096853256, 0.018617432564496994, 0.1186835840344429, -0.06814005970954895, -0.04736701399087906, -0.06977332383394241, -0.10815205425024033, 0.18623976409435272, -0.14166386425495148, -0.024778645485639572, 0.048007532954216, -0.06273971498012543, 0.05392730236053467, 0.05661611631512642, -0.035824768245220184, 0.14112581312656403, -0.1343594491481781, 0.007654672488570213, -0.08177107572555542, -0.019215408712625504, -0.1769697070121765, -0.08186975866556168, -0.04081590473651886, 0.08434668183326721, -0.10412073135375977, 0.21008414030075073, 0.0749034509062767, -0.17100833356380463, -0.047249551862478256], [-0.09139672666788101, 0.07460978627204895, -0.040462326258420944, -0.30401939153671265, -0.1442752480506897, 0.029196176677942276, -0.3294163644313812, 0.18521267175674438, 0.11823433637619019, 0.026973610743880272, -0.07414594292640686, 0.04887982830405235, 0.018937505781650543, 0.1925647109746933, 0.009696832858026028, 0.2676672339439392, -0.048395782709121704, -0.0749974399805069, 0.41236382722854614, 0.15446119010448456, 0.14427806437015533, 0.4578600823879242, -0.14653389155864716, 0.03434065356850624, -0.291568785905838, 0.23969975113868713, -0.07882274687290192, -0.23523883521556854, 0.032900672405958176, -0.17064262926578522, -0.22821760177612305, -0.01315059419721365], [0.20082372426986694, 0.006865787785500288, 0.2203168123960495, 0.01617831364274025, 0.1473257839679718, -0.2382228970527649, 0.05064361169934273, 0.03802139312028885, 0.045020271092653275, -0.07434458285570145, -0.13914954662322998, -0.2828853130340576, -0.047868821769952774, -0.18570657074451447, 0.24511241912841797, 0.05247719958424568, -0.0264478400349617, -0.053561799228191376, 0.018571190536022186, 0.055476587265729904, 0.11882219463586807, -0.07360157370567322, 0.33198803663253784, 0.2040112018585205, -0.1045258566737175, -0.04414023458957672, -0.12505823373794556, -0.4039953052997589, -0.008676697500050068, 0.2893686592578888, 0.07069449871778488, -0.08229870349168777], [0.0680367574095726, 0.1053989976644516, 0.04037337005138397, -0.06151154637336731, -0.10879980772733688, -0.05183064192533493, -0.0538126640021801, 0.15580439567565918, 0.1575116515159607, 0.0515536405146122, -0.08039058744907379, 0.1167936623096466, 0.1640314757823944, -0.07438695430755615, -0.008654782548546791, 0.05211872607469559, 0.0586436502635479, -0.0142056280747056, 0.12419996410608292, -0.12583188712596893, -0.10522234439849854, 0.040175702422857285, -0.017598746344447136, -0.01569986157119274, -0.10244627296924591, 0.1029820591211319, 0.009504924528300762, -0.059531357139348984, 0.19111794233322144, 0.04814593866467476, -0.050738248974084854, -0.048921335488557816], [-0.032771892845630646, 0.09529025852680206, 0.06888739764690399, -0.19229580461978912, 0.020147932693362236, 0.0953146368265152, -0.0746140256524086, -0.01581839844584465, -0.06637972593307495, -0.14369884133338928, 0.23481358587741852, 0.06575220078229904, -0.07191400229930878, -0.12495100498199463, -0.1907353550195694, 0.03657802939414978, 0.3147346079349518, 0.17446112632751465, 0.35192206501960754, -0.22984199225902557, 0.1375529021024704, 0.026021895930171013, -0.19978636503219604, -0.08893580734729767, 0.10478425025939941, -0.1501336395740509, -0.13533590734004974, 0.10062069445848465, 0.022329702973365784, 0.05666426569223404, -0.14519938826560974, 0.10348411649465561], [-0.13945434987545013, 0.2886797785758972, -0.3072144389152527, 0.20682509243488312, 0.10187225043773651, -0.3155157268047333, 0.24255937337875366, 0.1760719120502472, 0.22851084172725677, -0.1764029562473297, -0.01621716469526291, 0.09945514798164368, -0.18238647282123566, -0.00558368070051074, 0.005775891710072756, 0.00590219022706151, 0.21969172358512878, -0.32757288217544556, -0.38164377212524414, -0.10092862695455551, 0.04933629184961319, -0.12877096235752106, -0.08505859971046448, 0.11088411509990692, 0.20453205704689026, -0.12108206748962402, -0.023485595360398293, -0.31506529450416565, 0.06639209389686584, -0.27506357431411743, 0.12544992566108704, -0.03571583330631256], [-0.10778113454580307, 0.02376154623925686, 0.05709037184715271, 0.2703353762626648, 0.03744225203990936, 0.05488545447587967, -0.05839146673679352, -0.23573212325572968, -0.12810032069683075, -0.1946060061454773, -0.18141910433769226, -0.06523656845092773, 0.13477778434753418, -0.06367775797843933, -0.21903114020824432, -0.016720833256840706, 0.10405044257640839, 0.0057398416101932526, 0.018208349123597145, 0.024419208988547325, -0.06626081466674805, -0.21545301377773285, 0.12394708395004272, -0.07308329641819, 0.18671263754367828, -0.09004849195480347, 0.14548972249031067, 0.29981330037117004, -0.046062588691711426, 0.07391960918903351, 0.08966068923473358, -0.0015746860299259424], [1.6146050256793387e-05, 0.20526596903800964, -0.0908862054347992, 0.17319829761981964, 0.032483384013175964, 0.12737073004245758, 0.01817798614501953, 0.11254372447729111, 0.15540502965450287, -0.2979333996772766, 0.11468830704689026, -0.0627794861793518, 0.00674480851739645, 0.15216012299060822, 0.056095026433467865, 0.04210786148905754, 0.3771750032901764, -0.1318974643945694, 0.039599232375621796, 0.07090367376804352, 0.10173694044351578, -0.05302803963422775, -0.23142996430397034, -0.13618068397045135, -0.0584263913333416, -0.07301029562950134, -0.2812992334365845, -0.1371815949678421, -0.06525667756795883, -0.14292962849140167, -0.06569042056798935, 0.1448494791984558], [-0.1633308082818985, 0.17408034205436707, 0.1742297261953354, 0.025613127276301384, 0.19820673763751984, 0.012090466916561127, 0.004128941800445318, 0.11391708999872208, 0.14681431651115417, -0.3125920593738556, 0.31882861256599426, -0.04615556076169014, 0.1795148253440857, -0.04032568261027336, 0.12811556458473206, -0.1169840469956398, 0.23121295869350433, -0.055930741131305695, 0.1849636286497116, -0.14527054131031036, 0.017696622759103775, -0.17998021841049194, -0.18012365698814392, 0.1292823702096939, -0.08565861731767654, -0.022981742396950722, 0.03495138883590698, -0.018649429082870483, 0.11862492561340332, 0.0961480662226677, 0.010159911587834358, 0.08398492634296417], [0.04150424152612686, 0.13829314708709717, 0.012624385766685009, -0.13113850355148315, -0.060239531099796295, 0.18376079201698303, 0.07885218411684036, -0.014736007899045944, -0.07936936616897583, 0.08275032043457031, -0.11749758571386337, -0.017522074282169342, 0.17011959850788116, 0.031015953049063683, 0.29130035638809204, -0.03550169989466667, -0.05609947815537453, 0.13350042700767517, -0.20586319267749786, -0.07352565228939056, -0.07652877271175385, 0.020101383328437805, 0.21195705235004425, 0.014830325730144978, 0.033923231065273285, -0.1095983237028122, -0.024110743775963783, 0.017253439873456955, -0.17023643851280212, -0.0195364560931921, 0.2775686979293823, -0.013930958695709705], [-0.08982298523187637, 0.09658603370189667, -0.21449384093284607, 0.12316986173391342, -0.32575032114982605, 0.11579802632331848, -0.26500871777534485, -0.08107355237007141, 0.08600489050149918, -0.007618161849677563, -0.06638849526643753, 0.23118995130062103, -0.015297932550311089, 0.34167155623435974, 0.09352120012044907, 0.02198902517557144, 0.13352331519126892, 0.07723402976989746, -0.197407528758049, 0.146564319729805, 0.08551772683858871, -0.05460723862051964, 0.1800002157688141, 0.08943918347358704, 0.3258507251739502, 0.137640118598938, 0.11401158571243286, -0.08547656983137131, -0.042143452912569046, 0.21272239089012146, -0.0865280032157898, 0.06414352357387543]], "gru.bias_ih_l0": [0.10118445008993149, 0.04814457148313522, 0.1227993294596672, 0.03401992470026016, -0.0017011802410706878, 0.06617420166730881, 0.010906280018389225, 0.049140069633722305, 0.09398214519023895, 0.10158248990774155, 0.03223419189453125, 0.07114467024803162, 0.08457013964653015, 0.07341084629297256, 0.017944209277629852, 0.08088167011737823, 0.10971987247467041, 0.12254387140274048, 0.13192476332187653, 0.09402879327535629, 0.12714260816574097, 0.03392917662858963, 0.08681454509496689, 0.08271972835063934, -0.028433145955204964, 0.06018173694610596, 0.09812908619642258, 0.06376053392887115, 0.06863737851381302, -0.03197057917714119, -0.003194110468029976, 0.09086907655000687, -0.16604746878147125, -0.19614742696285248, -0.1040438860654831, -0.19068031013011932, -0.23051993548870087, -0.14911501109600067, -0.22054843604564667, -0.1150193065404892, -0.24730776250362396, -0.21895349025726318, -0.20710603892803192, -0.1290225237607956, -0.21803119778633118, -0.259010374546051, -0.01035177893936634, -0.1974705159664154, -0.20493371784687042, -0.30646851658821106, -0.20398545265197754, -0.04702179133892059, -0.1950390338897705, -0.12582403421401978, -0.183228999376297, -0.27064070105552673, -0.10923530161380768, -0.25059744715690613, -0.15850183367729187, -0.2390124499797821, -0.21101093292236328, -0.22767864167690277, -0.278086394071579, -0.19186455011367798, 0.06296679377555847, -0.0481681190431118, -0.03500451520085335, -0.033128321170806885, 0.003104320028796792, 0.09413998574018478, -0.03118312545120716, -0.021134955808520317, -0.07356171309947968, 0.07872142642736435, -0.07324698567390442, 0.004103085957467556, -0.04894234985113144, -0.052128054201602936, -0.027809523046016693, -0.06475642323493958, -0.021240394562482834, 0.14615584909915924, 0.011392663232982159, 0.03205743432044983, -0.07877369225025177, -0.051262129098176956, 0.018940672278404236, 0.07113948464393616, -0.010891588404774666, -0.0330200232565403, -0.026273034512996674, -0.007617701776325703, -0.11222320795059204, 0.05555904284119606, 0.1191989853978157, -0.08311379700899124], "gru.bias_hh_l0": [0.10118445008993149, 0.04814457148313522, 0.1227993294596672, 0.03401992470026016, -0.0017011802410706878, 0.06617420166730881, 0.010906280018389225, 0.049140069633722305, 0.09398214519023895, 0.10158248990774155, 0.03223419189453125, 0.07114467024803162, 0.08457013964653015, 0.07341084629297256, 0.017944209277629852, 0.08088167011737823, 0.10971987247467041, 0.12254387140274048, 0.13192476332187653, 0.09402879327535629, 0.12714260816574097, 0.03392917662858963, 0.08681454509496689, 0.08271972835063934, -0.028433145955204964, 0.06018173694610596, 0.09812908619642258, 0.06376053392887115, 0.06863737851381302, -0.03197057917714119, -0.003194110468029976, 0.09086907655000687, -0.16604746878147125, -0.19614742696285248, -0.1040438860654831, -0.19068031013011932, -0.23051993548870087, -0.14911501109600067, -0.22054843604564667, -0.1150193065404892, -0.24730776250362396, -0.21895349025726318, -0.20710603892803192, -0.1290225237607956, -0.21803119778633118, -0.259010374546051, -0.01035177893936634, -0.1974705159664154, -0.20493371784687042, -0.30646851658821106, -0.20398545265197754, -0.04702179133892059, -0.1950390338897705, -0.12582403421401978, -0.183228999376297, -0.27064070105552673, -0.10923530161380768, -0.25059744715690613, -0.15850183367729187, -0.2390124499797821, -0.21101093292236328, -0.22767864167690277, -0.278086394071579, -0.19186455011367798, 0.14144092798233032, -0.09025382995605469, -0.025508981198072433, -0.022899163886904716, -0.043711185455322266, 0.12565754354000092, -0.02853509970009327, -0.03940374031662941, -0.07607817649841309, 0.1020977795124054, -0.0863678902387619, 0.025522980839014053, -0.09509560465812683, -0.0706963837146759, 0.01078085508197546, -0.023895641788840294, -0.04345473647117615, 0.16762006282806396, 0.034148428589105606, 0.03607804328203201, -0.09015759080648422, -0.013267913833260536, -0.032551832497119904, 0.07159584760665894, -0.017214098945260048, -0.056088224053382874, -0.081582210958004, 0.018285583704710007, -0.12785571813583374, 0.012289812788367271, 0.12034188210964203, -0.13242539763450623], "fc.weight": [[0.25693973898887634, -0.0023247920908033848, 0.48906487226486206, 0.48085877299308777, 0.48747044801712036, 0.12203158438205719, 0.28682976961135864, -0.5111298561096191, -0.056331124156713486, 0.16193602979183197, 0.1434604525566101, -0.5430511236190796, 0.3646675646305084, -0.38150471448898315, -0.02431201934814453, -0.5699835419654846, -0.33545735478401184, 0.25032615661621094, 0.44000327587127686, 0.2355622798204422, -0.1766800582408905, -0.3438381850719452, -0.35947227478027344, 0.13963131606578827, -0.2572017312049866, -0.006017353385686874, -0.418491929769516, 0.6414176225662231, -0.32710200548171997, 0.19051681458950043, 0.26435333490371704, -0.16169674694538116], [0.006735136732459068, -0.4621962904930115, 0.5215175747871399, -0.02380836009979248, 0.020810890942811966, -0.10245587676763535, 0.13461750745773315, -0.28081828355789185, -0.07452470809221268, 0.01842319592833519, -0.08243922889232635, 0.24221086502075195, -0.6006091833114624, -0.2929248809814453, 0.013718558475375175, -0.540307343006134, -0.01218301709741354, 0.2356991469860077, -0.6098893880844116, 0.40914827585220337, -0.08512035012245178, -0.10839896649122238, 0.02881375141441822, 0.4072420001029968, -0.08124332129955292, -0.5390572547912598, 0.5541205406188965, 0.030993128195405006, -0.14759096503257751, 0.30123770236968994, 0.38357555866241455, -0.43921786546707153], [0.33108770847320557, 0.2032836675643921, -0.22802667319774628, -0.5456449389457703, 0.1706952005624771, 0.4303233027458191, -0.4202759861946106, 0.0776834785938263, -0.4773722290992737, 0.3396904170513153, -0.3960869610309601, -0.31762784719467163, -0.17725145816802979, 0.05423344671726227, -0.07867459207773209, 0.47625917196273804, -0.547060489654541, 0.2736664116382599, 0.6125748157501221, -0.32839587330818176, -0.3583456575870514, 0.15503595769405365, 0.34522953629493713, 0.09408856928348541, 0.10299926996231079, 0.09493619203567505, -0.33614981174468994, 0.14759904146194458, -0.5265073776245117, 0.3913058042526245, 0.17617805302143097, -0.4673158824443817], [0.17477694153785706, -0.40743350982666016, -0.24645072221755981, -0.43620216846466064, -0.45735087990760803, 0.37932392954826355, -0.2921006679534912, 0.22439099848270416, -0.41385364532470703, 0.12401384115219116, -0.4320719540119171, 0.08299309760332108, -0.28502365946769714, -0.20868471264839172, -0.1832527220249176, 0.09550323337316513, -0.020534561946988106, 0.2752564549446106, -0.16530460119247437, 0.30264583230018616, -0.5637772679328918, -0.2663249373435974, 0.23185789585113525, 0.2915867865085602, -0.06266117095947266, -0.29409483075141907, -0.1171303540468216, -0.7063536643981934, -0.25003549456596375, 0.04017156735062599, 0.49281972646713257, 0.21634253859519958]], "fc.bias": [-4.867292404174805, -4.857017517089844, -4.896178245544434, -4.835224628448486]}}